{"learner":{"attributes":{"scikit_learn":"{\"_estimator_type\": \"classifier\"}"},"feature_names":["current_sanity","session_count","avg_duration","interaction_rate","consistency"],"feature_types":["float","int","float","float","float"],"gradient_booster":{"model":{"gbtree_model_param":{"num_parallel_tree":"1","num_trees":"600"},"iteration_indptr":[0,4,8,12,16,20,24,28,32,36,40,44,48,52,56,60,64,68,72,76,80,84,88,92,96,100,104,108,112,116,120,124,128,132,136,140,144,148,152,156,160,164,168,172,176,180,184,188,192,196,200,204,208,212,216,220,224,228,232,236,240,244,248,252,256,260,264,268,272,276,280,284,288,292,296,300,304,308,312,316,320,324,328,332,336,340,344,348,352,356,360,364,368,372,376,380,384,388,392,396,400,404,408,412,416,420,424,428,432,436,440,444,448,452,456,460,464,468,472,476,480,484,488,492,496,500,504,508,512,516,520,524,528,532,536,540,544,548,552,556,560,564,568,572,576,580,584,588,592,596,600],"tree_info":[0,1,2,3,0,1,2,3,0,1,2,3,0,1,2,3,0,1,2,3,0,1,2,3,0,1,2,3,0,1,2,3,0,1,2,3,0,1,2,3,0,1,2,3,0,1,2,3,0,1,2,3,0,1,2,3,0,1,2,3,0,1,2,3,0,1,2,3,0,1,2,3,0,1,2,3,0,1,2,3,0,1,2,3,0,1,2,3,0,1,2,3,0,1,2,3,0,1,2,3,0,1,2,3,0,1,2,3,0,1,2,3,0,1,2,3,0,1,2,3,0,1,2,3,0,1,2,3,0,1,2,3,0,1,2,3,0,1,2,3,0,1,2,3,0,1,2,3,0,1,2,3,0,1,2,3,0,1,2,3,0,1,2,3,0,1,2,3,0,1,2,3,0,1,2,3,0,1,2,3,0,1,2,3,0,1,2,3,0,1,2,3,0,1,2,3,0,1,2,3,0,1,2,3,0,1,2,3,0,1,2,3,0,1,2,3,0,1,2,3,0,1,2,3,0,1,2,3,0,1,2,3,0,1,2,3,0,1,2,3,0,1,2,3,0,1,2,3,0,1,2,3,0,1,2,3,0,1,2,3,0,1,2,3,0,1,2,3,0,1,2,3,0,1,2,3,0,1,2,3,0,1,2,3,0,1,2,3,0,1,2,3,0,1,2,3,0,1,2,3,0,1,2,3,0,1,2,3,0,1,2,3,0,1,2,3,0,1,2,3,0,1,2,3,0,1,2,3,0,1,2,3,0,1,2,3,0,1,2,3,0,1,2,3,0,1,2,3,0,1,2,3,0,1,2,3,0,1,2,3,0,1,2,3,0,1,2,3,0,1,2,3,0,1,2,3,0,1,2,3,0,1,2,3,0,1,2,3,0,1,2,3,0,1,2,3,0,1,2,3,0,1,2,3,0,1,2,3,0,1,2,3,0,1,2,3,0,1,2,3,0,1,2,3,0,1,2,3,0,1,2,3,0,1,2,3,0,1,2,3,0,1,2,3,0,1,2,3,0,1,2,3,0,1,2,3,0,1,2,3,0,1,2,3,0,1,2,3,0,1,2,3,0,1,2,3,0,1,2,3,0,1,2,3,0,1,2,3,0,1,2,3,0,1,2,3,0,1,2,3,0,1,2,3,0,1,2,3,0,1,2,3,0,1,2,3,0,1,2,3,0,1,2,3,0,1,2,3,0,1,2,3,0,1,2,3,0,1,2,3,0,1,2,3,0,1,2,3,0,1,2,3,0,1,2,3,0,1,2,3,0,1,2,3,0,1,2,3,0,1,2,3,0,1,2,3,0,1,2,3,0,1,2,3,0,1,2,3,0,1,2,3,0,1,2,3,0,1,2,3],"trees":[{"base_weights":[-2.5974026E-2,1.9930343E-1,-6.6482985E-1,-6.6592835E-2,-3.6363637E-1,1.1764706E-2,-5.1428575E-2],"categories":[],"categories_nodes":[],"categories_segments":[],"categories_sizes":[],"default_left":[0,0,0,0,0,0,0],"id":0,"left_children":[1,-1,3,-1,5,-1,-1],"loss_changes":[1.5407673E3,0E0,5.8013916E-2,0E0,4.5928192E-1,0E0,0E0],"parents":[2147483647,0,0,2,2,4,4],"right_children":[2,-1,4,-1,6,-1,-1],"split_conditions":[2.4961308E1,1.9930343E-1,9.41642E1,-6.6592835E-2,2.812942E1,1.1764706E-2,-5.1428575E-2],"split_indices":[0,0,2,0,0,0,0],"split_type":[0,0,0,0,0,0,0],"sum_hessian":[1.1925E3,2.86125E2,9.06375E2,9.01875E2,4.5E0,1.125E0,3.375E0],"tree_param":{"num_deleted":"0","num_feature":"5","num_nodes":"7","size_leaf_vector":"1"}},{"base_weights":[-8.6071165E-3,6.6893905E-1,-6.65565E-2,-6.643658E-2,1.9630872E0,1.9863714E-1,3.6363637E-1,-1.5384616E-1,7.692308E-1,-3.529412E-2,1.1764706E-2,1.1764706E-2,1.0588236E-1],"categories":[],"categories_nodes":[],"categories_segments":[],"categories_sizes":[],"default_left":[0,0,0,0,0,0,0,0,0,0,0,0,0],"id":1,"left_children":[1,3,-1,-1,5,-1,7,9,11,-1,-1,-1,-1],"loss_changes":[5.305267E2,1.0137378E3,0E0,0E0,1.03758545E1,0E0,1.2727273E0,2.1719459E-1,4.8868775E-1,0E0,0E0,0E0,0E0],"parents":[2147483647,0,0,1,1,4,4,6,6,7,7,8,8],"right_children":[2,4,-1,-1,6,-1,8,10,12,-1,-1,-1,-1],"split_conditions":[5.0188515E1,2.4961308E1,-6.65565E-2,-6.643658E-2,4.9645027E1,1.9863714E-1,4.3078938E1,8.292464E0,1.3967289E-1,-3.529412E-2,1.1764706E-2,1.1764706E-2,1.0588236E-1],"split_indices":[0,0,0,0,0,0,4,2,3,0,0,0,0],"split_type":[0,0,0,0,0,0,0,0,0,0,0,0,0],"sum_hessian":[1.189875E3,5.8575E2,6.04125E2,2.8875E2,2.97E2,2.925E2,4.5E0,2.25E0,2.25E0,1.125E0,1.125E0,1.125E0,1.125E0],"tree_param":{"num_deleted":"0","num_feature":"5","num_nodes":"13","size_leaf_vector":"1"}},{"base_weights":[4.0187404E-2,-6.6552244E-2,7.0436186E-1,1.9628196E0,-6.644239E-2,1.9780564E0,5.263158E-1,6.3414633E-1,1.9936483E-1,1.5384616E-1,8.0000006E-2,1.20000005E-1,6.896552E-2,5.8823533E-2,-3.529412E-2,5.8823533E-2,-4.0000003E-2],"categories":[],"categories_nodes":[],"categories_segments":[],"categories_sizes":[],"default_left":[0,0,0,0,0,0,0,0,0,0,0,0,0,0,0,0,0],"id":2,"left_children":[1,-1,3,5,-1,7,9,11,-1,13,-1,-1,15,-1,-1,-1,-1],"loss_changes":[5.6321906E2,0E0,1.0675681E3,6.0231934E0,0E0,5.420166E0,3.611337E-1,1.5562658E0,0E0,9.230769E-1,0E0,0E0,1.1180527E0,0E0,0E0,0E0,0E0],"parents":[2147483647,0,0,2,2,3,3,5,5,6,6,7,7,9,9,12,12],"right_children":[2,-1,4,6,-1,8,10,12,-1,14,-1,-1,16,-1,-1,-1,-1],"split_conditions":[4.9645027E1,-6.6552244E-2,7.526951E1,7.485337E1,-6.644239E-2,5.0188515E1,1.9384884E1,4.3078938E1,1.9936483E-1,8.005247E0,8.0000006E-2,1.20000005E-1,1.3967289E-1,5.8823533E-2,-3.529412E-2,5.8823533E-2,-4.0000003E-2],"split_indices":[0,0,0,0,0,0,2,4,0,2,0,0,3,0,0,0,0],"split_type":[0,0,0,0,0,0,0,0,0,0,0,0,0,0,0,0,0],"sum_hessian":[1.199625E3,5.81625E2,6.18E2,3.2175E2,2.9625E2,3.18E2,3.75E0,4.125E0,3.13875E2,2.25E0,1.5E0,1.5E0,2.625E0,1.125E0,1.125E0,1.125E0,1.5E0],"tree_param":{"num_deleted":"0","num_feature":"5","num_nodes":"17","size_leaf_vector":"1"}},{"base_weights":[8.526567E-3,2.017982E-1,-1.3914657E-2,4.8780486E-2,4.815864E-1,-3.585008E-2,1.1356467E-1,-5.531915E-2,9.400324E-2,-4.6153847E-2,5.432836E-1,-3.68E-1,-3.0081414E-2,4.2909092E-1,2.5974026E-2,8.9655176E-2,5.3691275E-2,3.7885463E-1,8.2758623E-1,-1.1764706E-1,-5.8461543E-2,-1.3178538E-2,-1.5209989E-1,5.3061223E-1,-3.1578946E-1,2.524272E-1,-3.237858E-2,4.516129E-1,7.380074E-3,7E-1,1.9354838E-1,4E-1,1.027027E0,-3.8297874E-1,3.448276E-1,-3.0354131E-2,2.1238938E-1,-2.560297E-1,1.1428571E-2,-2.4096385E-2,7.764706E-1,-4.8275862E-2,1.1764706E-2,-4.379562E-2,7.532467E-1,-1.3729128E-1,1.764706E-1,-0E0,1.07692316E-1,-5.1428575E-2,4.271845E-3,1.03999995E-1,1.0526316E-2,8.9655176E-2,2.9850747E-3,9.565218E-2,-5.7142857E-3,1.2258065E-1,-0E0,-5.1428575E-2,-0E0,5.8823533E-2,-0E0,-2.1150278E-2,-1.2224487E-3,4.0000003E-2,8E-3,-3.469388E-2,-1.2903226E-3,7.368421E-2,-7.5000003E-3,5.8823533E-2,-1.6216217E-2,1.1351352E-1,4.6153847E-2,-3.6734696E-2,6.382979E-2,1.1864407E-1,-4.6153847E-2,4.0816325E-3,-2.781457E-2,-3.8297873E-2,2.8326182E-2],"categories":[],"categories_nodes":[],"categories_segments":[],"categories_sizes":[],"default_left":[0,0,0,0,0,0,0,0,0,0,0,0,0,0,0,0,0,0,0,0,0,0,0,0,0,0,0,0,0,0,0,0,0,0,0,0,0,0,0,0,0,0,0,0,0,0,0,0,0,0,0,0,0,0,0,0,0,0,0,0,0,0,0,0,0,0,0,0,0,0,0,0,0,0,0,0,0,0,0,0,0,0,0],"id":3,"left_children":[1,3,5,7,9,11,13,-1,15,-1,17,19,21,23,25,-1,27,29,31,33,-1,35,37,39,41,43,45,47,49,51,53,55,57,59,61,63,65,67,69,71,73,-1,-1,75,77,79,81,-1,-1,-1,-1,-1,-1,-1,-1,-1,-1,-1,-1,-1,-1,-1,-1,-1,-1,-1,-1,-1,-1,-1,-1,-1,-1,-1,-1,-1,-1,-1,-1,-1,-1,-1,-1],"loss_changes":[5.2167273E0,5.3334284E0,3.018497E0,2.2842739E0,2.8182974E0,1.7526659E0,4.369343E0,0E0,2.4470346E0,0E0,1.6440201E0,7.785704E-1,1.8663291E0,2.7670422E0,1.6615915E0,0E0,1.3695701E0,1.5531197E0,8.257227E-1,1.1750896E0,0E0,3.093266E0,1.8745534E0,4.19534E0,4.0055516E-1,3.8531094E0,2.2235374E0,2.1885858E0,1.2709286E0,1.9126315E0,2.202912E0,1.6447206E0,1.8884048E0,2.9544073E-1,3.0425963E-1,2.4317987E0,1.3713274E0,1.484673E0,2.798233E0,9.725132E-1,1.8763847E0,0E0,0E0,4.013831E0,5.6126246E0,1.7016059E0,2.1397884E0,0E0,0E0,0E0,0E0,0E0,0E0,0E0,0E0,0E0,0E0,0E0,0E0,0E0,0E0,0E0,0E0,0E0,0E0,0E0,0E0,0E0,0E0,0E0,0E0,0E0,0E0,0E0,0E0,0E0,0E0,0E0,0E0,0E0,0E0,0E0,0E0],"parents":[2147483647,0,0,1,1,2,2,3,3,4,4,5,5,6,6,8,8,10,10,11,11,12,12,13,13,14,14,16,16,17,17,18,18,19,19,21,21,22,22,23,23,24,24,25,25,26,26,27,27,28,28,29,29,30,30,31,31,32,32,33,33,34,34,35,35,36,36,37,37,38,38,39,39,40,40,43,43,44,44,45,45,46,46],"right_children":[2,4,6,8,10,12,14,-1,16,-1,18,20,22,24,26,-1,28,30,32,34,-1,36,38,40,42,44,46,48,50,52,54,56,58,60,62,64,66,68,70,72,74,-1,-1,76,78,80,82,-1,-1,-1,-1,-1,-1,-1,-1,-1,-1,-1,-1,-1,-1,-1,-1,-1,-1,-1,-1,-1,-1,-1,-1,-1,-1,-1,-1,-1,-1,-1,-1,-1,-1,-1,-1],"split_conditions":[6.7476344E0,6.0957136E0,5.8E1,7.3685207E0,3.9E1,7.027523E0,4.3548837E-1,-5.531915E-2,9.605814E0,-4.6153847E-2,6.4953394E0,9.7325385E-1,3.9168846E1,8.861802E1,9.6123085E0,8.9655176E-2,4.1E1,6.2273426E0,6.722673E-1,4.4423157E-1,-5.8461543E-2,3.344142E1,5.387206E1,2.985396E1,2.1884424E1,8.360442E0,2.5855389E1,5.2128517E1,5.0589314E0,9.966306E-1,1.556817E-1,1.9321823E-1,8.352085E1,4.5E1,3.979225E1,1.9321823E-1,3.5331413E1,5.2E1,1.8754025E-1,3.1910064E0,5.862849E1,-4.8275862E-2,1.1764706E-2,6.8159195E1,1.3385303E0,1.5296805E1,7.343279E-1,-0E0,1.07692316E-1,-5.1428575E-2,4.271845E-3,1.03999995E-1,1.0526316E-2,8.9655176E-2,2.9850747E-3,9.565218E-2,-5.7142857E-3,1.2258065E-1,-0E0,-5.1428575E-2,-0E0,5.8823533E-2,-0E0,-2.1150278E-2,-1.2224487E-3,4.0000003E-2,8E-3,-3.469388E-2,-1.2903226E-3,7.368421E-2,-7.5000003E-3,5.8823533E-2,-1.6216217E-2,1.1351352E-1,4.6153847E-2,-3.6734696E-2,6.382979E-2,1.1864407E-1,-4.6153847E-2,4.0816325E-3,-2.781457E-2,-3.8297873E-2,2.8326182E-2],"split_indices":[2,2,1,4,1,2,3,0,4,0,2,3,2,4,2,0,1,2,3,3,0,2,2,4,2,2,2,4,2,3,3,3,4,1,4,3,2,1,3,4,4,0,0,4,3,2,3,0,0,0,0,0,0,0,0,0,0,0,0,0,0,0,0,0,0,0,0,0,0,0,0,0,0,0,0,0,0,0,0,0,0,0,0],"split_type":[0,0,0,0,0,0,0,0,0,0,0,0,0,0,0,0,0,0,0,0,0,0,0,0,0,0,0,0,0,0,0,0,0,0,0,0,0,0,0,0,0,0,0,0,0,0,0,0,0,0,0,0,0,0,0,0,0,0,0,0,0,0,0,0,0,0,0,0,0,0,0,0,0,0,0,0,0,0,0,0,0,0,0],"sum_hessian":[1.201125E3,1.24125E2,1.077E3,8.1E1,4.3125E1,9.195E2,1.575E2,4.875E0,7.6125E1,2.25E0,4.0875E1,1.4625E1,9.04875E2,3.3375E1,1.24125E2,2.625E0,7.35E1,2.7375E1,1.35E1,7.5E0,7.125E0,7.9575E2,1.09125E2,2.9625E1,3.75E0,2.475E1,9.9375E1,6.75E0,6.675E1,9E0,1.8375E1,5.25E0,8.25E0,4.875E0,2.625E0,7.4025E2,5.55E1,6.6375E1,4.275E1,9.375E0,2.025E1,2.625E0,1.125E0,1.6125E1,8.625E0,6.6375E1,3.3E1,4.5E0,2.25E0,3.375E0,6.3375E1,5.25E0,3.75E0,2.625E0,1.575E1,1.875E0,3.375E0,6.75E0,1.5E0,3.375E0,1.5E0,1.125E0,1.5E0,6.6375E1,6.73875E2,2.2125E1,3.3375E1,4.8E1,1.8375E1,3.75E0,3.9E1,1.125E0,8.25E0,8.25E0,1.2E1,1.125E1,4.875E0,6.375E0,2.25E0,2.9625E1,3.675E1,4.875E0,2.8125E1],"tree_param":{"num_deleted":"0","num_feature":"5","num_nodes":"83","size_leaf_vector":"1"}},{"base_weights":[-3.4495197E-2,1.6696589E-1,-6.512337E-1,-3.3440682E-1,-6.5238856E-2,3.522611E-3,-4.797567E-2],"categories":[],"categories_nodes":[],"categories_segments":[],"categories_sizes":[],"default_left":[0,0,0,0,0,0,0],"id":4,"left_children":[1,-1,3,5,-1,-1,-1],"loss_changes":[1.2578729E3,0E0,1.0336304E-1,2.9859596E-1,0E0,0E0,0E0],"parents":[2147483647,0,0,2,2,3,3],"right_children":[2,-1,4,6,-1,-1,-1],"split_conditions":[2.4961308E1,1.6696589E-1,2.5431534E1,4.7070553E1,-6.5238856E-2,3.522611E-3,-4.797567E-2],"split_indices":[0,0,0,4,0,0,0],"split_type":[0,0,0,0,0,0,0],"sum_hessian":[1.19478E3,3.1703918E2,8.7774084E2,4.243188E0,8.734977E2,1.4114462E0,2.8317418E0],"tree_param":{"num_deleted":"0","num_feature":"5","num_nodes":"7","size_leaf_vector":"1"}},{"base_weights":[-1.5265569E-2,6.1589134E-1,-6.5431505E-2,-6.46035E-2,1.6480824E0,1.66483E-1,4.4822314E-1,-2.006333E-1,1.01004444E-1,1.2516844E-2,-3.9657492E-2],"categories":[],"categories_nodes":[],"categories_segments":[],"categories_sizes":[],"default_left":[0,0,0,0,0,0,0,0,0,0,0],"id":5,"left_children":[1,3,-1,-1,5,-1,7,9,-1,-1,-1],"loss_changes":[4.847894E2,7.88735E2,0E0,0E0,5.9436646E0,0E0,2.3721414E0,2.792011E-1,0E0,0E0,0E0],"parents":[2147483647,0,0,1,1,4,4,6,6,7,7],"right_children":[2,4,-1,-1,6,-1,8,10,-1,-1,-1],"split_conditions":[5.0188515E1,2.4961308E1,-6.5431505E-2,-6.46035E-2,4.9645027E1,1.66483E-1,2.9363745E1,4.4423157E-1,1.01004444E-1,1.2516844E-2,-3.9657492E-2],"split_indices":[0,0,0,0,0,0,4,3,0,0,0],"split_type":[0,0,0,0,0,0,0,0,0,0,0],"sum_hessian":[1.1999368E3,6.0371454E2,5.9622217E2,2.717973E2,3.3191727E2,3.2696597E2,4.9512935E0,2.596009E0,2.3552847E0,1.1105832E0,1.4854258E0],"tree_param":{"num_deleted":"0","num_feature":"5","num_nodes":"11","size_leaf_vector":"1"}},{"base_weights":[2.3798004E-2,-6.472057E-2,6.047401E-1,1.6449512E0,-6.601124E-2,1.6615262E0,4.2455658E-1,8.478887E-1,1.6701834E-1,1.0074989E-1,-2.2139218E-1,1.2646525E-1,1.5047857E-1,-4.0480908E-2,9.362097E-3,-3.504669E-2,5.750168E-2],"categories":[],"categories_nodes":[],"categories_segments":[],"categories_sizes":[],"default_left":[0,0,0,0,0,0,0,0,0,0,0,0,0,0,0,0,0],"id":6,"left_children":[1,-1,3,5,-1,7,9,11,-1,-1,13,-1,15,-1,-1,-1,-1],"loss_changes":[4.6512927E2,0E0,8.4248553E2,6.3986206E0,0E0,1.0220337E0,2.5008616E0,1.4592943E0,0E0,0E0,2.5106418E-1,0E0,8.9440346E-1,0E0,0E0,0E0,0E0],"parents":[2147483647,0,0,2,2,3,3,5,5,6,6,7,7,10,10,12,12],"right_children":[2,-1,4,6,-1,8,10,12,-1,-1,14,-1,16,-1,-1,-1,-1],"split_conditions":[4.9645027E1,-6.472057E-2,7.526951E1,7.485337E1,-6.601124E-2,5.0188515E1,4.9E1,4.3078938E1,1.6701834E-1,1.0074989E-1,1.8735096E1,1.2646525E-1,6.3992195E1,-4.0480908E-2,9.362097E-3,-3.504669E-2,5.750168E-2],"split_indices":[0,0,0,0,0,0,1,4,0,0,2,0,4,0,0,0,0],"split_type":[0,0,0,0,0,0,0,0,0,0,0,0,0,0,0,0,0],"sum_hessian":[1.1912034E3,5.5270276E2,6.385006E2,3.5019812E2,2.8830246E2,3.45149E2,5.049142E0,4.6754436E0,3.4047354E2,2.3597996E0,2.689342E0,2.4174497E0,2.257994E0,1.5195355E0,1.1698066E0,1.115823E0,1.1421708E0],"tree_param":{"num_deleted":"0","num_feature":"5","num_nodes":"17","size_leaf_vector":"1"}},{"base_weights":[1.5470193E-4,-6.605824E-2,1.8727957E0,8.0007535E-1,1.8847333E-1,2.5162881E-2,1.0381377E-1],"categories":[],"categories_nodes":[],"categories_segments":[],"categories_sizes":[],"default_left":[0,0,0,0,0,0,0],"id":7,"left_children":[1,-1,3,5,-1,-1,-1],"loss_changes":[1.4954868E3,0E0,2.5286865E0,4.1862464E-1,0E0,0E0,0E0],"parents":[2147483647,0,0,2,2,3,3],"right_children":[2,-1,4,6,-1,-1,-1],"split_conditions":[7.485337E1,-6.605824E-2,7.526951E1,6.448E1,1.8847333E-1,2.5162881E-2,1.0381377E-1],"split_indices":[0,0,0,4,0,0,0],"split_type":[0,0,0,0,0,0,0],"sum_hessian":[1.2066469E3,8.9241656E2,3.1423035E2,4.2070055E0,3.1002335E2,1.8959999E0,2.3110056E0],"tree_param":{"num_deleted":"0","num_feature":"5","num_nodes":"7","size_leaf_vector":"1"}},{"base_weights":[-2.3793435E-2,1.4274888E-1,-6.360777E-1,-1.8552665E-1,-6.384586E-2,-4.2908162E-2,6.1138593E-2,-3.284705E-2,3.3150155E-2],"categories":[],"categories_nodes":[],"categories_segments":[],"categories_sizes":[],"default_left":[0,0,0,0,0,0,0,0,0],"id":8,"left_children":[1,-1,3,5,-1,-1,7,-1,-1],"loss_changes":[1.0552802E3,0E0,7.774353E-1,3.7466305E-1,0E0,0E0,5.0461066E-1,0E0,0E0],"parents":[2147483647,0,0,2,2,3,3,6,6],"right_children":[2,-1,4,6,-1,-1,8,-1,-1],"split_conditions":[2.4961308E1,1.4274888E-1,2.5431534E1,1.05421095E1,-6.384586E-2,-4.2908162E-2,3.889658E1,-3.284705E-2,3.3150155E-2],"split_indices":[0,0,0,2,0,0,4,0,0],"split_type":[0,0,0,0,0,0,0,0,0],"sum_hessian":[1.185558E3,3.5137387E2,8.3418414E2,4.7997613E0,8.293844E2,2.042996E0,2.7567654E0,1.041286E0,1.7154791E0],"tree_param":{"num_deleted":"0","num_feature":"5","num_nodes":"9","size_leaf_vector":"1"}},{"base_weights":[1.7741295E-3,5.68715E-1,-6.398985E-2,-6.324016E-2,1.4127548E0,1.4237235E-1,3.912274E-1,-3.892772E-2,7.8938884E-1,8.384071E-3,1.0736698E-1],"categories":[],"categories_nodes":[],"categories_segments":[],"categories_sizes":[],"default_left":[0,0,0,0,0,0,0,0,0,0,0],"id":9,"left_children":[1,3,-1,-1,5,-1,7,-1,9,-1,-1],"loss_changes":[4.2826285E2,6.3451825E2,0E0,0E0,3.5593872E0,0E0,1.9486883E0,0E0,6.7774296E-1,0E0,0E0],"parents":[2147483647,0,0,1,1,4,4,6,6,8,8],"right_children":[2,4,-1,-1,6,-1,8,-1,10,-1,-1],"split_conditions":[5.0188515E1,2.4961308E1,-6.398985E-2,-6.324016E-2,4.9645027E1,1.4237235E-1,9.90157E0,-3.892772E-2,4.5E1,8.384071E-3,1.0736698E-1],"split_indices":[0,0,0,0,0,0,2,0,1,0,0],"split_type":[0,0,0,0,0,0,0,0,0,0,0],"sum_hessian":[1.1752238E3,6.2400586E2,5.5121796E2,2.5763184E2,3.6637402E2,3.6209225E2,4.2817645E0,1.4539468E0,2.8278177E0,1.1840594E0,1.6437583E0],"tree_param":{"num_deleted":"0","num_feature":"5","num_nodes":"11","size_leaf_vector":"1"}},{"base_weights":[2.283641E-2,-4.868955E-2,6.541461E-2,-6.76791E-2,2.0340519E-1,8.646425E-2,-1.6215503E-1,-1.08180985E-1,1.6888762E-2,3.081524E-1,-4.9537934E-2,6.297129E-2,2.264934E-1,8.860528E-2,-4.098183E-1,-1.1910461E-1,6.1542195E-1,-4.583955E-1,4.957226E-2,5.158992E-1,-5.904828E-2,5.5692907E-2,6.3819987E-1,2.8845513E-1,-7.3894375E-4,-5.419872E-2,4.4257134E-1,8.1981465E-2,-4.5573834E-1,-8.975913E-2,-3.4542036E-1,7.640471E-2,1.0558077E-2,9.7273365E-3,-5.558702E-2,2.182672E-3,3.0553037E-1,-3.211052E-2,5.861128E-1,5.0262164E-2,-2.4576601E-1,-1.3595864E-2,1.14781104E-1,9.3814456E-1,-3.6757555E-2,5.2227175E-1,2.0977908E-1,-5.1976353E-2,1.6170453E-1,-1.3818201E-1,6.513023E-2,8.993421E-2,7.0980206E-2,-3.2199036E-2,3.7109304E-2,-6.0309123E-2,-2.0032275E-1,-4.1610794E-3,-2.5266249E-2,-2.1678878E-3,-5.149078E-2,2.828058E-3,-3.9977904E-2,7.917609E-2,1.5464695E-2,7.3891096E-2,1.4940378E-2,-4.2053305E-2,3.404541E-2,-2.9252418E-3,4.832245E-2,-5.8696554E-3,1.5407816E-2,3.315215E-2,1.0904743E-1,9.1519125E-2,3.387013E-2,-4.7883824E-2,2.5617197E-2,-4.5240235E-2,2.9127274E-2,4.9425546E-2,-1.9960945E-2,4.1809745E-2,-4.286839E-2,2.6440322E-2,-4.4917617E-2],"categories":[],"categories_nodes":[],"categories_segments":[],"categories_sizes":[],"default_left":[0,0,0,0,0,0,0,0,0,0,0,0,0,0,0,0,0,0,0,0,0,0,0,0,0,0,0,0,0,0,0,0,0,0,0,0,0,0,0,0,0,0,0,0,0,0,0,0,0,0,0,0,0,0,0,0,0,0,0,0,0,0,0,0,0,0,0,0,0,0,0,0,0,0,0,0,0,0,0,0,0,0,0,0,0,0,0],"id":10,"left_children":[1,3,5,7,9,11,13,15,17,19,-1,21,23,25,27,29,31,33,35,37,39,41,43,45,47,49,51,53,55,57,59,-1,-1,-1,-1,61,63,-1,65,-1,67,69,71,73,-1,75,77,-1,79,81,-1,-1,83,-1,-1,-1,85,-1,-1,-1,-1,-1,-1,-1,-1,-1,-1,-1,-1,-1,-1,-1,-1,-1,-1,-1,-1,-1,-1,-1,-1,-1,-1,-1,-1,-1,-1],"loss_changes":[3.5750384E0,2.111621E0,3.5378578E0,1.4002409E0,2.4178743E0,2.202979E0,3.9259171E0,2.256471E0,2.0899694E0,2.1305597E0,0E0,2.386685E0,1.3581553E0,1.6386261E0,7.529764E-1,1.7816072E0,2.42867E-1,5.2313554E-1,1.5206349E0,1.2275376E0,1.2608464E0,2.3451138E0,2.4967952E0,1.2845602E0,1.9104002E0,1.4913442E0,1.5132375E0,5.345216E-1,9.756794E-1,1.8950874E0,1.6885138E0,0E0,0E0,0E0,0E0,1.1320231E0,1.3144683E0,0E0,1.0019827E0,0E0,1.0458342E0,2.0704598E0,2.1159215E0,1.7224312E-1,0E0,1.0178351E0,1.9875984E0,0E0,1.5052016E0,9.5179415E-1,0E0,0E0,1.2561649E0,0E0,0E0,0E0,1.5245919E0,0E0,0E0,0E0,0E0,0E0,0E0,0E0,0E0,0E0,0E0,0E0,0E0,0E0,0E0,0E0,0E0,0E0,0E0,0E0,0E0,0E0,0E0,0E0,0E0,0E0,0E0,0E0,0E0,0E0,0E0],"parents":[2147483647,0,0,1,1,2,2,3,3,4,4,5,5,6,6,7,7,8,8,9,9,11,11,12,12,13,13,14,14,15,15,16,16,17,17,18,18,19,19,20,20,21,21,22,22,23,23,24,24,25,25,26,26,27,27,28,28,29,29,30,30,35,35,36,36,38,38,40,40,41,41,42,42,43,43,45,45,46,46,48,48,49,49,52,52,56,56],"right_children":[2,4,6,8,10,12,14,16,18,20,-1,22,24,26,28,30,32,34,36,38,40,42,44,46,48,50,52,54,56,58,60,-1,-1,-1,-1,62,64,-1,66,-1,68,70,72,74,-1,76,78,-1,80,82,-1,-1,84,-1,-1,-1,86,-1,-1,-1,-1,-1,-1,-1,-1,-1,-1,-1,-1,-1,-1,-1,-1,-1,-1,-1,-1,-1,-1,-1,-1,-1,-1,-1,-1,-1,-1],"split_conditions":[1.2384044E1,9.304153E1,6E1,1.3919151E0,1.107595E1,4.2157974E1,4.7070553E1,6.8E1,5.3483443E0,5.3E1,-4.9537934E-2,9.874311E1,8.236997E1,1.5781728E0,1.7194796E-1,1.2210428E0,4.7070553E1,1.4931822E0,1.1149535E1,2.1909964E-1,6.8229613E0,4.9E1,9.954338E1,5.139567E-1,8.6312416E1,4.3078938E1,2.0772608E1,1.8232328E1,1.4613581E0,1.0441763E1,7.321541E0,7.640471E-2,1.0558077E-2,9.7273365E-3,-5.558702E-2,1.0753105E1,1.1492127E1,-3.211052E-2,1.5148003E0,5.0262164E-2,6.5E1,1.9419683E0,3.981399E-1,9.911512E1,-3.6757555E-2,4.5E1,6.373646E-1,-5.1976353E-2,2.8591102E-1,4.3028984E-2,6.513023E-2,8.993421E-2,1.3850519E1,-3.2199036E-2,3.7109304E-2,-6.0309123E-2,1.984224E1,-4.1610794E-3,-2.5266249E-2,-2.1678878E-3,-5.149078E-2,2.828058E-3,-3.9977904E-2,7.917609E-2,1.5464695E-2,7.3891096E-2,1.4940378E-2,-4.2053305E-2,3.404541E-2,-2.9252418E-3,4.832245E-2,-5.8696554E-3,1.5407816E-2,3.315215E-2,1.0904743E-1,9.1519125E-2,3.387013E-2,-4.7883824E-2,2.5617197E-2,-4.5240235E-2,2.9127274E-2,4.9425546E-2,-1.9960945E-2,4.1809745E-2,-4.286839E-2,2.6440322E-2,-4.4917617E-2],"split_indices":[2,4,1,3,2,2,4,1,2,1,0,4,4,3,3,3,4,3,2,3,2,1,4,3,4,4,2,2,3,2,2,0,0,0,0,2,2,0,3,0,1,3,3,4,0,1,3,0,3,3,0,0,4,0,0,0,2,0,0,0,0,0,0,0,0,0,0,0,0,0,0,0,0,0,0,0,0,0,0,0,0,0,0,0,0,0,0],"split_type":[0,0,0,0,0,0,0,0,0,0,0,0,0,0,0,0,0,0,0,0,0,0,0,0,0,0,0,0,0,0,0,0,0,0,0,0,0,0,0,0,0,0,0,0,0,0,0,0,0,0,0,0,0,0,0,0,0,0,0,0,0,0,0,0,0,0,0,0,0,0,0,0,0,0,0,0,0,0,0,0,0,0,0,0,0,0,0],"sum_hessian":[1.1718505E3,4.372248E2,7.346257E2,4.0727734E2,2.9947464E1,6.729953E2,6.1630386E1,2.7519815E2,1.320792E2,2.65297E1,3.4177637E0,5.775485E2,9.5446724E1,3.0942839E1,3.0687546E1,2.7192847E2,3.2696743E0,7.660127E0,1.2441906E2,1.6685047E1,9.844652E0,5.714152E2,6.1333117E0,7.4784935E1,2.0661787E1,2.2651289E1,8.29155E0,2.5535817E0,2.8133963E1,2.419521E2,2.997637E1,2.1456046E0,1.1240695E0,1.1435001E0,6.516627E0,1.0583304E2,1.8586021E1,1.0147796E0,1.5670268E1,2.0340624E0,7.8105893E0,2.6336023E2,3.08055E2,4.7761884E0,1.3571236E0,1.7409006E1,5.7375927E1,4.4008703E0,1.6260918E1,2.0960299E1,1.6909909E0,3.0823674E0,5.2091827E0,1.0177581E0,1.5358237E0,1.6977934E1,1.1156029E1,1.8772331E2,5.4228786E1,1.068831E1,1.9288061E1,1.00253586E2,5.5794563E0,3.395696E0,1.5190326E1,1.1095957E1,4.5743113E0,6.234549E0,1.5760403E0,2.5622675E2,7.1334825E0,5.680305E1,2.5125194E2,1.5961552E0,3.180033E0,4.2744164E0,1.3134591E1,3.033142E0,5.4342785E1,2.398983E0,1.3861935E1,1.2318097E0,1.9728489E1,3.1701317E0,2.039051E0,3.8687584E0,7.2872705E0],"tree_param":{"num_deleted":"0","num_feature":"5","num_nodes":"87","size_leaf_vector":"1"}},{"base_weights":[-7.338745E-3,-6.4537495E-2,1.5610025E0,4.5084357E-1,1.5727802E-1,-3.678385E-2,7.989249E-1,9.481938E-3,1.0739887E-1],"categories":[],"categories_nodes":[],"categories_segments":[],"categories_sizes":[],"default_left":[0,0,0,0,0,0,0,0,0],"id":11,"left_children":[1,-1,3,5,-1,-1,7,-1,-1],"loss_changes":[1.1812949E3,0E0,3.7545166E0,1.7145948E0,0E0,0E0,6.3673353E-1,0E0,0E0],"parents":[2147483647,0,0,2,2,3,3,6,6],"right_children":[2,-1,4,6,-1,-1,8,-1,-1],"split_conditions":[7.485337E1,-6.4537495E-2,7.526951E1,4.2E1,1.5727802E-1,-3.678385E-2,4.739983E1,9.481938E-3,1.0739887E-1],"split_indices":[0,0,0,1,0,0,4,0,0],"split_type":[0,0,0,0,0,0,0,0,0],"sum_hessian":[1.1785107E3,8.381295E2,3.403813E2,3.9855413E0,3.3639575E2,1.172076E0,2.8134654E0,1.1680977E0,1.6453676E0],"tree_param":{"num_deleted":"0","num_feature":"5","num_nodes":"9","size_leaf_vector":"1"}},{"base_weights":[-1.7698565E-2,1.2702857E-1,-6.2445456E-1,8.963869E-2,-6.2697135E-2,-3.511339E-2,4.7712E-2],"categories":[],"categories_nodes":[],"categories_segments":[],"categories_sizes":[],"default_left":[0,0,0,0,0,0,0],"id":12,"left_children":[1,-1,3,5,-1,-1,-1],"loss_changes":[9.0672504E2,0E0,1.4736633E0,7.900364E-1,0E0,0E0,0E0],"parents":[2147483647,0,0,2,2,3,3],"right_children":[2,-1,4,6,-1,-1,-1],"split_conditions":[2.4961308E1,1.2702857E-1,2.5431534E1,9.397833E0,-6.2697135E-2,-3.511339E-2,4.7712E-2],"split_indices":[0,0,0,2,0,0,0],"split_type":[0,0,0,0,0,0,0],"sum_hessian":[1.1582334E3,3.7055295E2,7.876805E2,2.6448226E0,7.8503564E2,1.2812095E0,1.3636131E0],"tree_param":{"num_deleted":"0","num_feature":"5","num_nodes":"7","size_leaf_vector":"1"}},{"base_weights":[-6.9122203E-3,5.221936E-1,-6.298523E-2,-6.180508E-2,1.254712E0,1.2663575E-1,2.8147262E-1,-4.1185945E-2,6.29417E-1,1.6435065E-4,9.675868E-2],"categories":[],"categories_nodes":[],"categories_segments":[],"categories_sizes":[],"default_left":[0,0,0,0,0,0,0,0,0,0,0],"id":13,"left_children":[1,3,-1,-1,5,-1,7,-1,9,-1,-1],"loss_changes":[3.8252557E2,5.249424E2,0E0,0E0,3.9778442E0,0E0,1.6602697E0,0E0,9.033197E-1,0E0,0E0],"parents":[2147483647,0,0,1,1,4,4,6,6,8,8],"right_children":[2,4,-1,-1,6,-1,8,-1,10,-1,-1],"split_conditions":[5.0188515E1,2.4961308E1,-6.298523E-2,-6.180508E-2,4.9645027E1,1.2663575E-1,4.5E1,-4.1185945E-2,2.9363745E1,1.6435065E-4,9.675868E-2],"split_indices":[0,0,0,0,0,0,1,0,4,0,0],"split_type":[0,0,0,0,0,0,0,0,0,0,0],"sum_hessian":[1.158573E3,6.265569E2,5.320162E2,2.4513457E2,3.814223E2,3.766147E2,4.8076286E0,1.5450964E0,3.2625325E0,1.493983E0,1.7685493E0],"tree_param":{"num_deleted":"0","num_feature":"5","num_nodes":"11","size_leaf_vector":"1"}},{"base_weights":[2.6950404E-2,2.1988854E-2,4.6679816E-1,3.7103906E-2,-1.3559581E-1,7.719905E-1,3.6653712E-2,-2.3669964E-2,6.624184E-2,4.695412E-1,-2.0446105E-1,8.786755E-2,8.920561E-3,4.890426E-1,-4.560018E-2,-4.9309466E-2,2.8186443E-1,9.4529204E-2,3.3851957E-3,8.264991E-1,1.4584506E-1,9.041983E-2,-2.9556996E-1,-4.7287598E-4,7.9382025E-2,-7.09702E-2,2.2772503E-1,3.9722097E-1,-2.0217979E-1,2.3107419E-2,1.3792296E-1,3.1716654E-1,-2.5659442E-2,3.295856E-2,9.653822E-2,5.023205E-1,-2.3048142E-1,-4.4700988E-2,5.52432E-1,-3.4507453E-1,-1.9598552E-3,8.0345206E-2,-7.777887E-3,4.1651174E-2,-2.7782798E-2,5.271076E-2,-5.548532E-3,-4.164983E-2,1.3112257E-3,-6.315578E-3,1.7139418E-2,7.8028135E-2,1.2257865E-2,1.4143269E-2,9.839085E-2,-3.947049E-3,6.83143E-2,1.2936308E-3,7.8990154E-2,-4.182064E-2,1.5424076E-2,1.1862904E-2,-5.0703615E-2,6.625675E-2,8.889583E-3,-3.5539087E-2,1.1123903E-2,3.3011552E-2,-4.996587E-2],"categories":[],"categories_nodes":[],"categories_segments":[],"categories_sizes":[],"default_left":[0,0,0,0,0,0,0,0,0,0,0,0,0,0,0,0,0,0,0,0,0,0,0,0,0,0,0,0,0,0,0,0,0,0,0,0,0,0,0,0,0,0,0,0,0,0,0,0,0,0,0,0,0,0,0,0,0,0,0,0,0,0,0,0,0,0,0,0,0],"id":14,"left_children":[1,3,5,7,9,11,13,15,17,19,21,-1,-1,23,-1,25,27,29,31,33,35,37,39,-1,-1,41,43,45,47,49,51,53,55,-1,-1,57,59,61,63,65,67,-1,-1,-1,-1,-1,-1,-1,-1,-1,-1,-1,-1,-1,-1,-1,-1,-1,-1,-1,-1,-1,-1,-1,-1,-1,-1,-1,-1],"loss_changes":[2.5586853E0,2.7801359E0,1.6889367E0,1.8855393E0,4.354356E0,4.753728E-1,1.6669815E0,2.7205815E0,1.2787714E0,1.1208823E0,2.5102751E0,0E0,0E0,5.846507E-1,0E0,1.9341092E0,1.5822723E0,1.5342813E0,2.05236E0,1.9655943E-2,1.034547E0,1.4346516E0,1.0292139E0,0E0,0E0,1.8319256E0,2.3505363E0,1.3263445E0,2.7489918E-1,2.424487E0,2.9439797E0,2.096203E0,2.045762E0,0E0,0E0,5.290421E-1,3.5462764E-1,1.4495891E0,2.058332E-1,3.2493353E-1,2.0207624E0,0E0,0E0,0E0,0E0,0E0,0E0,0E0,0E0,0E0,0E0,0E0,0E0,0E0,0E0,0E0,0E0,0E0,0E0,0E0,0E0,0E0,0E0,0E0,0E0,0E0,0E0,0E0,0E0],"parents":[2147483647,0,0,1,1,2,2,3,3,4,4,5,5,6,6,7,7,8,8,9,9,10,10,13,13,15,15,16,16,17,17,18,18,19,19,20,20,21,21,22,22,25,25,26,26,27,27,28,28,29,29,30,30,31,31,32,32,35,35,36,36,37,37,38,38,39,39,40,40],"right_children":[2,4,6,8,10,12,14,16,18,20,22,-1,-1,24,-1,26,28,30,32,34,36,38,40,-1,-1,42,44,46,48,50,52,54,56,-1,-1,58,60,62,64,66,68,-1,-1,-1,-1,-1,-1,-1,-1,-1,-1,-1,-1,-1,-1,-1,-1,-1,-1,-1,-1,-1,-1,-1,-1,-1,-1,-1,-1],"split_conditions":[9.911512E1,6E1,9.954338E1,1.1149535E1,1.7194796E-1,5.4E1,9.320577E-1,9.186552E1,1.3919151E0,6.2E1,1.9451626E1,8.786755E-2,8.920561E-3,6E1,-4.560018E-2,5.8E1,5.3E1,5.609468E-1,1.2384044E1,6.1E1,1.107595E1,6.8E1,1.7522653E0,-4.7287598E-4,7.9382025E-2,8.190773E-3,7.668748E1,9.761327E1,5.5E1,2.7837769E1,5.8755857E-1,5.5E1,7.484356E1,3.295856E-2,9.653822E-2,6.4E1,6.1593937E1,6.4E1,2.1087866E1,7.5E1,2.0772608E1,8.0345206E-2,-7.777887E-3,4.1651174E-2,-2.7782798E-2,5.271076E-2,-5.548532E-3,-4.164983E-2,1.3112257E-3,-6.315578E-3,1.7139418E-2,7.8028135E-2,1.2257865E-2,1.4143269E-2,9.839085E-2,-3.947049E-3,6.83143E-2,1.2936308E-3,7.8990154E-2,-4.182064E-2,1.5424076E-2,1.1862904E-2,-5.0703615E-2,6.625675E-2,8.889583E-3,-3.5539087E-2,1.1123903E-2,3.3011552E-2,-4.996587E-2],"split_indices":[4,1,4,2,3,1,3,4,3,1,4,0,0,1,0,1,1,3,2,1,2,1,3,0,0,3,4,4,1,2,3,1,2,0,0,1,4,1,2,1,2,0,0,0,0,0,0,0,0,0,0,0,0,0,0,0,0,0,0,0,0,0,0,0,0,0,0,0,0],"split_type":[0,0,0,0,0,0,0,0,0,0,0,0,0,0,0,0,0,0,0,0,0,0,0,0,0,0,0,0,0,0,0,0,0,0,0,0,0,0,0,0,0,0,0,0,0,0,0,0,0,0,0,0,0,0,0,0,0,0,0,0,0,0,0,0,0,0,0,0,0],"sum_hessian":[1.1761609E3,1.1640798E3,1.2081009E1,1.0628947E3,1.0118516E2,6.6020536E0,5.4789557E0,3.4451562E2,7.18379E2,9.743981E0,9.144118E1,5.461756E0,1.1402972E0,2.860025E0,2.6189308E0,3.186169E2,2.5898733E1,4.9507614E2,2.233029E2,3.8952036E0,5.8487773E0,2.158553E1,6.985565E1,1.4673121E0,1.392713E0,2.962014E2,2.2415527E1,2.1059292E1,4.8394403E0,1.876899E2,3.0738626E2,1.8078062E1,2.0522484E2,1.5876881E0,2.3075156E0,2.8316731E0,3.0171041E0,1.7399958E1,4.185572E0,5.962689E1,1.0228763E1,1.3845345E0,2.9481683E2,1.6449121E1,5.966406E0,1.6236504E1,4.8227882E0,1.9568579E0,2.8825824E0,1.19023926E2,6.866597E1,6.008332E0,3.0137793E2,1.5266405E1,2.811657E0,2.0222871E2,2.9961224E0,1.4348811E0,1.3967922E0,1.9691994E0,1.0479047E0,1.3407041E1,3.9929175E0,3.0350688E0,1.1505034E0,5.8524925E1,1.1019615E0,6.3371778E0,3.891585E0],"tree_param":{"num_deleted":"0","num_feature":"5","num_nodes":"69","size_leaf_vector":"1"}},{"base_weights":[-1.064455E-2,1.3077141E-1,-2.7223416E-2,6.634837E-2,4.6228564E-1,-4.0655795E-2,5.215417E-2,-4.9238365E-2,9.118854E-2,6.0203886E-1,5.7849802E-2,-1.04512505E-1,-2.0558188E-2,1.7814597E-1,-4.2761367E-2,6.139708E-2,4.5825133E-1,7.1480465E-1,2.3598787E-1,-3.0931872E-1,7.57701E-2,-1.1554317E-1,5.8169687E-1,1.7394032E-1,-4.6831556E-2,1.0480454E-1,7.759318E-1,-3.1534252E-1,2.0718463E-2,3.6388707E-1,2.1903416E-2,-1.4115897E-1,7.3214525E-1,1.943328E-1,8.9939706E-2,-3.2355633E-2,4.6439523E-1,-6.7579397E-3,-4.2697083E-2,-9.20006E-2,-4.1002738E-1,7.935201E-2,7.929057E-3,5.769345E-1,7.5098954E-2,-3.8321223E-2,-3.293394E-1,4.264129E-1,2.3038821E-2,-1.7757936E-3,9.9529035E-2,-1.2196296E-1,-4.615641E-1,3.6184803E-1,-5.8732472E-2,5.0167557E-2,-3.5838988E-2,-4.566098E-3,2.068997E-2,1.0410431E-2,-3.2721397E-2,2.156139E-2,9.692914E-2,-6.7974883E-3,4.2262893E-2,-1.1514806E-3,7.645344E-2,-6.7263837E-3,-3.65511E-2,-5.2040983E-2,3.443226E-2,6.963889E-2,1.9907683E-2,1.3772259E-2,-3.495126E-2,-4.218688E-3,6.2023725E-2,4.7492515E-2,-4.2075675E-2,9.219026E-2,-3.1460535E-3,1.669517E-2,-1.365077E-2,-3.8237758E-2,3.890622E-2,-5.5312198E-2,9.297002E-3,5.9964377E-2,-2.761924E-2,1.6508208E-3,-4.6796955E-2],"categories":[],"categories_nodes":[],"categories_segments":[],"categories_sizes":[],"default_left":[0,0,0,0,0,0,0,0,0,0,0,0,0,0,0,0,0,0,0,0,0,0,0,0,0,0,0,0,0,0,0,0,0,0,0,0,0,0,0,0,0,0,0,0,0,0,0,0,0,0,0,0,0,0,0,0,0,0,0,0,0,0,0,0,0,0,0,0,0,0,0,0,0,0,0,0,0,0,0,0,0,0,0,0,0,0,0,0,0,0,0],"id":15,"left_children":[1,3,5,7,9,11,13,-1,15,17,19,21,23,25,27,29,31,33,35,37,-1,39,41,43,45,47,49,51,53,55,57,59,61,63,-1,-1,65,-1,-1,67,69,-1,-1,71,73,75,77,79,81,-1,-1,83,85,87,89,-1,-1,-1,-1,-1,-1,-1,-1,-1,-1,-1,-1,-1,-1,-1,-1,-1,-1,-1,-1,-1,-1,-1,-1,-1,-1,-1,-1,-1,-1,-1,-1,-1,-1,-1,-1],"loss_changes":[2.747861E0,2.5962224E0,1.1200846E0,1.4904368E0,1.086865E0,1.1494558E0,1.8275988E0,0E0,1.0715574E0,4.3573618E-1,1.8282719E0,1.6913257E0,3.5022779E0,2.7940445E0,1.5224216E0,1.1170106E0,1.3173352E0,8.5335016E-1,7.8178155E-1,1.0705173E-1,0E0,1.4320865E0,3.1596565E-1,3.2064035E0,1.4375682E0,1.5567424E0,1.2382951E0,4.133737E-1,1.9725754E0,1.2557157E0,1.0638492E0,1.7814828E-1,4.3250418E-1,2.7289456E-1,0E0,0E0,5.6867653E-1,0E0,0E0,1.3123274E0,1.4618979E0,0E0,0E0,5.7991076E-1,1.820823E0,1.5196962E0,1.4870313E0,2.7556863E0,1.13764E0,0E0,0E0,1.28138E0,5.134026E-1,2.2503457E0,1.8322954E0,0E0,0E0,0E0,0E0,0E0,0E0,0E0,0E0,0E0,0E0,0E0,0E0,0E0,0E0,0E0,0E0,0E0,0E0,0E0,0E0,0E0,0E0,0E0,0E0,0E0,0E0,0E0,0E0,0E0,0E0,0E0,0E0,0E0,0E0,0E0,0E0],"parents":[2147483647,0,0,1,1,2,2,3,3,4,4,5,5,6,6,8,8,9,9,10,10,11,11,12,12,13,13,14,14,15,15,16,16,17,17,18,18,19,19,21,21,22,22,23,23,24,24,25,25,26,26,27,27,28,28,29,29,30,30,31,31,32,32,33,33,36,36,39,39,40,40,43,43,44,44,45,45,46,46,47,47,48,48,51,51,52,52,53,53,54,54],"right_children":[2,4,6,8,10,12,14,-1,16,18,20,22,24,26,28,30,32,34,36,38,-1,40,42,44,46,48,50,52,54,56,58,60,62,64,-1,-1,66,-1,-1,68,70,-1,-1,72,74,76,78,80,82,-1,-1,84,86,88,90,-1,-1,-1,-1,-1,-1,-1,-1,-1,-1,-1,-1,-1,-1,-1,-1,-1,-1,-1,-1,-1,-1,-1,-1,-1,-1,-1,-1,-1,-1,-1,-1,-1,-1,-1,-1],"split_conditions":[6.8229613E0,6.4953394E0,5.8E1,4.266517E0,1.1495866E0,4.864492E-1,7.972267E-1,-4.9238365E-2,1.8471913E0,5.4E1,1.7706814E0,7.484356E1,6.937969E-1,7.343279E-1,1.0240269E0,1.2916616E1,2.8985239E1,4.5E1,3.2708195E-1,1.3837262E0,7.57701E-2,4.4423157E-1,5.2E1,9.995678E0,6.152085E1,1.7515757E1,1.7823122E1,1.4165807E1,5.9E1,6.2273426E0,7.668748E1,4.8E1,6.0957136E0,9.7325385E-1,8.9939706E-2,-3.2355633E-2,5.9E1,-6.7579397E-3,-4.2697083E-2,4.1573685E1,3.8654152E1,7.935201E-2,7.929057E-3,5E1,4.1573685E1,5.8933594E1,3.9E1,6E1,3.6074677E-1,-1.7757936E-3,9.9529035E-2,1.1301121E1,3.9895374E1,1.71252E0,3.5909298E1,5.0167557E-2,-3.5838988E-2,-4.566098E-3,2.068997E-2,1.0410431E-2,-3.2721397E-2,2.156139E-2,9.692914E-2,-6.7974883E-3,4.2262893E-2,-1.1514806E-3,7.645344E-2,-6.7263837E-3,-3.65511E-2,-5.2040983E-2,3.443226E-2,6.963889E-2,1.9907683E-2,1.3772259E-2,-3.495126E-2,-4.218688E-3,6.2023725E-2,4.7492515E-2,-4.2075675E-2,9.219026E-2,-3.1460535E-3,1.669517E-2,-1.365077E-2,-3.8237758E-2,3.890622E-2,-5.5312198E-2,9.297002E-3,5.9964377E-2,-2.761924E-2,1.6508208E-3,-4.6796955E-2],"split_indices":[2,2,1,4,3,3,3,0,3,1,3,2,3,3,3,4,4,1,3,3,0,3,1,2,2,4,4,2,1,2,4,1,2,3,0,0,1,0,0,2,2,0,0,1,2,2,1,1,3,0,0,2,2,3,2,0,0,0,0,0,0,0,0,0,0,0,0,0,0,0,0,0,0,0,0,0,0,0,0,0,0,0,0,0,0,0,0,0,0,0,0],"split_type":[0,0,0,0,0,0,0,0,0,0,0,0,0,0,0,0,0,0,0,0,0,0,0,0,0,0,0,0,0,0,0,0,0,0,0,0,0,0,0,0,0,0,0,0,0,0,0,0,0,0,0,0,0,0,0,0,0,0,0,0,0,0,0,0,0,0,0,0,0,0,0,0,0,0,0,0,0,0,0,0,0,0,0,0,0,0,0,0,0,0,0],"sum_hessian":[1.169519E3,1.2199834E2,1.0475208E3,1.0315282E2,1.8845516E1,8.963303E2,1.511904E2,3.5895994E0,9.956322E1,1.3642683E1,5.2028327E0,2.1356471E2,6.827656E2,6.458403E1,8.660636E1,9.316875E1,6.394474E0,9.701339E0,3.9413438E0,3.7785068E0,1.4243258E0,2.1100449E2,2.56023E0,8.058493E1,6.021807E2,5.857311E1,6.010925E0,1.5609948E1,7.0996414E1,9.810942E0,8.33578E1,2.157487E0,4.236987E0,3.0773346E0,6.6240044E0,1.0217417E0,2.9196022E0,1.7523534E0,2.0261533E0,1.9659972E2,1.4404771E1,1.3933365E0,1.1668935E0,1.4919292E1,6.566564E1,5.856734E2,1.650732E1,1.1018618E1,4.755449E1,1.5005686E0,4.510356E0,7.510858E0,8.09909E0,1.2740331E1,5.8256084E1,8.495654E0,1.3152874E0,6.1609825E1,2.174798E1,1.1206619E0,1.036825E0,1.9339111E0,2.3030758E0,1.7587814E0,1.3185532E0,1.5010793E0,1.4185228E0,1.8143623E2,1.516349E1,1.2836547E1,1.5682237E0,1.0695171E1,4.2241206E0,5.781454E1,7.8511E0,5.831861E2,2.4872894E0,1.2566369E0,1.5250683E1,4.805203E0,6.2134147E0,2.4977802E1,2.2576689E1,5.142184E0,2.3686743E0,6.9535513E0,1.1455388E0,9.32508E0,3.4152503E0,5.0019382E1,8.236702E0],"tree_param":{"num_deleted":"0","num_feature":"5","num_nodes":"91","size_leaf_vector":"1"}},{"base_weights":[-1.7562238E-2,1.1641659E-1,-6.1861284E-2],"categories":[],"categories_nodes":[],"categories_segments":[],"categories_sizes":[],"default_left":[0,0,0],"id":16,"left_children":[1,-1,-1],"loss_changes":[8.0064154E2,0E0,0E0],"parents":[2147483647,0,0],"right_children":[2,-1,-1],"split_conditions":[2.4961308E1,1.1641659E-1,-6.1861284E-2],"split_indices":[0,0,0],"split_type":[0,0,0],"sum_hessian":[1.1252081E3,3.790397E2,7.4616846E2],"tree_param":{"num_deleted":"0","num_feature":"5","num_nodes":"3","size_leaf_vector":"1"}},{"base_weights":[-7.7636903E-3,1.9986525E-2,-7.31964E-2,1.2635539E-2,3.5939023E-1,3.8427526E-1,-9.5065914E-2,4.0500183E-2,-5.0801095E-2,-3.8457982E-2,4.636594E-1,-2.0202148E-1,5.1915187E-1,-1.9298826E-1,-5.0354898E-2,-3.1968328E-5,9.034454E-2,-9.832889E-2,2.2663876E-2,5.697775E-1,2.148617E-3,1.0120679E-2,-3.725137E-2,2.9111763E-2,7.365828E-1,8.6542636E-2,-2.4713437E-1,-2.0376657E-1,1.6460342E-2,-3.5754576E-2,1.5392983E-1,4.9566424E-1,5.3194385E-2,3.123612E-1,-1.19183056E-1,-4.9184844E-2,5.0824482E-2,3.2875988E-1,8.305137E-2,-3.4594502E-2,3.0641353E-2,-3.792975E-2,3.267643E-1,9.471526E-3,8.150666E-1,-3.1258047E-1,2.2868957E-1,-1.21934935E-1,-4.08407E-1,-3.3701545E-1,-1.407119E-2,7.592233E-2,-2.4268676E-1,-1.0235625E-2,5.2069365E-3,3.5843994E-2,2.9518473E-4,6.959062E-2,1.0825631E-2,2.2788769E-2,1.1232342E-3,7.6741286E-2,-2.9639056E-4,4.224765E-3,-1.626033E-2,3.273699E-2,5.287139E-4,-5.6491285E-3,5.9459865E-2,8.02557E-3,4.131938E-2,8.918666E-2,3.1009832E-2,7.7828276E-3,-4.517835E-2,3.9050225E-2,-2.4245685E-2,-2.0578453E-2,3.2777414E-2,-4.7258247E-2,-1.5703568E-2,-3.9898183E-2,-1.1118833E-2,-3.5979565E-2,2.5078285E-2,1.2100201E-2,-2.7786955E-2,-1.3739668E-2,-4.63243E-2],"categories":[],"categories_nodes":[],"categories_segments":[],"categories_sizes":[],"default_left":[0,0,0,0,0,0,0,0,0,0,0,0,0,0,0,0,0,0,0,0,0,0,0,0,0,0,0,0,0,0,0,0,0,0,0,0,0,0,0,0,0,0,0,0,0,0,0,0,0,0,0,0,0,0,0,0,0,0,0,0,0,0,0,0,0,0,0,0,0,0,0,0,0,0,0,0,0,0,0,0,0,0,0,0,0,0,0,0,0],"id":17,"left_children":[1,3,5,7,9,11,13,15,17,-1,19,21,23,25,27,29,31,33,35,37,39,-1,-1,41,43,45,47,49,51,53,55,57,59,61,63,-1,65,67,-1,-1,-1,-1,69,-1,71,73,75,77,79,81,83,85,87,-1,-1,-1,-1,-1,-1,-1,-1,-1,-1,-1,-1,-1,-1,-1,-1,-1,-1,-1,-1,-1,-1,-1,-1,-1,-1,-1,-1,-1,-1,-1,-1,-1,-1,-1,-1],"loss_changes":[2.0412178E0,1.9654746E0,3.3856344E0,1.3700303E0,1.4739883E0,1.3283036E0,1.3925443E0,1.0874596E0,8.2846314E-1,0E0,7.3843145E-1,2.2450387E-1,1.3485556E0,1.5356243E0,2.2710867E0,1.6437259E0,3.6085916E0,1.2693944E0,1.3835675E0,4.9838305E-1,5.113573E-1,0E0,0E0,7.30887E-1,3.6938524E-1,1.0345507E0,1.6476827E0,1.6937621E0,2.4075084E0,1.4242282E0,1.736797E0,1.4876595E0,1.6266701E0,1.0394859E0,9.716294E-1,0E0,1.1292133E0,8.5641235E-1,0E0,0E0,0E0,0E0,3.981501E-2,0E0,2.467537E-2,3.003954E-1,1.0929813E0,1.905859E0,5.116372E-1,5.073695E-1,2.7245312E0,2.0570035E0,6.138307E-1,0E0,0E0,0E0,0E0,0E0,0E0,0E0,0E0,0E0,0E0,0E0,0E0,0E0,0E0,0E0,0E0,0E0,0E0,0E0,0E0,0E0,0E0,0E0,0E0,0E0,0E0,0E0,0E0,0E0,0E0,0E0,0E0,0E0,0E0,0E0,0E0],"parents":[2147483647,0,0,1,1,2,2,3,3,4,4,5,5,6,6,7,7,8,8,10,10,11,11,12,12,13,13,14,14,15,15,16,16,17,17,18,18,19,19,20,20,23,23,24,24,25,25,26,26,27,27,28,28,29,29,30,30,31,31,32,32,33,33,34,34,36,36,37,37,42,42,44,44,45,45,46,46,47,47,48,48,49,49,50,50,51,51,52,52],"right_children":[2,4,6,8,10,12,14,16,18,-1,20,22,24,26,28,30,32,34,36,38,40,-1,-1,42,44,46,48,50,52,54,56,58,60,62,64,-1,66,68,-1,-1,-1,-1,70,-1,72,74,76,78,80,82,84,86,88,-1,-1,-1,-1,-1,-1,-1,-1,-1,-1,-1,-1,-1,-1,-1,-1,-1,-1,-1,-1,-1,-1,-1,-1,-1,-1,-1,-1,-1,-1,-1,-1,-1,-1,-1,-1],"split_conditions":[2.3690113E1,2.3160166E1,4.9881105E0,6.851342E1,1.6240467E1,1.4904442E0,2.9887714E1,1.1629821E0,8.7613365E1,-3.8457982E-2,7.891818E1,6.8405527E-1,9.688413E-1,3.2708195E-1,6.5681803E-1,5.6460205E1,1.2370956E0,3.9E1,4.1E1,5.6104435E1,5.2E1,1.0120679E-2,-3.725137E-2,2.925461E1,4.1E1,2.4642517E1,5.6104435E1,5.2E1,1.7366316E0,1.2957203E1,6.1593937E1,1.1844989E1,1.2916616E1,9.115996E0,3.981399E-1,-4.9184844E-2,4.5E1,2.3526545E1,8.305137E-2,-3.4594502E-2,3.0641353E-2,-3.792975E-2,5.2E1,9.471526E-3,3.7233795E1,3.5517994E1,2.8122225E1,5.0933933E1,8.970081E1,4.864492E-1,4.5759857E1,8.7613365E1,4.712853E1,-1.0235625E-2,5.2069365E-3,3.5843994E-2,2.9518473E-4,6.959062E-2,1.0825631E-2,2.2788769E-2,1.1232342E-3,7.6741286E-2,-2.9639056E-4,4.224765E-3,-1.626033E-2,3.273699E-2,5.287139E-4,-5.6491285E-3,5.9459865E-2,8.02557E-3,4.131938E-2,8.918666E-2,3.1009832E-2,7.7828276E-3,-4.517835E-2,3.9050225E-2,-2.4245685E-2,-2.0578453E-2,3.2777414E-2,-4.7258247E-2,-1.5703568E-2,-3.9898183E-2,-1.1118833E-2,-3.5979565E-2,2.5078285E-2,1.2100201E-2,-2.7786955E-2,-1.3739668E-2,-4.63243E-2],"split_indices":[2,2,4,4,4,4,2,3,4,0,4,3,3,3,3,4,3,1,1,4,1,0,0,2,1,2,4,1,3,2,4,2,4,2,3,0,1,2,0,0,0,0,1,0,2,4,2,4,4,3,4,4,2,0,0,0,0,0,0,0,0,0,0,0,0,0,0,0,0,0,0,0,0,0,0,0,0,0,0,0,0,0,0,0,0,0,0,0,0],"split_type":[0,0,0,0,0,0,0,0,0,0,0,0,0,0,0,0,0,0,0,0,0,0,0,0,0,0,0,0,0,0,0,0,0,0,0,0,0,0,0,0,0,0,0,0,0,0,0,0,0,0,0,0,0,0,0,0,0,0,0,0,0,0,0,0,0,0,0,0,0,0,0,0,0,0,0,0,0,0,0,0,0,0,0,0,0,0,0,0,0],"sum_hessian":[1.1223544E3,7.886008E2,3.337535E2,7.728982E2,1.570261E1,1.4471157E1,3.1928235E2,5.372652E2,2.3563304E2,1.5997701E0,1.4102839E1,2.613346E0,1.1857811E1,9.904528E1,2.2023706E2,2.968631E2,2.404021E2,1.4286731E2,9.2765724E1,1.1275583E1,2.827257E0,1.0868024E0,1.5265439E0,3.9928105E0,7.8650002E0,1.5975088E1,8.307019E1,6.619646E1,1.540406E2,2.4157907E2,5.5284023E1,1.914811E1,2.2125398E2,6.228498E0,1.3663881E2,3.9593854E0,8.8806335E1,7.034224E0,4.2413588E0,1.2547624E0,1.5724946E0,1.5676037E0,2.4252067E0,1.0973445E0,6.7676554E0,3.880459E0,1.2094628E1,4.775389E1,3.53163E1,3.8427197E1,2.7769258E1,1.258671E2,2.8173512E1,1.372952E2,1.0428388E2,2.2895866E1,3.2388157E1,1.2098414E1,7.0496945E0,4.1994553E1,1.7925943E2,1.9625645E0,4.2659335E0,2.8967703E1,1.0767111E2,1.1680761E1,7.712558E1,3.1935942E0,3.8406298E0,1.1302242E0,1.2949824E0,5.2092094E0,1.5584462E0,1.1358252E0,2.744634E0,9.130108E0,2.9645202E0,4.0706455E1,7.0474343E0,2.7432678E1,7.883622E0,2.9551565E1,8.87563E0,1.1890132E1,1.5879127E1,1.1222547E2,1.364163E1,2.0168392E1,8.005117E0],"tree_param":{"num_deleted":"0","num_feature":"5","num_nodes":"89","size_leaf_vector":"1"}},{"base_weights":[2.0507235E-2,3.3605773E-2,-1.4983806E-1,-4.779563E-3,8.361066E-2,5.782816E-1,-1.7958404E-1,-2.1209614E-2,1.7137401E-1,1.4017034E-1,-4.2367242E-2,7.5426154E-2,1.0081977E-2,4.2560074E-2,-2.754126E-1,-1.6914215E-2,-5.0432622E-2,4.3300666E-2,3.9125377E-1,1.24010116E-1,4.5091727E-1,5.469762E-2,-1.9362375E-1,-2.9324142E-2,4.2267013E-1,-3.0015245E-1,4.5985498E-2,-1.224355E-1,2.2853322E-3,1.2037826E-1,-3.6976075E-1,7.496593E-1,2.7500926E-2,1.63372E-1,-5.611471E-2,2.2442757E-1,1.00223616E-1,-1.2709183E-1,1.4439662E-1,1.2370068E-1,-2.7937874E-1,5.8634892E-2,-4.63466E-2,7.834904E-2,-5.413607E-3,-3.405022E-1,1.0595109E-1,-1.6474297E-2,2.6193907E-2,3.6381435E-2,-3.2131476E-4,4.7372985E-3,5.3170618E-2,-2.9597932E-3,-4.898255E-2,9.3903914E-2,3.9119314E-2,1.8381482E-2,-2.6111811E-2,5.0474215E-2,1.4502387E-2,3.2475334E-2,-1.1941871E-2,3.5020813E-2,-3.8598206E-2,4.450171E-2,-2.732028E-2,-9.033602E-3,2.987111E-2,3.1339385E-2,-4.560202E-2,-3.3989698E-2,-3.4557842E-3,-7.0833564E-3,3.466645E-2,-4.4587027E-2,-2.3789663E-2,5.5209953E-2,-4.283425E-2],"categories":[],"categories_nodes":[],"categories_segments":[],"categories_sizes":[],"default_left":[0,0,0,0,0,0,0,0,0,0,0,0,0,0,0,0,0,0,0,0,0,0,0,0,0,0,0,0,0,0,0,0,0,0,0,0,0,0,0,0,0,0,0,0,0,0,0,0,0,0,0,0,0,0,0,0,0,0,0,0,0,0,0,0,0,0,0,0,0,0,0,0,0,0,0,0,0,0,0],"id":18,"left_children":[1,3,5,7,9,11,13,15,17,19,21,-1,-1,23,25,27,-1,29,31,33,35,37,39,41,43,45,-1,47,49,51,53,55,57,59,61,63,-1,65,67,69,71,73,-1,-1,-1,75,77,-1,-1,-1,-1,-1,-1,-1,-1,-1,-1,-1,-1,-1,-1,-1,-1,-1,-1,-1,-1,-1,-1,-1,-1,-1,-1,-1,-1,-1,-1,-1,-1],"loss_changes":[2.6227849E0,2.0930924E0,1.9221876E0,1.7914877E0,3.3798954E0,2.2073925E-1,1.7450185E0,1.1658597E0,1.4702661E0,1.5863452E0,2.1759806E0,0E0,0E0,7.0654947E-1,1.1752E0,1.138809E0,0E0,1.1428257E0,2.4973938E0,2.2229924E0,1.7463613E0,1.4959939E0,1.6093652E0,8.7871903E-1,7.486759E-1,9.498782E-1,0E0,1.450265E0,9.482686E-1,8.704804E-1,2.1709484E-1,2.9050684E-1,5.272859E-1,1.5334072E0,1.4068317E0,1.0932457E0,0E0,2.6687517E0,2.2418542E0,1.5730876E0,6.678133E-1,7.491279E-1,0E0,0E0,0E0,4.449172E-1,1.6197218E0,0E0,0E0,0E0,0E0,0E0,0E0,0E0,0E0,0E0,0E0,0E0,0E0,0E0,0E0,0E0,0E0,0E0,0E0,0E0,0E0,0E0,0E0,0E0,0E0,0E0,0E0,0E0,0E0,0E0,0E0,0E0,0E0],"parents":[2147483647,0,0,1,1,2,2,3,3,4,4,5,5,6,6,7,7,8,8,9,9,10,10,13,13,14,14,15,15,17,17,18,18,19,19,20,20,21,21,22,22,23,23,24,24,25,25,27,27,28,28,29,29,30,30,31,31,32,32,33,33,34,34,35,35,37,37,38,38,39,39,40,40,41,41,45,45,46,46],"right_children":[2,4,6,8,10,12,14,16,18,20,22,-1,-1,24,26,28,-1,30,32,34,36,38,40,42,44,46,-1,48,50,52,54,56,58,60,62,64,-1,66,68,70,72,74,-1,-1,-1,76,78,-1,-1,-1,-1,-1,-1,-1,-1,-1,-1,-1,-1,-1,-1,-1,-1,-1,-1,-1,-1,-1,-1,-1,-1,-1,-1,-1,-1,-1,-1,-1,-1],"split_conditions":[6.1E1,1.8140366E1,2.5814759E-2,9.144275E1,1.3741636E0,3.6289482E1,2.8985239E1,1.793593E1,1.3014859E0,9.5587326E1,6.448E1,7.5426154E-2,1.0081977E-2,2.6052431E1,9.911512E1,4.3E1,-5.0432622E-2,1.0565395E0,1.5271266E0,7.790861E1,1.1675198E0,1.5613202E0,2.1379967E1,1.9451626E1,7.5105864E-1,1.922954E0,4.5985498E-2,1.7706814E0,5.117043E0,9.911512E1,9.342438E1,9.727067E1,1.0824575E1,3.9E1,2.040618E1,5.5E1,1.00223616E-1,4.4E1,2.5193329E1,5.6E1,4.2157974E1,6.7E1,-4.63466E-2,7.834904E-2,-5.413607E-3,6.3E1,2.0772608E1,-1.6474297E-2,2.6193907E-2,3.6381435E-2,-3.2131476E-4,4.7372985E-3,5.3170618E-2,-2.9597932E-3,-4.898255E-2,9.3903914E-2,3.9119314E-2,1.8381482E-2,-2.6111811E-2,5.0474215E-2,1.4502387E-2,3.2475334E-2,-1.1941871E-2,3.5020813E-2,-3.8598206E-2,4.450171E-2,-2.732028E-2,-9.033602E-3,2.987111E-2,3.1339385E-2,-4.560202E-2,-3.3989698E-2,-3.4557842E-3,-7.0833564E-3,3.466645E-2,-4.4587027E-2,-2.3789663E-2,5.5209953E-2,-4.283425E-2],"split_indices":[1,2,3,4,3,4,4,2,3,4,4,0,0,4,4,1,0,3,3,4,3,3,2,4,3,3,0,3,2,4,4,4,2,1,2,1,0,1,2,1,2,1,0,0,0,1,2,0,0,0,0,0,0,0,0,0,0,0,0,0,0,0,0,0,0,0,0,0,0,0,0,0,0,0,0,0,0,0,0],"split_type":[0,0,0,0,0,0,0,0,0,0,0,0,0,0,0,0,0,0,0,0,0,0,0,0,0,0,0,0,0,0,0,0,0,0,0,0,0,0,0,0,0,0,0,0,0,0,0,0,0,0,0,0,0,0,0,0,0,0,0,0,0,0,0,0,0,0,0,0,0,0,0,0,0,0,0,0,0,0,0],"sum_hessian":[1.1722083E3,1.0892539E3,8.295441E1,6.167339E2,4.7252002E2,2.5321434E0,8.0422264E1,5.649225E2,5.181139E1,3.2603088E2,1.4648912E2,1.4266028E0,1.1055405E0,2.4404669E1,5.6017593E1,5.609699E2,3.9525828E0,3.3497208E1,1.8314184E1,3.112439E2,1.478699E1,8.961771E1,5.6871414E1,2.1299486E1,3.1051822E0,5.4766617E1,1.2509763E0,8.552807E1,4.7544183E2,2.8826693E1,4.6705136E0,8.690517E0,9.623667E0,2.5550298E2,5.5740913E1,1.1478522E1,3.3084683E0,2.9471699E1,6.0146008E1,1.2005234E1,4.486618E1,1.8430357E1,2.86913E0,1.4014434E0,1.7037388E0,4.9963833E1,4.8027835E0,7.756232E1,7.965757E0,6.146383E0,4.6929544E2,2.5428617E1,3.3980744E0,1.5436419E0,3.1268716E0,4.6266356E0,4.063882E0,6.4782295E0,3.1454372E0,1.16802635E1,2.4382272E2,7.3556476E0,4.8385265E1,9.870821E0,1.6077011E0,5.5793953E0,2.3892303E1,2.40212E1,3.612481E1,9.391578E0,2.613656E0,3.5662323E1,9.203857E0,1.3235233E1,5.195123E0,2.2999563E1,2.6964272E1,2.599124E0,2.2036595E0],"tree_param":{"num_deleted":"0","num_feature":"5","num_nodes":"79","size_leaf_vector":"1"}},{"base_weights":[1.0123396E-3,-6.3039124E-2,1.3295065E0,5.72131E-1,1.3399099E-1,-4.1907884E-2,9.518248E-1,6.674324E-3,1.2051942E-1],"categories":[],"categories_nodes":[],"categories_segments":[],"categories_sizes":[],"default_left":[0,0,0,0,0,0,0,0,0],"id":19,"left_children":[1,-1,3,5,-1,-1,7,-1,-1],"loss_changes":[9.700466E2,0E0,2.1688232E0,2.9555938E0,0E0,0E0,1.0895967E0,0E0,0E0],"parents":[2147483647,0,0,2,2,3,3,6,6],"right_children":[2,-1,4,6,-1,-1,8,-1,-1],"split_conditions":[7.485337E1,-6.3039124E-2,7.526951E1,4.2E1,1.3399099E-1,-4.1907884E-2,3.5139942E1,6.674324E-3,1.2051942E-1],"split_indices":[0,0,0,1,0,0,4,0,0],"split_type":[0,0,0,0,0,0,0,0,0],"sum_hessian":[1.1544482E3,7.828857E2,3.7156253E2,5.7933087E0,3.6576923E2,1.5758207E0,4.217488E0,1.2198111E0,2.9976768E0],"tree_param":{"num_deleted":"0","num_feature":"5","num_nodes":"9","size_leaf_vector":"1"}},{"base_weights":[-1.9167231E-2,1.0774865E-1,-6.071577E-1,-3.1140806E-2,-6.0988892E-2,-3.802159E-2,2.9295687E-2],"categories":[],"categories_nodes":[],"categories_segments":[],"categories_sizes":[],"default_left":[0,0,0,0,0,0,0],"id":20,"left_children":[1,-1,3,5,-1,-1,-1],"loss_changes":[7.1096954E2,0E0,1.1101379E0,6.13802E-1,0E0,0E0,0E0],"parents":[2147483647,0,0,2,2,3,3],"right_children":[2,-1,4,6,-1,-1,-1],"split_conditions":[2.4961308E1,1.0774865E-1,2.5431534E1,1.0918393E0,-6.0988892E-2,-3.802159E-2,2.9295687E-2],"split_indices":[0,0,0,3,0,0,0],"split_type":[0,0,0,0,0,0,0],"sum_hessian":[1.1005682E3,3.8384018E2,7.16728E2,3.4408693E0,7.132872E2,1.5732358E0,1.8676336E0],"tree_param":{"num_deleted":"0","num_feature":"5","num_nodes":"7","size_leaf_vector":"1"}},{"base_weights":[-1.7067762E-2,4.9418354E-1,-6.2200185E-2,-5.9834417E-2,1.1178055E0,1.1302718E0,1.9045798E-1,1.1327475E-1,2.9172076E-2,-2.1306688E-1,5.4021204E-1,-4.0245645E-2,1.0822723E-2,1.9382872E-3,8.1677206E-2],"categories":[],"categories_nodes":[],"categories_segments":[],"categories_sizes":[],"default_left":[0,0,0,0,0,0,0,0,0,0,0,0,0,0,0],"id":21,"left_children":[1,3,-1,-1,5,7,9,-1,-1,11,13,-1,-1,-1,-1],"loss_changes":[3.4527573E2,4.129205E2,0E0,0E0,4.2418823E0,4.5889282E-1,1.0066246E0,0E0,0E0,2.6566505E-1,5.1232576E-1,0E0,0E0,0E0,0E0],"parents":[2147483647,0,0,1,1,4,4,5,5,6,6,9,9,10,10],"right_children":[2,4,-1,-1,6,8,10,-1,-1,12,14,-1,-1,-1,-1],"split_conditions":[5.0188515E1,2.4961308E1,-6.2200185E-2,-5.9834417E-2,4.9645027E1,9.41642E1,4.3078938E1,1.1327475E-1,2.9172076E-2,2.7837769E1,1.3967289E-1,-4.0245645E-2,1.0822723E-2,1.9382872E-3,8.1677206E-2],"split_indices":[0,0,0,0,0,2,4,0,0,2,3,0,0,0,0],"split_type":[0,0,0,0,0,0,0,0,0,0,0,0,0,0,0],"sum_hessian":[1.1144156E3,6.0407416E2,5.1034146E2,2.1952583E2,3.8454834E2,3.792315E2,5.3168364E0,3.7776535E2,1.4661533E0,2.6501105E0,2.666726E0,1.5083752E0,1.1417353E0,1.2960455E0,1.3706806E0],"tree_param":{"num_deleted":"0","num_feature":"5","num_nodes":"15","size_leaf_vector":"1"}},{"base_weights":[2.0209825E-2,1.561604E-2,4.1342503E-1,2.8723821E-2,-1.2617868E-1,7.3345274E-2,5.6180842E-2,4.8733205E-2,-4.889392E-2,3.6552155E-1,-1.9722159E-1,3.9981008E-1,-4.408927E-2,3.8828615E-2,3.1392503E-1,3.932487E-1,-6.920538E-2,6.6266024E-1,7.359664E-2,1.772912E-1,-2.9920632E-1,5.068402E-3,4.9978185E-1,1.8048234E-2,1.07378565E-1,-4.293023E-2,3.8938558E-1,8.208015E-2,4.9312472E-2,-8.144519E-2,4.9924412E-1,-1.0652824E-3,8.750444E-2,3.0397186E-1,-4.0232677E-2,-4.3390725E-2,2.86443E-1,-4.3645224E-1,-4.1875396E-2,6.99929E-2,4.9097603E-3,-6.3233324E-3,4.072103E-3,-3.0261923E-2,1.3049014E-2,6.387421E-2,1.4102179E-2,-3.8430713E-2,2.7523344E-2,-4.2772528E-2,-6.7166337E-3,4.81529E-3,6.514909E-2,5.142045E-3,5.038161E-2,1.291469E-2,8.513408E-2,-9.720317E-3,-5.206537E-2,4.3972712E-2,-1.54962735E-2],"categories":[],"categories_nodes":[],"categories_segments":[],"categories_sizes":[],"default_left":[0,0,0,0,0,0,0,0,0,0,0,0,0,0,0,0,0,0,0,0,0,0,0,0,0,0,0,0,0,0,0,0,0,0,0,0,0,0,0,0,0,0,0,0,0,0,0,0,0,0,0,0,0,0,0,0,0,0,0,0,0],"id":22,"left_children":[1,3,5,7,9,-1,11,13,15,17,19,21,-1,23,25,27,29,31,33,35,37,-1,39,41,43,-1,45,-1,47,49,51,-1,-1,53,-1,-1,55,57,59,-1,-1,-1,-1,-1,-1,-1,-1,-1,-1,-1,-1,-1,-1,-1,-1,-1,-1,-1,-1,-1,-1],"loss_changes":[2.0715227E0,2.1189723E0,1.4730651E0,1.6216869E0,3.4427867E0,0E0,1.4302721E0,2.166438E0,1.95081E0,1.0383011E0,3.298113E0,1.4447719E-1,0E0,1.1386839E0,1.8341129E0,1.3649383E0,1.471432E0,8.795831E-1,9.387376E-1,1.3793168E0,2.3532739E0,0E0,2.9661828E-1,1.137155E0,1.8025818E0,0E0,1.6134615E0,0E0,7.2887385E-1,9.708644E-1,2.7593946E-1,0E0,0E0,2.5608897E-1,0E0,0E0,1.3618692E0,1.1973076E0,1.4004564E0,0E0,0E0,0E0,0E0,0E0,0E0,0E0,0E0,0E0,0E0,0E0,0E0,0E0,0E0,0E0,0E0,0E0,0E0,0E0,0E0,0E0,0E0],"parents":[2147483647,0,0,1,1,2,2,3,3,4,4,6,6,7,7,8,8,9,9,10,10,11,11,13,13,14,14,15,15,16,16,17,17,18,18,19,19,20,20,22,22,23,23,24,24,26,26,28,28,29,29,30,30,33,33,36,36,37,37,38,38],"right_children":[2,4,6,8,10,-1,12,14,16,18,20,22,-1,24,26,28,30,32,34,36,38,-1,40,42,44,-1,46,-1,48,50,52,-1,-1,54,-1,-1,56,58,60,-1,-1,-1,-1,-1,-1,-1,-1,-1,-1,-1,-1,-1,-1,-1,-1,-1,-1,-1,-1,-1,-1],"split_conditions":[9.911512E1,6E1,9.320577E-1,1.6126158E0,1.7194796E-1,7.3345274E-2,9.954338E1,1.5577152E0,3.8E1,1.1933561E1,1.4488372E1,1.3587408E0,-4.408927E-2,5.4E1,6.7476344E0,2.7656563E1,7.484356E1,7.0331946E-2,6.5E1,3.482806E-1,1.4214344E0,5.068402E-3,1.4625876E1,2.1538723E1,1.2576948E-1,-4.293023E-2,1.4448258E1,8.208015E-2,3.6E1,5.6436815E0,5.4605343E1,-1.0652824E-3,8.750444E-2,7.1915016E1,-4.0232677E-2,-4.3390725E-2,6.8E1,7.958187E0,1.4691335E0,6.99929E-2,4.9097603E-3,-6.3233324E-3,4.072103E-3,-3.0261923E-2,1.3049014E-2,6.387421E-2,1.4102179E-2,-3.8430713E-2,2.7523344E-2,-4.2772528E-2,-6.7166337E-3,4.81529E-3,6.514909E-2,5.142045E-3,5.038161E-2,1.291469E-2,8.513408E-2,-9.720317E-3,-5.206537E-2,4.3972712E-2,-1.54962735E-2],"split_indices":[4,1,3,3,3,0,4,3,1,2,4,3,0,1,2,4,2,3,1,3,3,0,2,4,3,0,2,0,1,2,4,0,0,4,0,0,1,2,3,0,0,0,0,0,0,0,0,0,0,0,0,0,0,0,0,0,0,0,0,0,0],"split_type":[0,0,0,0,0,0,0,0,0,0,0,0,0,0,0,0,0,0,0,0,0,0,0,0,0,0,0,0,0,0,0,0,0,0,0,0,0,0,0,0,0,0,0,0,0,0,0,0,0,0,0,0,0,0,0,0,0,0,0,0,0],"sum_hessian":[1.1493768E3,1.1371318E3,1.2244968E1,1.0416383E3,9.5493645E1,5.903442E0,6.3415265E0,8.284428E2,2.1319542E2,1.1532202E1,8.396144E1,3.8651812E0,2.4763455E0,7.9972064E2,2.8722168E1,8.557331E0,2.0463809E2,5.0857015E0,6.446501E0,1.7812218E1,6.614922E1,1.1958749E0,2.6693063E0,6.146558E2,1.8506482E2,2.21519E0,2.6506979E1,3.1968193E0,5.360512E0,2.0116338E2,3.4747102E0,1.4472818E0,3.6384196E0,4.5872836E0,1.8592172E0,2.2481842E0,1.55640335E1,4.2686535E1,2.3462687E1,1.4654634E0,1.2038429E0,1.3366835E2,4.809875E2,9.230072E0,1.7583475E2,1.2442724E1,1.4064254E1,1.5960594E0,3.7644525E0,6.81979E0,1.943436E2,1.2089627E0,2.2657475E0,2.581826E0,2.0054579E0,1.3135161E1,2.4288723E0,8.916438E0,3.3770096E1,3.912448E0,1.955024E1],"tree_param":{"num_deleted":"0","num_feature":"5","num_nodes":"61","size_leaf_vector":"1"}},{"base_weights":[4.390528E-3,1.2466716E-1,-1.0215643E-2,6.445891E-2,4.5551E-1,-2.7559211E-2,8.7489426E-2,4.1996725E-2,3.9399788E-1,4.9319372E-1,1.1642556E-2,-3.8945904E-1,-2.3186617E-2,2.6129556E-1,3.7654698E-2,1.3020079E-1,-6.66066E-2,-1.4051619E-1,6.7215696E-2,2.9863E-1,6.8253356E-1,4.0817983E-3,-5.3793557E-2,-1.2682365E-1,-9.489247E-3,1.5061355E-2,4.8311213E-1,1.8983579E-1,-6.95766E-2,2.8437847E-2,4.3057218E-1,-1.1286707E-1,4.681531E-1,9.623445E-3,-3.188404E-2,6.8298206E-2,1.5301012E-1,8.052566E-2,2.982734E-1,-3.345926E-2,2.8599247E-2,-1.4303434E-2,-2.950724E-1,-1.0210775E-1,4.1364175E-3,-4.9360376E-2,1.8391703E-1,3.4190658E-3,5.725596E-1,8.185443E-2,3.9961785E-1,-2.477353E-1,2.9587562E-3,9.946752E-3,-2.5460234E-2,2.3190241E-2,8.864022E-2,-3.7456796E-2,-3.6444657E-3,1.5492364E-3,7.181558E-2,-2.532499E-2,4.154417E-2,6.7017074E-3,3.835359E-2,7.147574E-2,-4.398104E-3,-3.4366842E-2,2.8395493E-2,-2.57175E-2,1.2171955E-2,3.8424635E-3,-5.840647E-3,3.765772E-2,-4.5700505E-2,4.3359254E-2,-3.795844E-2,8.662347E-2,2.1180164E-2,-3.0504933E-2,1.3838917E-2,5.739612E-2,-4.4036016E-2,-2.0824613E-3,-4.7311973E-2,4.8084646E-2,-4.2847865E-3],"categories":[],"categories_nodes":[],"categories_segments":[],"categories_sizes":[],"default_left":[0,0,0,0,0,0,0,0,0,0,0,0,0,0,0,0,0,0,0,0,0,0,0,0,0,0,0,0,0,0,0,0,0,0,0,0,0,0,0,0,0,0,0,0,0,0,0,0,0,0,0,0,0,0,0,0,0,0,0,0,0,0,0,0,0,0,0,0,0,0,0,0,0,0,0,0,0,0,0,0,0,0,0,0,0,0,0],"id":23,"left_children":[1,3,5,7,9,11,13,15,17,19,-1,21,23,25,27,29,31,33,-1,35,37,39,-1,41,43,45,47,49,51,53,55,57,59,-1,-1,-1,61,-1,63,-1,-1,65,67,69,71,-1,73,75,77,79,81,83,85,-1,-1,-1,-1,-1,-1,-1,-1,-1,-1,-1,-1,-1,-1,-1,-1,-1,-1,-1,-1,-1,-1,-1,-1,-1,-1,-1,-1,-1,-1,-1,-1,-1,-1],"loss_changes":[2.0193477E0,2.4500089E0,1.7397772E0,7.715657E-1,1.8534994E-1,1.3700135E0,1.3309565E0,9.742194E-1,1.0868688E0,4.146924E-1,0E0,6.06398E-1,1.2226317E0,1.8675613E0,1.9954606E0,1.6982678E0,1.186731E0,1.6205634E-1,0E0,4.5846897E-1,1.24402285E-1,4.6088934E-1,0E0,1.899555E0,9.6276957E-1,1.5766733E0,7.714944E-1,1.1107953E0,9.310708E-1,8.871875E-1,1.0704598E0,8.4617984E-1,4.2384714E-1,0E0,0E0,0E0,1.0203458E0,0E0,4.2515278E-2,0E0,0E0,1.358028E0,1.2301574E0,3.4270468E0,1.4298857E0,0E0,1.8658425E0,7.970963E-1,1.4255347E0,7.986841E-1,2.7271404E0,1.0560427E0,1.1621914E0,0E0,0E0,0E0,0E0,0E0,0E0,0E0,0E0,0E0,0E0,0E0,0E0,0E0,0E0,0E0,0E0,0E0,0E0,0E0,0E0,0E0,0E0,0E0,0E0,0E0,0E0,0E0,0E0,0E0,0E0,0E0,0E0,0E0,0E0],"parents":[2147483647,0,0,1,1,2,2,3,3,4,4,5,5,6,6,7,7,8,8,9,9,11,11,12,12,13,13,14,14,15,15,16,16,17,17,19,19,20,20,21,21,23,23,24,24,25,25,26,26,27,27,28,28,29,29,30,30,31,31,32,32,36,36,38,38,41,41,42,42,43,43,44,44,46,46,47,47,48,48,49,49,50,50,51,51,52,52],"right_children":[2,4,6,8,10,12,14,16,18,20,-1,22,24,26,28,30,32,34,-1,36,38,40,-1,42,44,46,48,50,52,54,56,58,60,-1,-1,-1,62,-1,64,-1,-1,66,68,70,72,-1,74,76,78,80,82,84,86,-1,-1,-1,-1,-1,-1,-1,-1,-1,-1,-1,-1,-1,-1,-1,-1,-1,-1,-1,-1,-1,-1,-1,-1,-1,-1,-1,-1,-1,-1,-1,-1,-1,-1],"split_conditions":[6.7476344E0,6.4953394E0,5.8E1,1.8471913E0,8.559369E1,6.960077E0,3.6074677E-1,1.0198157E0,2.8985239E1,9.902902E-1,1.1642556E-2,5.38816E-1,1.0953155E1,1.791246E-1,1.3609498E1,7.8663003E-1,5.9E1,4.8E1,6.7215696E-2,1.9321823E-1,6.6551685E0,4.5E1,-5.3793557E-2,2.0241018E1,2.7931273E-1,8.869429E0,1.0953155E1,6.8159195E1,1.8376413E1,5.6E1,7.125617E1,1.2210428E0,5.7623005E0,9.623445E-3,-3.188404E-2,6.8298206E-2,4.9E1,8.052566E-2,3.8507607E1,-3.345926E-2,2.8599247E-2,3.3E1,1.8738033E0,6.486172E1,1.43511E0,-4.9360376E-2,1.5007246E-1,1.3334182E1,6.1185177E1,6.214037E-1,6.5E1,5.862849E1,1.9228077E1,9.946752E-3,-2.5460234E-2,2.3190241E-2,8.864022E-2,-3.7456796E-2,-3.6444657E-3,1.5492364E-3,7.181558E-2,-2.532499E-2,4.154417E-2,6.7017074E-3,3.835359E-2,7.147574E-2,-4.398104E-3,-3.4366842E-2,2.8395493E-2,-2.57175E-2,1.2171955E-2,3.8424635E-3,-5.840647E-3,3.765772E-2,-4.5700505E-2,4.3359254E-2,-3.795844E-2,8.662347E-2,2.1180164E-2,-3.0504933E-2,1.3838917E-2,5.739612E-2,-4.4036016E-2,-2.0824613E-3,-4.7311973E-2,4.8084646E-2,-4.2847865E-3],"split_indices":[2,2,1,3,4,2,3,3,4,3,0,3,4,3,2,3,1,1,0,3,2,1,0,2,3,2,4,4,2,1,4,3,2,0,0,0,1,0,4,0,0,1,3,4,3,0,3,2,4,3,1,4,2,0,0,0,0,0,0,0,0,0,0,0,0,0,0,0,0,0,0,0,0,0,0,0,0,0,0,0,0,0,0,0,0,0,0],"split_type":[0,0,0,0,0,0,0,0,0,0,0,0,0,0,0,0,0,0,0,0,0,0,0,0,0,0,0,0,0,0,0,0,0,0,0,0,0,0,0,0,0,0,0,0,0,0,0,0,0,0,0,0,0,0,0,0,0,0,0,0,0,0,0,0,0,0,0,0,0,0,0,0,0,0,0,0,0,0,0,0,0,0,0,0,0,0,0],"sum_hessian":[1.147734E3,1.2346969E2,1.0242643E3,1.0547052E2,1.7999165E1,8.7046625E2,1.53798E2,9.979565E1,5.674874E0,1.5789887E1,2.2092767E0,9.340339E0,8.611259E2,3.3325844E1,1.2047216E2,5.496004E1,4.4835606E1,2.1117473E0,3.5631266E0,9.058589E0,6.731299E0,2.8250308E0,6.515308E0,9.956188E1,7.61564E2,1.6299732E1,1.7026112E1,4.9480217E1,7.099194E1,4.1869675E1,1.3090366E1,4.1991947E1,2.8436594E0,1.1050186E0,1.0067285E0,1.4750752E0,7.5835137E0,4.27149E0,2.459809E0,1.1984246E0,1.6266062E0,6.0311916E1,3.924997E1,9.683669E1,6.6472736E2,3.582996E0,1.2716737E1,2.8390346E0,1.4187078E1,3.3583786E1,1.5896431E1,1.9841818E1,5.1150127E1,3.3988697E1,7.8809776E0,1.0167634E1,2.9227328E0,8.609228E0,3.3382717E1,1.3895949E0,1.4540646E0,2.9899213E0,4.593592E0,1.1437201E0,1.3160888E0,1.4561458E0,5.885577E1,3.6585896E1,2.664072E0,5.7117073E1,3.9719624E1,4.2959427E2,2.3513309E2,1.0094723E1,2.6220133E0,1.2749636E0,1.5640708E0,7.0482764E0,7.1388016E0,3.7212284E0,2.9862558E1,1.3426385E1,2.4700458E0,1.0431785E1,9.410032E0,3.643298E0,4.750683E1],"tree_param":{"num_deleted":"0","num_feature":"5","num_nodes":"87","size_leaf_vector":"1"}},{"base_weights":[-1.3765626E-2,1.0081793E-1,-6.0137624E-1,-2.6643217E-1,-6.0277354E-2,-4.290189E-2,9.243793E-3],"categories":[],"categories_nodes":[],"categories_segments":[],"categories_sizes":[],"default_left":[0,0,0,0,0,0,0],"id":24,"left_children":[1,-1,3,5,-1,-1,-1],"loss_changes":[6.462721E2,0E0,1.592102E-1,3.098594E-1,0E0,0E0,0E0],"parents":[2147483647,0,0,2,2,3,3],"right_children":[2,-1,4,6,-1,-1,-1],"split_conditions":[2.4961308E1,1.0081793E-1,2.5431534E1,1.7366316E0,-6.0277354E-2,-4.290189E-2,9.243793E-3],"split_indices":[0,0,0,3,0,0,0],"split_type":[0,0,0,0,0,0,0],"sum_hessian":[1.0742034E3,3.919049E2,6.8229846E2,3.6309063E0,6.7866754E2,2.3642898E0,1.2666166E0],"tree_param":{"num_deleted":"0","num_feature":"5","num_nodes":"7","size_leaf_vector":"1"}},{"base_weights":[-7.1399496E-3,4.9729127E-1,-6.1589092E-2,-5.867498E-2,1.0468493E0,1.05693184E-1,1.3229388E-1,-3.9531942E-2,4.2352945E-1,6.306394E-2,-1.4706653E-4],"categories":[],"categories_nodes":[],"categories_segments":[],"categories_sizes":[],"default_left":[0,0,0,0,0,0,0,0,0,0,0],"id":25,"left_children":[1,3,-1,-1,5,-1,7,-1,9,-1,-1],"loss_changes":[3.391522E2,3.6043918E2,0E0,0E0,3.5593567E0,0E0,1.0152532E0,0E0,3.5635233E-1,0E0,0E0],"parents":[2147483647,0,0,1,1,4,4,6,6,8,8],"right_children":[2,4,-1,-1,6,-1,8,-1,10,-1,-1],"split_conditions":[5.0188515E1,2.4961308E1,-6.1589092E-2,-5.867498E-2,4.9645027E1,1.05693184E-1,1.6965506E1,-3.9531942E-2,6.3992195E1,6.306394E-2,-1.4706653E-4],"split_indices":[0,0,0,0,0,0,4,0,4,0,0],"split_type":[0,0,0,0,0,0,0,0,0,0,0],"sum_hessian":[1.1024702E3,6.0299316E2,4.9947702E2,2.0282976E2,4.0016342E2,3.9564587E2,4.5175395E0,1.479619E0,3.0379205E0,1.717228E0,1.3206924E0],"tree_param":{"num_deleted":"0","num_feature":"5","num_nodes":"11","size_leaf_vector":"1"}},{"base_weights":[3.3388454E-2,-6.1504852E-2,4.812882E-1,1.2391989E0,-6.2816244E-1,5.4931873E-1,1.2465274E-1,2.1690084E-2,-6.411235E-2,7.729129E-2,1.2975112E-1,9.233361E-2,-5.3992797E-2,5.2322816E-2,-3.450817E-2],"categories":[],"categories_nodes":[],"categories_segments":[],"categories_sizes":[],"default_left":[0,0,0,0,0,0,0,0,0,0,0,0,0,0,0],"id":26,"left_children":[1,-1,3,5,7,9,-1,11,-1,-1,13,-1,-1,-1,-1],"loss_changes":[3.338674E2,0E0,5.7245264E2,1.3591309E0,2.3436584E0,4.6607304E-1,0E0,3.727274E0,0E0,0E0,7.9721445E-1,0E0,0E0,0E0,0E0],"parents":[2147483647,0,0,2,2,3,3,4,4,5,5,7,7,10,10],"right_children":[2,-1,4,6,8,10,-1,12,-1,-1,14,-1,-1,-1,-1],"split_conditions":[4.9645027E1,-6.1504852E-2,7.485337E1,5.0188515E1,7.526951E1,4.3078938E1,1.2465274E-1,4.2E1,-6.411235E-2,7.729129E-2,3.6074677E-1,9.233361E-2,-5.3992797E-2,5.2322816E-2,-3.450817E-2],"split_indices":[0,0,0,0,0,4,0,1,0,0,3,0,0,0,0],"split_type":[0,0,0,0,0,0,0,0,0,0,0,0,0,0,0],"sum_hessian":[1.1475244E3,4.686596E2,6.788648E2,4.0326273E2,2.7560208E2,5.03712E0,3.982256E2,5.3761106E0,2.7022598E2,2.7365856E0,2.3005345E0,1.8162155E0,3.559895E0,1.2023058E0,1.0982288E0],"tree_param":{"num_deleted":"0","num_feature":"5","num_nodes":"15","size_leaf_vector":"1"}},{"base_weights":[-9.5648953E-4,-6.1931547E-2,1.1838189E0,6.6727006E-1,1.1890099E-1,8.168952E-2,4.1741403E-3],"categories":[],"categories_nodes":[],"categories_segments":[],"categories_sizes":[],"default_left":[0,0,0,0,0,0,0],"id":27,"left_children":[1,-1,3,5,-1,-1,-1],"loss_changes":[8.396982E2,0E0,2.6049805E-1,5.452144E-1,0E0,0E0,0E0],"parents":[2147483647,0,0,2,2,3,3],"right_children":[2,-1,4,6,-1,-1,-1],"split_conditions":[7.485337E1,-6.1931547E-2,7.526951E1,8.696498E1,1.1890099E-1,8.168952E-2,4.1741403E-3],"split_indices":[0,0,0,4,0,0,0],"split_type":[0,0,0,0,0,0,0],"sum_hessian":[1.1441626E3,7.521021E2,3.920605E2,5.189579E0,3.868709E2,3.9409776E0,1.2486012E0],"tree_param":{"num_deleted":"0","num_feature":"5","num_nodes":"7","size_leaf_vector":"1"}},{"base_weights":[-1.6373977E-2,9.320022E-2,-5.903766E-1,-2.9971482E-2,-5.9340097E-2,2.4759555E-2,-3.6110606E-2],"categories":[],"categories_nodes":[],"categories_segments":[],"categories_sizes":[],"default_left":[0,0,0,0,0,0,0],"id":28,"left_children":[1,-1,3,5,-1,-1,-1],"loss_changes":[5.616565E2,0E0,1.071518E0,5.032982E-1,0E0,0E0,0E0],"parents":[2147483647,0,0,2,2,3,3],"right_children":[2,-1,4,6,-1,-1,-1],"split_conditions":[2.4961308E1,9.320022E-2,2.5431534E1,5.5E1,-5.9340097E-2,2.4759555E-2,-3.6110606E-2],"split_indices":[0,0,0,1,0,0,0],"split_type":[0,0,0,0,0,0,0],"sum_hessian":[1.0297437E3,3.8802274E2,6.417209E2,3.5031085E0,6.382178E2,2.0429375E0,1.460171E0],"tree_param":{"num_deleted":"0","num_feature":"5","num_nodes":"7","size_leaf_vector":"1"}},{"base_weights":[-6.2590525E-3,4.7410482E-1,-6.0520608E-2,-5.7839047E-2,9.5504135E-1,9.66515E-1,-4.8622128E-2,5.127945E-1,9.7097166E-2,-4.592404E-2,3.71477E-2,7.5376235E-2,1.9360321E-3],"categories":[],"categories_nodes":[],"categories_segments":[],"categories_sizes":[],"default_left":[0,0,0,0,0,0,0,0,0,0,0,0,0],"id":29,"left_children":[1,3,-1,-1,5,7,9,11,-1,-1,-1,-1,-1],"loss_changes":[3.0381873E2,2.9717957E2,0E0,0E0,4.6831665E0,3.0703735E-1,1.1197712E0,6.9778967E-1,0E0,0E0,0E0,0E0,0E0],"parents":[2147483647,0,0,1,1,4,4,5,5,6,6,7,7],"right_children":[2,4,-1,-1,6,8,10,12,-1,-1,-1,-1,-1],"split_conditions":[5.0188515E1,2.4961308E1,-6.0520608E-2,-5.7839047E-2,4.9645027E1,2.5431534E1,4.3078938E1,1.0918393E0,9.7097166E-2,-4.592404E-2,3.71477E-2,7.5376235E-2,1.9360321E-3],"split_indices":[0,0,0,0,0,0,4,3,0,0,0,0,0],"split_type":[0,0,0,0,0,0,0,0,0,0,0,0,0],"sum_hessian":[1.0539829E3,5.850073E2,4.689756E2,1.8341469E2,4.0159262E2,3.9709015E2,4.502445E0,4.991354E0,3.9209882E2,2.229798E0,2.2726471E0,2.9991424E0,1.9922115E0],"tree_param":{"num_deleted":"0","num_feature":"5","num_nodes":"13","size_leaf_vector":"1"}},{"base_weights":[2.0462304E-2,-6.038781E-2,4.449084E-1,1.1041698E0,-6.265677E-2,1.11311E0,4.025772E-1,6.0138434E-1,1.1193804E-1,8.260536E-3,5.5717623E-1,8.312949E-2,9.946527E-2,7.783491E-2,1.4645953E-3,4.6254642E-2,-3.441505E-2],"categories":[],"categories_nodes":[],"categories_segments":[],"categories_sizes":[],"default_left":[0,0,0,0,0,0,0,0,0,0,0,0,0,0,0,0,0],"id":30,"left_children":[1,-1,3,5,-1,7,9,11,-1,-1,13,-1,15,-1,-1,-1,-1],"loss_changes":[3.0019547E2,0E0,4.770315E2,2.1726685E0,0E0,6.4886475E-1,2.915343E-1,7.422087E-1,0E0,0E0,5.197903E-1,0E0,7.038592E-1,0E0,0E0,0E0,0E0],"parents":[2147483647,0,0,2,2,3,3,5,5,6,6,7,7,10,10,12,12],"right_children":[2,-1,4,6,-1,8,10,12,-1,-1,14,-1,16,-1,-1,-1,-1],"split_conditions":[4.9645027E1,-6.038781E-2,7.526951E1,7.485337E1,-6.265677E-2,5.0188515E1,1.4625876E1,4.3078938E1,1.1193804E-1,8.260536E-3,3.2010662E1,8.312949E-2,1.3967289E-1,7.783491E-2,1.4645953E-3,4.6254642E-2,-3.441505E-2],"split_indices":[0,0,0,0,0,0,2,4,0,0,2,0,3,0,0,0,0],"split_type":[0,0,0,0,0,0,0,0,0,0,0,0,0,0,0,0,0],"sum_hessian":[1.1308042E3,4.5746777E2,6.733364E2,4.1683453E2,2.565019E2,4.1101065E2,5.8238974E0,6.148346E0,4.048623E2,2.3970566E0,3.4268408E0,3.766719E0,2.3816268E0,2.1256244E0,1.3012164E0,1.2862285E0,1.0953984E0],"tree_param":{"num_deleted":"0","num_feature":"5","num_nodes":"17","size_leaf_vector":"1"}},{"base_weights":[-2.3965498E-3,-4.6809122E-2,1.4583752E-2,-1.0017403E-1,4.4927634E-2,3.862628E-1,6.6753477E-3,-1.3369985E-1,8.5516326E-2,-2.4535914E-1,1.15529746E-1,5.105626E-1,-2.1047282E-1,1.5371083E-4,2.3696196E-1,-8.697125E-2,-3.3696115E-1,3.8511392E-1,-6.0493782E-2,-3.5875922E-1,1.4938543E-2,2.8878152E-1,3.6371384E-2,8.695348E-2,2.505664E-1,-3.705843E-2,8.789398E-3,5.197775E-3,-2.6431614E-1,3.6769408E-1,-4.5106906E-2,-1.0262994E-1,3.1812847E-1,-4.8695076E-1,-7.7773884E-2,5.339656E-1,-1.3429912E-2,-2.4270986E-1,2.2366303E-1,-9.81332E-2,-5.4309603E-2,-4.2688206E-2,2.8423223E-1,1.14576295E-1,6.4196056E-1,-1.1576207E-1,1.9437143E-1,-1.84316E-2,4.777076E-1,-9.171826E-4,2.4460758E-1,2.7151281E-2,-3.5337973E-1,5.441664E-1,-2.7055366E-2,-8.097127E-3,-3.7442215E-2,6.3065484E-2,-1.25562465E-2,-5.5735637E-2,-3.0921573E-2,1.2536689E-2,-4.6803128E-2,7.5035538E-3,5.9890755E-2,5.2562326E-2,-4.067909E-2,5.610909E-2,-1.503409E-2,-4.0681425E-2,8.373505E-3,6.199504E-2,-1.4888482E-2,6.0828716E-2,1.8986188E-3,8.733422E-3,7.006972E-2,-1.3419606E-3,-3.7489768E-2,2.4217218E-2,-3.9151095E-2,4.0869582E-2,-2.5048116E-2,7.254165E-2,9.972789E-3,2.627152E-4,-3.9085817E-2,-2.1437032E-2,4.2375173E-2,-1.8055854E-2,-5.0726872E-2,1.6941596E-2,6.380222E-2,-3.1521227E-2,5.0124533E-2],"categories":[],"categories_nodes":[],"categories_segments":[],"categories_sizes":[],"default_left":[0,0,0,0,0,0,0,0,0,0,0,0,0,0,0,0,0,0,0,0,0,0,0,0,0,0,0,0,0,0,0,0,0,0,0,0,0,0,0,0,0,0,0,0,0,0,0,0,0,0,0,0,0,0,0,0,0,0,0,0,0,0,0,0,0,0,0,0,0,0,0,0,0,0,0,0,0,0,0,0,0,0,0,0,0,0,0,0,0,0,0,0,0,0,0],"id":31,"left_children":[1,3,5,7,9,11,13,15,17,19,21,23,25,27,29,31,33,35,37,39,41,43,45,-1,47,-1,-1,49,51,53,-1,55,57,59,61,63,-1,65,67,69,-1,-1,71,73,75,77,79,81,83,85,87,-1,89,91,93,-1,-1,-1,-1,-1,-1,-1,-1,-1,-1,-1,-1,-1,-1,-1,-1,-1,-1,-1,-1,-1,-1,-1,-1,-1,-1,-1,-1,-1,-1,-1,-1,-1,-1,-1,-1,-1,-1,-1,-1],"loss_changes":[8.3058214E-1,1.4957129E0,2.3396797E0,1.2122535E0,2.3384786E0,1.337578E0,1.1733078E0,1.5262976E0,1.3404146E0,6.6571677E-1,1.2422472E0,1.0903637E0,2.0297748E-1,1.0162203E0,2.1011057E0,8.85916E-1,1.1387391E0,8.449887E-1,1.1472089E0,6.972685E-1,1.0432763E0,1.6801095E0,1.5571047E0,0E0,5.913428E-1,0E0,0E0,1.0945439E0,7.7633625E-1,1.3125901E0,0E0,7.365029E-1,8.0716527E-1,6.518412E-2,1.0325631E0,1.9273877E-1,0E0,1.8956323E0,1.1908034E0,4.6592495E-1,0E0,0E0,8.79621E-1,9.4672906E-1,2.3844218E-1,8.741832E-1,9.8233926E-1,6.304264E-1,4.1512227E-1,1.0097736E0,1.6218864E0,0E0,2.4509335E-1,3.464229E-1,1.1792443E0,0E0,0E0,0E0,0E0,0E0,0E0,0E0,0E0,0E0,0E0,0E0,0E0,0E0,0E0,0E0,0E0,0E0,0E0,0E0,0E0,0E0,0E0,0E0,0E0,0E0,0E0,0E0,0E0,0E0,0E0,0E0,0E0,0E0,0E0,0E0,0E0,0E0,0E0,0E0,0E0],"parents":[2147483647,0,0,1,1,2,2,3,3,4,4,5,5,6,6,7,7,8,8,9,9,10,10,11,11,12,12,13,13,14,14,15,15,16,16,17,17,18,18,19,19,20,20,21,21,22,22,24,24,27,27,28,28,29,29,31,31,32,32,33,33,34,34,35,35,37,37,38,38,39,39,42,42,43,43,44,44,45,45,46,46,47,47,48,48,49,49,50,50,52,52,53,53,54,54],"right_children":[2,4,6,8,10,12,14,16,18,20,22,24,26,28,30,32,34,36,38,40,42,44,46,-1,48,-1,-1,50,52,54,-1,56,58,60,62,64,-1,66,68,70,-1,-1,72,74,76,78,80,82,84,86,88,-1,90,92,94,-1,-1,-1,-1,-1,-1,-1,-1,-1,-1,-1,-1,-1,-1,-1,-1,-1,-1,-1,-1,-1,-1,-1,-1,-1,-1,-1,-1,-1,-1,-1,-1,-1,-1,-1,-1,-1,-1,-1,-1],"split_conditions":[5.7215136E-1,5.3E1,6.0339516E-1,3.4446743E1,8.222881E0,5.5E1,9.761327E1,2.3526545E1,3.9895374E1,6.9004944E1,1.3071783E1,9.90157E0,5.9E1,6.956938E1,3.5331413E1,2.3007793E1,2.7931273E-1,7.2570946E1,7.303487E1,6.2273426E0,6.272168E0,1.1666235E1,2.3924904E1,8.695348E-2,2.1216719E1,-3.705843E-2,8.789398E-3,5.387206E1,3.9E1,5.2E1,-4.5106906E-2,5.38816E-1,4.6E1,2.925461E1,4.2917106E-1,1.4085899E1,-1.3429912E-2,4.3028984E-2,8.4423096E1,1.5007246E-1,-5.4309603E-2,-4.2688206E-2,8.352085E1,9.896843E0,5.0567955E-2,6.1E1,5.3112227E-1,9.248928E0,5.7889656E1,5.1315247E1,3.4665623E1,2.7151281E-2,5.4605343E1,4.3E1,6E1,-8.097127E-3,-3.7442215E-2,6.3065484E-2,-1.25562465E-2,-5.5735637E-2,-3.0921573E-2,1.2536689E-2,-4.6803128E-2,7.5035538E-3,5.9890755E-2,5.2562326E-2,-4.067909E-2,5.610909E-2,-1.503409E-2,-4.0681425E-2,8.373505E-3,6.199504E-2,-1.4888482E-2,6.0828716E-2,1.8986188E-3,8.733422E-3,7.006972E-2,-1.3419606E-3,-3.7489768E-2,2.4217218E-2,-3.9151095E-2,4.0869582E-2,-2.5048116E-2,7.254165E-2,9.972789E-3,2.627152E-4,-3.9085817E-2,-2.1437032E-2,4.2375173E-2,-1.8055854E-2,-5.0726872E-2,1.6941596E-2,6.380222E-2,-3.1521227E-2,5.0124533E-2],"split_indices":[3,1,3,2,2,1,4,2,2,4,2,2,1,2,2,2,3,4,4,2,2,2,2,0,2,0,0,2,1,1,0,3,1,2,3,4,0,3,4,3,0,0,4,4,3,1,3,4,4,2,4,0,4,1,1,0,0,0,0,0,0,0,0,0,0,0,0,0,0,0,0,0,0,0,0,0,0,0,0,0,0,0,0,0,0,0,0,0,0,0,0,0,0,0,0],"split_type":[0,0,0,0,0,0,0,0,0,0,0,0,0,0,0,0,0,0,0,0,0,0,0,0,0,0,0,0,0,0,0,0,0,0,0,0,0,0,0,0,0,0,0,0,0,0,0,0,0,0,0,0,0,0,0,0,0,0,0,0,0,0,0,0,0,0,0,0,0,0,0,0,0,0,0,0,0,0,0,0,0,0,0,0,0,0,0,0,0,0,0,0,0,0,0],"sum_hessian":[1.0994597E3,3.0360736E2,7.9585236E2,1.9188972E2,1.1171764E2,1.5584202E1,7.802681E2,1.6278024E2,2.9109486E1,2.1371521E1,9.034612E1,1.3017143E1,2.5670578E0,7.5975287E2,2.051527E1,1.3351402E2,2.926622E1,9.001584E0,2.01079E1,1.4622768E1,6.748752E0,2.7502968E1,6.284316E1,4.483054E0,8.53409E0,1.5130647E0,1.0539931E0,7.464958E2,1.3257091E1,1.7630836E1,2.8844328E0,1.2926411E2,4.2499065E0,1.7981632E1,1.1284588E1,6.9747624E0,2.0268219E0,1.2340434E1,7.7674665E0,6.6926584E0,7.9301105E0,2.3340943E0,4.4146576E0,1.930514E1,8.197828E0,3.2152153E1,3.0691006E1,4.3277225E0,4.206367E0,7.288752E2,1.7620615E1,1.5975144E0,1.1659575E1,1.19224205E1,5.708416E0,1.2092566E2,8.3384495E0,2.2462873E0,2.0036192E0,1.1349793E1,6.6318383E0,7.867878E0,3.41671E0,1.1318259E0,5.8429365E0,1.7838521E0,1.0556582E1,3.8204312E0,3.9470356E0,2.0227041E0,4.6699543E0,2.2439528E0,2.1707048E0,2.261465E0,1.7043674E1,1.023186E0,7.174642E0,2.3803167E1,8.348986E0,2.8918285E1,1.7727201E0,1.2555048E0,3.072218E0,1.9857875E0,2.2205791E0,7.232941E2,5.581056E0,4.891547E0,1.2729069E1,6.5156455E0,5.14393E0,2.9497263E0,8.972694E0,3.9547045E0,1.7537115E0],"tree_param":{"num_deleted":"0","num_feature":"5","num_nodes":"95","size_leaf_vector":"1"}},{"base_weights":[-2.4773164E-2,8.782044E-2,-5.8294564E-1,-2.7378703E-2,-5.860908E-2,-3.464486E-2,2.2483638E-2],"categories":[],"categories_nodes":[],"categories_segments":[],"categories_sizes":[],"default_left":[0,0,0,0,0,0,0],"id":32,"left_children":[1,-1,3,5,-1,-1,-1],"loss_changes":[4.97887E2,0E0,1.0506439E0,4.388554E-1,0E0,0E0,0E0],"parents":[2147483647,0,0,2,2,3,3],"right_children":[2,-1,4,6,-1,-1,-1],"split_conditions":[2.4961308E1,8.782044E-2,2.5431534E1,1.0918393E0,-5.860908E-2,-3.464486E-2,2.2483638E-2],"split_indices":[0,0,0,3,0,0,0],"split_type":[0,0,0,0,0,0,0],"sum_hessian":[9.8582153E2,3.7637366E2,6.094479E2,3.485425E0,6.059624E2,1.3738208E0,2.1116042E0],"tree_param":{"num_deleted":"0","num_feature":"5","num_nodes":"7","size_leaf_vector":"1"}},{"base_weights":[-2.1461058E-2,-1.7011492E-2,-2.0133996E-1,-1.9849E-2,4.1990116E-1,2.3376787E-2,-2.4043527E-1,-4.439162E-2,9.1056945E-3,7.0532225E-2,-1.4319948E-2,6.2344585E-2,-3.1775755E-1,-7.661228E-2,3.2615552E-3,5.1343676E-2,-6.757209E-2,-1.1238554E-2,1.7577577E-1,-3.9824346E-1,-7.3632747E-3,-1.9404808E-1,-4.741732E-2,1.5578993E-1,-2.5870115E-2,-3.4392622E-1,6.275518E-2,-1.3602677E-1,-8.494257E-3,3.6156703E-2,-5.7869772E-3,-4.737803E-1,-1.0659779E-1,2.539931E-1,-3.5240717E-2,-2.942644E-2,-4.888745E-3,1.6109882E-3,-1.4680693E-2,4.4892665E-2,3.4758763E-3,2.9507725E-2,-3.598154E-3,3.2396525E-2,-5.0766386E-2,2.509022E-3,1.6591443E-2,1.5021712E-2,-1.8683312E-2,2.5932074E-2,-3.7148148E-3,-5.266578E-2,-1.8566456E-2,7.812007E-3,-3.184658E-2,5.3635216E-3,3.2350417E-2],"categories":[],"categories_nodes":[],"categories_segments":[],"categories_sizes":[],"default_left":[0,0,0,0,0,0,0,0,0,0,0,0,0,0,0,0,0,0,0,0,0,0,0,0,0,0,0,0,0,0,0,0,0,0,0,0,0,0,0,0,0,0,0,0,0,0,0,0,0,0,0,0,0,0,0,0,0],"id":33,"left_children":[1,3,5,7,9,-1,11,13,15,-1,-1,17,19,21,23,25,27,-1,29,31,33,35,37,39,41,43,45,47,49,-1,-1,51,53,55,-1,-1,-1,-1,-1,-1,-1,-1,-1,-1,-1,-1,-1,-1,-1,-1,-1,-1,-1,-1,-1,-1,-1],"loss_changes":[8.126319E-1,1.2431977E0,4.733039E-1,7.0434195E-1,1.1412324E0,0E0,5.5807257E-1,8.2371557E-1,1.4779812E0,0E0,0E0,1.2902085E-1,4.5869792E-1,1.0879599E0,9.696059E-1,1.3483124E0,6.545745E-1,0E0,1.8296489E-1,2.7233624E-1,5.24506E-1,9.078083E-1,1.628943E0,1.2258048E0,6.055176E-1,1.0839269E0,1.1099095E0,1.1194301E0,6.8569785E-1,0E0,0E0,7.512665E-2,1.9336028E-1,2.8968051E-2,0E0,0E0,0E0,0E0,0E0,0E0,0E0,0E0,0E0,0E0,0E0,0E0,0E0,0E0,0E0,0E0,0E0,0E0,0E0,0E0,0E0,0E0,0E0],"parents":[2147483647,0,0,1,1,2,2,3,3,4,4,6,6,7,7,8,8,11,11,12,12,13,13,14,14,15,15,16,16,18,18,19,19,20,20,21,21,22,22,23,23,24,24,25,25,26,26,27,27,28,28,31,31,32,32,33,33],"right_children":[2,4,6,8,10,-1,12,14,16,-1,-1,18,20,22,24,26,28,-1,30,32,34,36,38,40,42,44,46,48,50,-1,-1,52,54,56,-1,-1,-1,-1,-1,-1,-1,-1,-1,-1,-1,-1,-1,-1,-1,-1,-1,-1,-1,-1,-1,-1,-1],"split_conditions":[1.9497266E0,1.9419683E0,9.896843E0,1.0918393E0,2.5855389E1,2.3376787E-2,8.156844E0,5.2E1,6.237194E1,7.0532225E-2,-1.4319948E-2,6.6551685E0,7.790861E1,8.668956E0,5.3E1,3.8E1,1.5210301E0,-1.1238554E-2,5.319356E1,1.9943359E0,1.9712712E0,5.7889656E1,2.3690113E1,3.0957966E1,3.421755E-2,5.898008E0,4.739983E1,1.1400425E0,1.5511657E0,3.6156703E-2,-5.7869772E-3,3.4446743E1,4.3078938E1,9.242967E1,-3.5240717E-2,-2.942644E-2,-4.888745E-3,1.6109882E-3,-1.4680693E-2,4.4892665E-2,3.4758763E-3,2.9507725E-2,-3.598154E-3,3.2396525E-2,-5.0766386E-2,2.509022E-3,1.6591443E-2,1.5021712E-2,-1.8683312E-2,2.5932074E-2,-3.7148148E-3,-5.266578E-2,-1.8566456E-2,7.812007E-3,-3.184658E-2,5.3635216E-3,3.2350417E-2],"split_indices":[3,3,4,3,2,0,2,1,4,0,0,2,4,2,1,1,3,0,4,3,3,4,2,4,3,2,4,3,3,0,0,2,4,4,0,0,0,0,0,0,0,0,0,0,0,0,0,0,0,0,0,0,0,0,0,0,0],"split_type":[0,0,0,0,0,0,0,0,0,0,0,0,0,0,0,0,0,0,0,0,0,0,0,0,0,0,0,0,0,0,0,0,0,0,0,0,0,0,0,0,0,0,0,0,0,0,0,0,0,0,0,0,0,0,0,0,0],"sum_hessian":[1.0185831E3,9.9506335E2,2.3519766E1,9.8959106E2,5.4722834E0,1.5285432E0,2.1991222E1,5.353142E2,4.542769E2,3.4639354E0,2.0083477E0,4.5129695E0,1.7478252E1,3.1900888E2,2.163053E2,2.9313422E2,1.6114268E2,1.780104E0,2.7328653E0,1.365457E1,3.823684E0,6.239208E1,2.566168E2,3.3990284E1,1.8231502E2,7.407737E0,2.8572647E2,7.4043945E1,8.709873E1,1.2173474E0,1.515518E0,1.0349517E1,3.3050525E0,2.3258393E0,1.4978447E0,3.6302387E1,2.6089693E1,1.5706374E2,9.955306E1,9.141192E0,2.484909E1,4.707619E0,1.7760739E2,1.265826E0,6.141911E0,2.1021652E2,7.550995E1,1.0866307E1,6.3177635E1,7.6400967E0,7.945864E1,8.045075E0,2.3044412E0,2.1029062E0,1.2021463E0,1.0553927E0,1.2704464E0],"tree_param":{"num_deleted":"0","num_feature":"5","num_nodes":"57","size_leaf_vector":"1"}},{"base_weights":[2.6161265E-2,-1.1023312E-2,6.1967693E-2,-2.8670335E-2,1.9214804E-1,7.909718E-2,-8.7674744E-2,-3.815362E-2,1.9371603E-1,1.3238782E-1,4.8609754E-1,2.5196522E-1,5.4996245E-2,1.2800698E-1,-2.0586176E-1,-2.692945E-2,-2.307455E-1,-9.66958E-2,4.832473E-1,1.8750465E-1,-2.8858438E-1,5.9362054E-2,2.1790119E-1,2.855723E-1,-2.6883107E-1,-2.4077259E-1,7.181577E-2,-2.4784602E-1,3.5660774E-1,6.6189356E-2,-2.9004076E-1,-1.2199113E-1,-8.966882E-3,-4.029974E-1,2.4581928E-2,1.7036866E-1,-3.569405E-1,5.725639E-1,1.0317483E-2,2.4200977E-1,-1.00981176E-1,1.1711846E-2,-4.321609E-2,5.5984635E-2,-3.0414328E-2,9.025701E-2,3.39073E-1,7.7140755E-3,-4.158657E-2,-3.5080028E-1,-4.7696773E-2,2.5184708E-2,1.1224933E-1,-4.9142234E-2,1.15171015E-1,6.8461E-2,1.8403322E-1,-3.083638E-1,3.6848444E-1,-3.6213487E-1,1.9624129E-2,-3.2676395E-2,1.3993153E-3,4.953928E-2,-1.990698E-3,-4.726951E-2,-1.914087E-2,4.8884686E-2,-1.666657E-2,-1.1862225E-2,3.339781E-2,9.740748E-3,-4.7523312E-2,7.366896E-2,-5.6678294E-3,1.2120702E-2,3.989483E-2,2.8383652E-2,-4.3800443E-2,2.4587737E-2,-1.9274032E-2,3.8116526E-2,5.5776867E-3,8.211549E-3,-3.9014064E-2,6.1303098E-2,-2.4120407E-2,-4.884471E-4,2.6045097E-2,1.5978983E-2,1.454653E-3,-3.1153157E-2,3.631332E-2,6.7403875E-2,-1.8595419E-3,9.107176E-3,-4.3838732E-2,1.2121946E-2,4.755023E-2,-2.0082316E-3,-4.0655565E-2,2.1789465E-2,-1.9372892E-2],"categories":[],"categories_nodes":[],"categories_segments":[],"categories_sizes":[],"default_left":[0,0,0,0,0,0,0,0,0,0,0,0,0,0,0,0,0,0,0,0,0,0,0,0,0,0,0,0,0,0,0,0,0,0,0,0,0,0,0,0,0,0,0,0,0,0,0,0,0,0,0,0,0,0,0,0,0,0,0,0,0,0,0,0,0,0,0,0,0,0,0,0,0,0,0,0,0,0,0,0,0,0,0,0,0,0,0,0,0,0,0,0,0,0,0,0,0,0,0,0,0,0,0],"id":34,"left_children":[1,3,5,7,9,11,13,15,17,19,21,23,25,27,29,31,33,35,37,39,41,-1,43,45,47,49,51,53,55,57,59,61,63,65,67,69,71,73,-1,75,77,-1,-1,-1,-1,79,81,-1,-1,83,85,87,89,-1,91,-1,93,95,97,99,101,-1,-1,-1,-1,-1,-1,-1,-1,-1,-1,-1,-1,-1,-1,-1,-1,-1,-1,-1,-1,-1,-1,-1,-1,-1,-1,-1,-1,-1,-1,-1,-1,-1,-1,-1,-1,-1,-1,-1,-1,-1,-1],"loss_changes":[1.4465605E0,1.9185522E0,1.4254007E0,1.0445708E0,6.8697953E-1,2.0570455E0,1.4872943E0,1.0152245E0,1.7518291E0,9.1072613E-1,6.824112E-2,1.136383E0,2.1938262E0,1.8845315E0,8.7587273E-1,7.63258E-1,1.1485466E0,8.22362E-1,2.9130697E-1,5.47274E-1,3.225187E-1,0E0,8.0235165E-1,5.6873703E-1,2.4497E-1,4.8826432E-1,7.7916765E-1,8.078376E-1,6.330105E-1,1.206689E0,6.490381E-1,1.9833301E0,2.093192E0,1.3836026E-1,1.0912086E0,3.2731026E-1,3.6191803E-1,8.8217163E-1,0E0,4.8744118E-1,9.011189E-1,0E0,0E0,0E0,0E0,6.505416E-1,5.1129675E-1,0E0,0E0,2.872479E-1,1.3991293E0,1.3729913E0,1.028121E0,0E0,5.598094E-1,0E0,1.0206887E0,2.9212737E-1,9.578031E-2,3.4700418E-1,3.1204146E-1,0E0,0E0,0E0,0E0,0E0,0E0,0E0,0E0,0E0,0E0,0E0,0E0,0E0,0E0,0E0,0E0,0E0,0E0,0E0,0E0,0E0,0E0,0E0,0E0,0E0,0E0,0E0,0E0,0E0,0E0,0E0,0E0,0E0,0E0,0E0,0E0,0E0,0E0,0E0,0E0,0E0,0E0],"parents":[2147483647,0,0,1,1,2,2,3,3,4,4,5,5,6,6,7,7,8,8,9,9,10,10,11,11,12,12,13,13,14,14,15,15,16,16,17,17,18,18,19,19,20,20,22,22,23,23,24,24,25,25,26,26,27,27,28,28,29,29,30,30,31,31,32,32,33,33,34,34,35,35,36,36,37,37,39,39,40,40,45,45,46,46,49,49,50,50,51,51,52,52,54,54,56,56,57,57,58,58,59,59,60,60],"right_children":[2,4,6,8,10,12,14,16,18,20,22,24,26,28,30,32,34,36,38,40,42,-1,44,46,48,50,52,54,56,58,60,62,64,66,68,70,72,74,-1,76,78,-1,-1,-1,-1,80,82,-1,-1,84,86,88,90,-1,92,-1,94,96,98,100,102,-1,-1,-1,-1,-1,-1,-1,-1,-1,-1,-1,-1,-1,-1,-1,-1,-1,-1,-1,-1,-1,-1,-1,-1,-1,-1,-1,-1,-1,-1,-1,-1,-1,-1,-1,-1,-1,-1,-1,-1,-1,-1],"split_conditions":[1.5778481E1,9.186552E1,5.9E1,1.922954E0,9.911512E1,1.0953155E1,3.0409111E1,1.8112372E0,5.3E1,5.8E1,9.954338E1,1.8738033E0,1.6240467E1,1.0953155E1,1.984224E1,1.54671335E1,1.0615463E1,4.7E1,1.978457E0,9.803946E1,3.8766333E-1,5.9362054E-2,9.320577E-1,3.620194E0,2.2368065E1,2.8334614E1,4.9E1,1.5210301E0,2.1087866E1,1.793593E1,6.6E1,7.8663003E-1,1.6559433E1,6.237194E1,1.8526891E0,8.156844E0,6.272168E0,6.1185177E1,1.0317483E-2,1.2329345E0,8.576979E0,1.1711846E-2,-4.321609E-2,5.5984635E-2,-3.0414328E-2,2.056728E0,4.9133163E1,7.7140755E-3,-4.158657E-2,1.6203331E1,2.925461E1,4.9133163E1,1.3837262E0,-4.9142234E-2,6.1E1,6.8461E-2,1.3850519E1,1.62968E1,6.1E1,1.7194796E-1,3.005059E1,-3.2676395E-2,1.3993153E-3,4.953928E-2,-1.990698E-3,-4.726951E-2,-1.914087E-2,4.8884686E-2,-1.666657E-2,-1.1862225E-2,3.339781E-2,9.740748E-3,-4.7523312E-2,7.366896E-2,-5.6678294E-3,1.2120702E-2,3.989483E-2,2.8383652E-2,-4.3800443E-2,2.4587737E-2,-1.9274032E-2,3.8116526E-2,5.5776867E-3,8.211549E-3,-3.9014064E-2,6.1303098E-2,-2.4120407E-2,-4.884471E-4,2.6045097E-2,1.5978983E-2,1.454653E-3,-3.1153157E-2,3.631332E-2,6.7403875E-2,-1.8595419E-3,9.107176E-3,-4.3838732E-2,1.2121946E-2,4.755023E-2,-2.0082316E-3,-4.0655565E-2,2.1789465E-2,-1.9372892E-2],"split_indices":[2,4,1,3,4,4,4,3,1,1,4,3,4,4,2,4,2,1,3,4,3,0,3,4,2,2,1,3,2,2,1,3,4,4,3,2,2,4,0,3,2,0,0,0,0,4,2,0,0,2,2,2,3,0,1,0,4,2,1,3,2,0,0,0,0,0,0,0,0,0,0,0,0,0,0,0,0,0,0,0,0,0,0,0,0,0,0,0,0,0,0,0,0,0,0,0,0,0,0,0,0,0,0],"split_type":[0,0,0,0,0,0,0,0,0,0,0,0,0,0,0,0,0,0,0,0,0,0,0,0,0,0,0,0,0,0,0,0,0,0,0,0,0,0,0,0,0,0,0,0,0,0,0,0,0,0,0,0,0,0,0,0,0,0,0,0,0,0,0,0,0,0,0,0,0,0,0,0,0,0,0,0,0,0,0,0,0,0,0,0,0,0,0,0,0,0,0,0,0,0,0,0,0,0,0,0,0,0,0],"sum_hessian":[1.0849445E3,5.3256934E2,5.523751E2,4.9079852E2,4.1770805E1,4.9606253E2,5.6312588E1,4.715198E2,1.9278713E1,3.5918842E1,5.851961E0,5.9540894E1,4.3652164E2,1.9904818E1,3.640777E1,4.4663022E2,2.488958E1,9.957228E0,9.3214855E0,3.2250904E1,3.6679385E0,3.3111165E0,2.5408447E0,5.63559E1,3.1849902E0,2.277159E1,4.1375006E2,7.4960427E0,1.2408776E1,8.653842E0,2.7753925E1,7.006105E1,3.7656915E2,1.4517359E1,1.0372221E1,5.0846677E0,4.87256E0,7.137679E0,2.183806E0,2.7261375E1,4.9895306E0,1.0069339E0,2.6610045E0,1.4914901E0,1.0493546E0,1.2695483E1,4.366042E1,1.0916646E0,2.0933256E0,1.3985054E1,8.786536E0,1.9290277E2,2.2084729E2,4.2743397E0,3.221703E0,3.255051E0,9.153725E0,3.8560271E0,4.7978144E0,2.2375235E1,5.3786926E0,2.7399054E1,4.2661995E1,7.0546346E0,3.6951453E2,9.991962E0,4.5253963E0,2.5721302E0,7.8000913E0,1.9374416E0,3.147226E0,1.0430152E0,3.8295448E0,5.52566E0,1.612019E0,1.6405577E1,1.0855799E1,2.4032643E0,2.5862663E0,8.27579E0,4.419693E0,3.771173E1,5.948687E0,1.0744208E0,1.2910633E1,1.4992772E0,7.2872586E0,1.719103E2,2.099247E1,1.481329E2,7.271438E1,1.0898614E0,2.1318417E0,1.9972981E0,7.156427E0,1.0205246E0,2.8355026E0,2.0934944E0,2.70432E0,2.7386827E0,1.963655E1,2.7768548E0,2.6018379E0],"tree_param":{"num_deleted":"0","num_feature":"5","num_nodes":"103","size_leaf_vector":"1"}},{"base_weights":[1.369108E-2,-6.034972E-2,1.03422515E-1],"categories":[],"categories_nodes":[],"categories_segments":[],"categories_sizes":[],"default_left":[0,0,0],"id":35,"left_children":[1,-1,-1],"loss_changes":[6.893013E2,0E0,0E0],"parents":[2147483647,0,0],"right_children":[2,-1,-1],"split_conditions":[7.485337E1,-6.034972E-2,1.03422515E-1],"split_indices":[0,0,0],"split_type":[0,0,0],"sum_hessian":[1.0923783E3,6.809618E2,4.1141656E2],"tree_param":{"num_deleted":"0","num_feature":"5","num_nodes":"3","size_leaf_vector":"1"}},{"base_weights":[-1.7490167E-2,8.385446E-2,-5.784131E-1,-5.800894E-2,-1.7028266E-1,1.6818723E-2,-3.6734425E-2],"categories":[],"categories_nodes":[],"categories_segments":[],"categories_sizes":[],"default_left":[0,0,0,0,0,0,0],"id":36,"left_children":[1,-1,3,-1,5,-1,-1],"loss_changes":[4.5951285E2,0E0,2.967224E-1,0E0,3.1392333E-1,0E0,0E0],"parents":[2147483647,0,0,2,2,4,4],"right_children":[2,-1,4,-1,6,-1,-1],"split_conditions":[2.4961308E1,8.385446E-2,9.41642E1,-5.800894E-2,2.812942E1,1.6818723E-2,-3.6734425E-2],"split_indices":[0,0,2,0,0,0,0],"split_type":[0,0,0,0,0,0,0],"sum_hessian":[9.5497015E2,3.7784265E2,5.771275E2,5.743473E2,2.7802544E0,1.076978E0,1.7032764E0],"tree_param":{"num_deleted":"0","num_feature":"5","num_nodes":"7","size_leaf_vector":"1"}},{"base_weights":[-1.6315266E-2,4.1090827E-2,-4.0360015E-2,2.6062477E-2,3.9796144E-1,-1.0756664E-2,-1.10561326E-1,7.663635E-2,-1.842157E-2,4.447257E-1,-2.470703E-4,-2.0008845E-2,3.7310407E-1,-1.5780693E-1,-6.103279E-3,4.4406664E-2,3.516873E-1,-7.6847374E-2,1.481772E-1,5.7451885E-2,2.4849892E-1,-1.7292732E-1,-2.3045244E-3,4.428393E-1,5.3244135E-3,-2.2005802E-1,-3.1819828E-2,2.1760668E-1,-1.11127876E-1,-4.4533458E-2,6.096482E-2,5.4707664E-1,-6.4565286E-2,-2.109284E-2,-2.6005682E-1,1.9877827E-1,-4.247526E-2,4.872724E-2,-3.384998E-2,-2.4374308E-1,-5.306536E-3,1.4627826E-1,-2.51792E-2,-4.9967953E-4,5.109667E-1,-9.861715E-2,-2.7531025E-1,-2.584195E-1,9.187412E-2,3.9560542E-1,-1.4230026E-1,2.7196372E-1,-1.3696483E-1,4.6100393E-3,4.850108E-2,6.621524E-2,3.3458948E-2,-2.6518885E-2,3.2546666E-2,-3.8774484E-3,4.1963186E-2,1.2675816E-2,-3.131519E-2,3.209753E-2,1.0927982E-2,-9.2863536E-4,-3.3515476E-2,5.2900124E-2,-9.593173E-3,4.1941167E-3,2.9642114E-2,-4.9305405E-3,5.118325E-3,1.9403538E-2,5.5483073E-2,-1.984981E-2,1.3817069E-2,-1.0505822E-2,-3.7456185E-2,-4.019141E-2,-1.0291645E-3,2.7376918E-2,-2.3589754E-3,-2.2313833E-2,5.4751676E-2,-4.370812E-2,1.1124403E-2,3.447051E-2,5.9740045E-3,-3.1271886E-2,-3.6797568E-3],"categories":[],"categories_nodes":[],"categories_segments":[],"categories_sizes":[],"default_left":[0,0,0,0,0,0,0,0,0,0,0,0,0,0,0,0,0,0,0,0,0,0,0,0,0,0,0,0,0,0,0,0,0,0,0,0,0,0,0,0,0,0,0,0,0,0,0,0,0,0,0,0,0,0,0,0,0,0,0,0,0,0,0,0,0,0,0,0,0,0,0,0,0,0,0,0,0,0,0,0,0,0,0,0,0,0,0,0,0,0,0],"id":37,"left_children":[1,3,5,7,9,11,13,15,17,19,-1,21,23,25,27,29,31,33,35,-1,37,39,41,43,-1,45,47,49,51,-1,53,55,57,59,61,63,-1,-1,-1,65,67,69,71,-1,73,75,77,79,81,83,85,87,89,-1,-1,-1,-1,-1,-1,-1,-1,-1,-1,-1,-1,-1,-1,-1,-1,-1,-1,-1,-1,-1,-1,-1,-1,-1,-1,-1,-1,-1,-1,-1,-1,-1,-1,-1,-1,-1,-1],"loss_changes":[1.3824301E0,1.5760491E0,1.465043E0,6.423955E-1,2.236203E-1,1.7738991E0,1.031291E0,1.1680576E0,1.4947059E0,1.2837386E-1,0E0,1.3170176E0,2.3866343E-1,1.1222227E0,1.5790925E0,1.0056453E0,1.1626164E0,1.1537067E0,1.2414126E0,0E0,1.0059744E0,5.9790087E-1,1.4894072E0,2.9287863E-1,0E0,6.183224E-1,1.3911196E0,1.4324602E0,4.8957354E-1,0E0,7.1888465E-1,1.1682987E-2,5.0276923E-1,7.0275635E-1,5.8167315E-1,3.734113E-1,0E0,0E0,0E0,7.5696254E-1,8.2619834E-1,9.034698E-1,7.0199937E-1,0E0,7.2977543E-3,7.757128E-1,1.068438E0,6.18551E-1,6.847402E-1,1.4980164E0,6.348754E-1,2.9151157E-2,7.5388986E-1,0E0,0E0,0E0,0E0,0E0,0E0,0E0,0E0,0E0,0E0,0E0,0E0,0E0,0E0,0E0,0E0,0E0,0E0,0E0,0E0,0E0,0E0,0E0,0E0,0E0,0E0,0E0,0E0,0E0,0E0,0E0,0E0,0E0,0E0,0E0,0E0,0E0,0E0],"parents":[2147483647,0,0,1,1,2,2,3,3,4,4,5,5,6,6,7,7,8,8,9,9,11,11,12,12,13,13,14,14,15,15,16,16,17,17,18,18,20,20,21,21,22,22,23,23,25,25,26,26,27,27,28,28,30,30,31,31,32,32,33,33,34,34,35,35,39,39,40,40,41,41,42,42,44,44,45,45,46,46,47,47,48,48,49,49,50,50,51,51,52,52],"right_children":[2,4,6,8,10,12,14,16,18,20,-1,22,24,26,28,30,32,34,36,-1,38,40,42,44,-1,46,48,50,52,-1,54,56,58,60,62,64,-1,-1,-1,66,68,70,72,-1,74,76,78,80,82,84,86,88,90,-1,-1,-1,-1,-1,-1,-1,-1,-1,-1,-1,-1,-1,-1,-1,-1,-1,-1,-1,-1,-1,-1,-1,-1,-1,-1,-1,-1,-1,-1,-1,-1,-1,-1,-1,-1,-1,-1],"split_conditions":[2.8603065E1,5.744612E1,2.3690113E1,1.3841463E1,2.4961336E1,2.3160166E1,1.4410523E0,1.3071783E1,2.0354692E1,4.7E1,-2.470703E-4,4.2E1,7.891818E1,4.0406628E1,1.5835017E0,3.7E1,1.6965506E1,1.54671335E1,1.7209911E0,5.7451885E-2,7.484356E1,1.62968E1,4.5E1,3.4665623E1,5.3244135E-3,4.151002E-1,5.3112227E-1,6.675329E1,3.1226397E1,-4.4533458E-2,1.9419683E0,9.7325385E-1,2.5152847E1,6.5E1,4.2E1,2.3589804E1,-4.247526E-2,4.872724E-2,-3.384998E-2,7.2523203E0,1.7202522E1,4.4E1,1.6702337E1,-4.9967953E-4,1.3967289E-1,8.146651E1,5.2762444E1,5.387206E1,4.5303844E1,3.6564526E1,8.352085E1,3.005059E1,5.6460205E1,4.6100393E-3,4.850108E-2,6.621524E-2,3.3458948E-2,-2.6518885E-2,3.2546666E-2,-3.8774484E-3,4.1963186E-2,1.2675816E-2,-3.131519E-2,3.209753E-2,1.0927982E-2,-9.2863536E-4,-3.3515476E-2,5.2900124E-2,-9.593173E-3,4.1941167E-3,2.9642114E-2,-4.9305405E-3,5.118325E-3,1.9403538E-2,5.5483073E-2,-1.984981E-2,1.3817069E-2,-1.0505822E-2,-3.7456185E-2,-4.019141E-2,-1.0291645E-3,2.7376918E-2,-2.3589754E-3,-2.2313833E-2,5.4751676E-2,-4.370812E-2,1.1124403E-2,3.447051E-2,5.9740045E-3,-3.1271886E-2,-3.6797568E-3],"split_indices":[4,2,2,2,4,2,3,2,4,1,0,1,4,2,3,1,4,4,3,0,2,2,1,4,0,3,3,4,4,0,3,3,4,1,1,4,0,0,0,2,2,1,2,0,3,4,4,2,2,4,4,2,4,0,0,0,0,0,0,0,0,0,0,0,0,0,0,0,0,0,0,0,0,0,0,0,0,0,0,0,0,0,0,0,0,0,0,0,0,0,0],"split_type":[0,0,0,0,0,0,0,0,0,0,0,0,0,0,0,0,0,0,0,0,0,0,0,0,0,0,0,0,0,0,0,0,0,0,0,0,0,0,0,0,0,0,0,0,0,0,0,0,0,0,0,0,0,0,0,0,0,0,0,0,0,0,0,0,0,0,0,0,0,0,0,0,0,0,0,0,0,0,0,0,0,0,0,0,0,0,0,0,0,0,0],"sum_hessian":[9.993308E2,2.9479883E2,7.04532E2,2.8391574E2,1.0883081E1,4.9636984E2,2.0816212E2,1.3252518E2,1.5139055E2,9.6459675E0,1.2371134E0,4.85613E2,1.0756839E1,1.4298178E2,6.518034E1,1.19664665E2,1.28605175E1,1.1248208E2,3.8908474E1,4.6454363E0,5.000531E0,4.9478886E1,4.3613412E2,8.515769E0,2.2410696E0,9.519742E1,4.7784363E1,2.0481441E1,4.4698902E1,3.0666633E0,1.16598E2,8.538329E0,4.322189E0,8.709297E1,2.5389112E1,3.635101E1,2.5574656E0,3.6753862E0,1.3251452E0,3.446438E1,1.5014505E1,5.7466286E1,3.7866785E2,1.2467709E0,7.2689986E0,3.0639217E1,6.4558205E1,1.648877E1,3.1295593E1,1.36375475E1,6.8438935E0,2.2222874E0,4.2476616E1,1.1372038E2,2.8776174E0,4.1659784E0,4.37235E0,3.0654666E0,1.2567221E0,8.461046E1,2.4825065E0,2.8968954E0,2.2492218E1,1.4274667E1,2.2076344E1,9.976862E0,2.4487516E1,1.4758645E0,1.3538641E1,3.4659847E1,2.2806437E1,2.8802316E2,9.064467E1,1.5431094E0,5.725889E0,2.1663084E1,8.976134E0,2.4533302E1,4.00249E1,1.0054422E1,6.4343476E0,1.1619645E1,1.967595E1,2.5958061E0,1.1041741E1,2.8298779E0,4.0140157E0,1.1901131E0,1.0321743E0,1.4649884E1,2.782673E1],"tree_param":{"num_deleted":"0","num_feature":"5","num_nodes":"91","size_leaf_vector":"1"}},{"base_weights":[2.1228664E-2,-5.9163332E-2,4.0369973E-1,1.0012919E0,-6.045139E-1,5.1468414E-1,1.0068115E-1,3.0532563E-2,-6.1514564E-2,9.209477E-2,-1.8171543E-1,2.4151738E-1,-3.630493E-2,-3.5343353E-2,6.6868723E-3,3.3567786E-2,2.7795953E-3],"categories":[],"categories_nodes":[],"categories_segments":[],"categories_sizes":[],"default_left":[0,0,0,0,0,0,0,0,0,0,0,0,0,0,0,0,0],"id":38,"left_children":[1,-1,3,5,7,9,-1,11,-1,-1,13,15,-1,-1,-1,-1,-1],"loss_changes":[2.5244882E2,0E0,4.0012872E2,6.0098267E-1,1.6891174E0,2.0684638E0,0E0,5.0506836E-1,0E0,0E0,1.6496632E-1,6.860475E-2,0E0,0E0,0E0,0E0,0E0],"parents":[2147483647,0,0,2,2,3,3,4,4,5,5,7,7,10,10,11,11],"right_children":[2,-1,4,6,8,10,-1,12,-1,-1,14,16,-1,-1,-1,-1,-1],"split_conditions":[4.9645027E1,-5.9163332E-2,7.485337E1,5.0188515E1,7.526951E1,4.3078938E1,1.0068115E-1,1.2955431E0,-6.1514564E-2,9.209477E-2,6.3992195E1,1.768358E1,-3.630493E-2,-3.5343353E-2,6.6868723E-3,3.3567786E-2,2.7795953E-3],"split_indices":[0,0,0,0,0,4,0,3,0,0,4,2,0,0,0,0,0],"split_type":[0,0,0,0,0,0,0,0,0,0,0,0,0,0,0,0,0],"sum_hessian":[1.0749722E3,4.1286337E2,6.6210876E2,4.157128E2,2.4639598E2,5.719572E0,4.0999323E2,4.0263333E0,2.4236964E2,3.4086196E0,2.3109524E0,2.8727288E0,1.1536045E0,1.1173311E0,1.1936213E0,1.5980389E0,1.2746899E0],"tree_param":{"num_deleted":"0","num_feature":"5","num_nodes":"17","size_leaf_vector":"1"}},{"base_weights":[6.146201E-4,-5.9663642E-2,9.708304E-1,5.199379E-1,9.7608246E-2,6.667162E-1,-2.6565723E-3,8.703398E-2,1.8615127E-2],"categories":[],"categories_nodes":[],"categories_segments":[],"categories_sizes":[],"default_left":[0,0,0,0,0,0,0,0,0],"id":39,"left_children":[1,-1,3,5,-1,7,-1,-1,-1],"loss_changes":[5.875949E2,0E0,4.0750122E-1,5.4621696E-1,0E0,3.4996128E-1,0E0,0E0,0E0],"parents":[2147483647,0,0,2,2,3,3,5,5],"right_children":[2,-1,4,6,-1,8,-1,-1,-1],"split_conditions":[7.485337E1,-5.9663642E-2,7.526951E1,1.6650331E0,9.7608246E-2,7.415285E1,-2.6565723E-3,8.703398E-2,1.8615127E-2],"split_indices":[0,0,0,3,0,4,0,0,0],"split_type":[0,0,0,0,0,0,0,0,0],"sum_hessian":[1.01203503E3,6.266582E2,3.8537686E2,5.588612E0,3.7978824E2,4.232021E0,1.356591E0,2.402826E0,1.8291948E0],"tree_param":{"num_deleted":"0","num_feature":"5","num_nodes":"9","size_leaf_vector":"1"}},{"base_weights":[-1.2287364E-2,7.979787E-2,-5.6947124E-1,1.9352397E-2,-5.7299595E-2,2.5497803E-2,-3.2205552E-2],"categories":[],"categories_nodes":[],"categories_segments":[],"categories_sizes":[],"default_left":[0,0,0,0,0,0,0],"id":40,"left_children":[1,-1,3,5,-1,-1,-1],"loss_changes":[4.0822803E2,0E0,1.1230469E0,4.1639516E-1,0E0,0E0,0E0],"parents":[2147483647,0,0,2,2,3,3],"right_children":[2,-1,4,6,-1,-1,-1],"split_conditions":[2.4961308E1,7.979787E-2,2.5431534E1,5.5E1,-5.7299595E-2,2.5497803E-2,-3.2205552E-2],"split_indices":[0,0,0,1,0,0,0],"split_type":[0,0,0,0,0,0,0],"sum_hessian":[9.022186E2,3.6744373E2,5.347749E2,3.1553898E0,5.316195E2,2.0167024E0,1.1386875E0],"tree_param":{"num_deleted":"0","num_feature":"5","num_nodes":"7","size_leaf_vector":"1"}},{"base_weights":[-7.885215E-3,4.4535646E-1,-5.9155196E-2,-5.63077E-2,8.6027867E-1,8.702748E-2,1.2820147E-1,-4.4694632E-2,5.203112E-1,-8.874051E-4,7.618096E-2],"categories":[],"categories_nodes":[],"categories_segments":[],"categories_sizes":[],"default_left":[0,0,0,0,0,0,0,0,0,0,0],"id":41,"left_children":[1,3,-1,-1,5,-1,7,-1,9,-1,-1],"loss_changes":[2.5982114E2,2.3181122E2,0E0,0E0,2.757721E0,0E0,1.6881601E0,0E0,5.562874E-1,0E0,0E0],"parents":[2147483647,0,0,1,1,4,4,6,6,8,8],"right_children":[2,4,-1,-1,6,-1,8,-1,10,-1,-1],"split_conditions":[5.0188515E1,2.4961308E1,-5.9155196E-2,-5.63077E-2,4.9645027E1,8.702748E-2,4.3078938E1,-4.4694632E-2,1.3967289E-1,-8.874051E-4,7.618096E-2],"split_indices":[0,0,0,0,0,0,4,0,3,0,0],"split_type":[0,0,0,0,0,0,0,0,0,0,0],"sum_hessian":[9.801584E2,5.51856E2,4.2830237E2,1.6076738E2,3.9108865E2,3.8563422E2,5.4544253E0,2.1544383E0,3.2999873E0,1.3359122E0,1.9640749E0],"tree_param":{"num_deleted":"0","num_feature":"5","num_nodes":"11","size_leaf_vector":"1"}},{"base_weights":[2.263696E-2,-5.8549102E-2,3.9726964E-1,9.2726254E-1,-6.0231395E-2,9.3624246E-1,2.5177452E-1,4.471284E-1,9.3938686E-2,7.689584E-2,-2.7620333E-1,7.316202E-2,-5.977952E-3,-4.5486238E-2,9.743357E-3],"categories":[],"categories_nodes":[],"categories_segments":[],"categories_sizes":[],"default_left":[0,0,0,0,0,0,0,0,0,0,0,0,0,0,0],"id":42,"left_children":[1,-1,3,5,-1,7,9,11,-1,-1,13,-1,-1,-1,-1],"loss_changes":[2.3512537E2,0E0,3.3886536E2,2.2980347E0,0E0,2.1340942E-1,2.082325E0,6.9834113E-1,0E0,0E0,3.196366E-1,0E0,0E0,0E0,0E0],"parents":[2147483647,0,0,2,2,3,3,5,5,6,6,7,7,10,10],"right_children":[2,-1,4,6,-1,8,10,12,-1,-1,14,-1,-1,-1,-1],"split_conditions":[4.9645027E1,-5.8549102E-2,7.526951E1,7.485337E1,-6.0231395E-2,5.0188515E1,4.9E1,9.90157E0,9.3938686E-2,7.689584E-2,5.7E1,7.316202E-2,-5.977952E-3,-4.5486238E-2,9.743357E-3],"split_indices":[0,0,0,0,0,0,1,2,0,0,1,0,0,0,0],"split_type":[0,0,0,0,0,0,0,0,0,0,0,0,0,0,0],"sum_hessian":[1.0300247E3,3.9243533E2,6.3758923E2,4.1671408E2,2.2087517E2,4.1086606E2,5.8480363E0,3.5392134E0,4.0732684E2,2.7236483E0,3.124388E0,1.9829967E0,1.5562168E0,1.966629E0,1.157759E0],"tree_param":{"num_deleted":"0","num_feature":"5","num_nodes":"15","size_leaf_vector":"1"}},{"base_weights":[-2.1081432E-3,-5.8823448E-2,9.0220374E-1,1.6695969E-1,9.131502E-2,-5.2871823E-2,6.973254E-2],"categories":[],"categories_nodes":[],"categories_segments":[],"categories_sizes":[],"default_left":[0,0,0,0,0,0,0],"id":43,"left_children":[1,-1,3,5,-1,-1,-1],"loss_changes":[5.2837787E2,0E0,3.0026855E0,2.9420986E0,0E0,0E0,0E0],"parents":[2147483647,0,0,2,2,3,3],"right_children":[2,-1,4,6,-1,-1,-1],"split_conditions":[7.485337E1,-5.8823448E-2,7.526951E1,4.9E1,9.131502E-2,-5.2871823E-2,6.973254E-2],"split_indices":[0,0,0,1,0,0,0],"split_type":[0,0,0,0,0,0,0],"sum_hessian":[9.9486096E2,6.0383624E2,3.910247E2,5.974697E0,3.8505002E2,2.5858967E0,3.3888006E0],"tree_param":{"num_deleted":"0","num_feature":"5","num_nodes":"7","size_leaf_vector":"1"}},{"base_weights":[-2.649332E-2,7.594709E-2,-5.6642164E-2],"categories":[],"categories_nodes":[],"categories_segments":[],"categories_sizes":[],"default_left":[0,0,0],"id":44,"left_children":[1,-1,-1],"loss_changes":[3.5628027E2,0E0,0E0],"parents":[2147483647,0,0],"right_children":[2,-1,-1],"split_conditions":[2.4961308E1,7.594709E-2,-5.6642164E-2],"split_indices":[0,0,0],"split_type":[0,0,0],"sum_hessian":[8.375485E2,3.408999E2,4.9664862E2],"tree_param":{"num_deleted":"0","num_feature":"5","num_nodes":"3","size_leaf_vector":"1"}},{"base_weights":[-2.5089672E-3,4.3269524E-1,-5.827933E-2,-5.5652566E-2,8.1131524E-1,8.168048E-1,3.3345821E-1,8.1895255E-2,3.451739E-2,-3.6837623E-2,6.159025E-2],"categories":[],"categories_nodes":[],"categories_segments":[],"categories_sizes":[],"default_left":[0,0,0,0,0,0,0,0,0,0,0],"id":45,"left_children":[1,3,-1,-1,5,7,9,-1,-1,-1,-1],"loss_changes":[2.3388612E2,1.9866623E2,0E0,0E0,7.326813E-1,1.0029602E-1,1.424463E0,0E0,0E0,0E0,0E0],"parents":[2147483647,0,0,1,1,4,4,5,5,6,6],"right_children":[2,4,-1,-1,6,8,10,-1,-1,-1,-1],"split_conditions":[5.0188515E1,2.4961308E1,-5.827933E-2,-5.5652566E-2,4.9645027E1,9.41642E1,9.90157E0,8.1895255E-2,3.451739E-2,-3.6837623E-2,6.159025E-2],"split_indices":[0,0,0,0,0,2,2,0,0,0,0],"split_type":[0,0,0,0,0,0,0,0,0,0,0],"sum_hessian":[9.241284E2,5.282234E2,3.95905E2,1.4608281E2,3.821406E2,3.770992E2,5.0413885E0,3.7465668E2,2.442549E0,1.35935E0,3.6820383E0],"tree_param":{"num_deleted":"0","num_feature":"5","num_nodes":"11","size_leaf_vector":"1"}},{"base_weights":[3.2188606E-2,-5.7696152E-2,3.837868E-1,8.630136E-1,-5.919684E-2,8.7251353E-1,1.937129E-1,3.1397095E-1,8.7841325E-2,7.023338E-2,-2.9211825E-1,6.934198E-2,-5.6086335E-2,-4.57313E-2,8.461928E-3,-1.4407411E-2,8.024501E-3],"categories":[],"categories_nodes":[],"categories_segments":[],"categories_sizes":[],"default_left":[0,0,0,0,0,0,0,0,0,0,0,0,0,0,0,0,0],"id":46,"left_children":[1,-1,3,5,-1,7,9,11,-1,-1,13,-1,15,-1,-1,-1,-1],"loss_changes":[2.130224E2,0E0,2.95369E2,2.5223694E0,0E0,1.0985718E0,1.9866108E0,8.695544E-1,0E0,0E0,3.1212783E-1,0E0,5.8584254E-2,0E0,0E0,0E0,0E0],"parents":[2147483647,0,0,2,2,3,3,5,5,6,6,7,7,10,10,12,12],"right_children":[2,-1,4,6,-1,8,10,12,-1,-1,14,-1,16,-1,-1,-1,-1],"split_conditions":[4.9645027E1,-5.7696152E-2,7.526951E1,7.485337E1,-5.919684E-2,5.0188515E1,4.9E1,1.6965506E1,8.7841325E-2,7.023338E-2,1.3097464E0,6.934198E-2,6.3992195E1,-4.57313E-2,8.461928E-3,-1.4407411E-2,8.024501E-3],"split_indices":[0,0,0,0,0,0,1,4,0,0,3,0,4,0,0,0,0],"split_type":[0,0,0,0,0,0,0,0,0,0,0,0,0,0,0,0,0],"sum_hessian":[9.9257947E2,3.6301266E2,6.295668E2,4.2228415E2,2.0728265E2,4.1607483E2,6.209302E0,4.9156528E0,4.1115918E2,2.8157916E0,3.3935103E0,1.9955949E0,2.920058E0,2.2104003E0,1.1831099E0,1.7401667E0,1.1798915E0],"tree_param":{"num_deleted":"0","num_feature":"5","num_nodes":"17","size_leaf_vector":"1"}},{"base_weights":[-4.919865E-3,-5.800229E-2,8.4686285E-1,1.4585048E-1,8.557009E-2,-1.1567551E-2,2.80015E-1,-3.3913613E-3,4.3877043E-2],"categories":[],"categories_nodes":[],"categories_segments":[],"categories_sizes":[],"default_left":[0,0,0,0,0,0,0,0,0],"id":47,"left_children":[1,-1,3,5,-1,-1,7,-1,-1],"loss_changes":[4.6746423E2,0E0,2.2581177E0,2.4271224E-1,0E0,0E0,2.2689635E-1,0E0,0E0],"parents":[2147483647,0,0,2,2,3,3,6,6],"right_children":[2,-1,4,6,-1,-1,8,-1,-1],"split_conditions":[7.485337E1,-5.800229E-2,7.526951E1,8.1437236E-1,8.557009E-2,-1.1567551E-2,6.448E1,-3.3913613E-3,4.3877043E-2],"split_indices":[0,0,0,3,0,0,4,0,0],"split_type":[0,0,0,0,0,0,0,0,0],"sum_hessian":[9.5227313E2,5.686521E2,3.8362103E2,4.9941955E0,3.7862683E2,1.7400789E0,3.2541165E0,1.3570387E0,1.8970779E0],"tree_param":{"num_deleted":"0","num_feature":"5","num_nodes":"9","size_leaf_vector":"1"}},{"base_weights":[-1.9849446E-2,7.2675765E-2,-5.5815625E-1,-1.5017584E-1,-5.6008905E-2,1.8216541E-2,-3.5919808E-2],"categories":[],"categories_nodes":[],"categories_segments":[],"categories_sizes":[],"default_left":[0,0,0,0,0,0,0],"id":48,"left_children":[1,-1,3,5,-1,-1,-1],"loss_changes":[3.277641E2,0E0,2.8955078E-1,3.155566E-1,0E0,0E0,0E0],"parents":[2147483647,0,0,2,2,3,3],"right_children":[2,-1,4,6,-1,-1,-1],"split_conditions":[2.4961308E1,7.2675765E-2,2.5431534E1,4.7070553E1,-5.6008905E-2,1.8216541E-2,-3.5919808E-2],"split_indices":[0,0,0,4,0,0,0],"split_type":[0,0,0,0,0,0,0],"sum_hessian":[8.135197E2,3.4067242E2,4.728473E2,2.6006186E0,4.7024667E2,1.053717E0,1.5469015E0],"tree_param":{"num_deleted":"0","num_feature":"5","num_nodes":"7","size_leaf_vector":"1"}},{"base_weights":[-1.0188905E-2,4.0697077E-1,-5.746552E-2,-5.507644E-2,7.6661354E-1,7.7718776E-1,8.094472E-2,7.794363E-2,2.3471786E-2,-2.2881453E-1,3.6842895E-1,1.2769033E-2,-4.162509E-2,6.405693E-2,-6.801575E-3],"categories":[],"categories_nodes":[],"categories_segments":[],"categories_sizes":[],"default_left":[0,0,0,0,0,0,0,0,0,0,0,0,0,0,0],"id":49,"left_children":[1,3,-1,-1,5,7,9,-1,-1,11,13,-1,-1,-1,-1],