{"learner":{"attributes":{"scikit_learn":"{\"_estimator_type\": \"regressor\"}"},"feature_names":["mean","std","min","max","range","slope","last_3_avg","first_3_avg","volatility"],"feature_types":["float","float","float","float","float","float","float","float","float"],"gradient_booster":{"model":{"gbtree_model_param":{"num_parallel_tree":"1","num_trees":"150"},"iteration_indptr":[0,1,2,3,4,5,6,7,8,9,10,11,12,13,14,15,16,17,18,19,20,21,22,23,24,25,26,27,28,29,30,31,32,33,34,35,36,37,38,39,40,41,42,43,44,45,46,47,48,49,50,51,52,53,54,55,56,57,58,59,60,61,62,63,64,65,66,67,68,69,70,71,72,73,74,75,76,77,78,79,80,81,82,83,84,85,86,87,88,89,90,91,92,93,94,95,96,97,98,99,100,101,102,103,104,105,106,107,108,109,110,111,112,113,114,115,116,117,118,119,120,121,122,123,124,125,126,127,128,129,130,131,132,133,134,135,136,137,138,139,140,141,142,143,144,145,146,147,148,149,150],"tree_info":[0,0,0,0,0,0,0,0,0,0,0,0,0,0,0,0,0,0,0,0,0,0,0,0,0,0,0,0,0,0,0,0,0,0,0,0,0,0,0,0,0,0,0,0,0,0,0,0,0,0,0,0,0,0,0,0,0,0,0,0,0,0,0,0,0,0,0,0,0,0,0,0,0,0,0,0,0,0,0,0,0,0,0,0,0,0,0,0,0,0,0,0,0,0,0,0,0,0,0,0,0,0,0,0,0,0,0,0,0,0,0,0,0,0,0,0,0,0,0,0,0,0,0,0,0,0,0,0,0,0,0,0,0,0,0,0,0,0,0,0,0,0,0,0,0,0,0,0,0,0],"trees":[{"base_weights":[-1.8149065E-2,2.8670728E0,-4.867348E0,4.169113E0,1.0420219E0,-3.021597E0,-7.165319E0,5.1334505E0,3.442863E0,1.8533733E0,-2.1689799E-2,-2.0170047E0,-4.089148E0,-6.0850916E0,-8.661689E0,5.813872E-1,4.6984553E-1,3.8472948E0,3.0565336E0,2.202551E0,1.3632826E0,4.5677224E-1,-4.7934434E-1,-1.5139735E0,-2.5474446E0,-3.521222E-1,-4.5421836E-1,-5.535137E-1,-6.592514E-1,-8.006291E-1,-9.766368E-1,4.0359268E-1,3.6011925E-1,3.2283705E-1,2.8076726E-1,2.3787908E-1,1.9530049E-1,1.5163642E-1,1.0899695E-1,6.6754436E-1,2.310592E-1,-2.4923143E-1,-7.591309E-1,-1.2292881E0,-1.7786738E-1,-2.2488748E-1,-2.7544144E-1,7.532192E-2,5.3399798E-2,3.235635E-2,9.102355E-3,-1.1995697E-2,-3.73713E-2,-6.274723E-2,-8.563655E-2,-1.0706228E-1,-1.3316345E-1],"categories":[],"categories_nodes":[],"categories_segments":[],"categories_sizes":[],"default_left":[0,0,0,0,0,0,0,0,0,0,0,0,0,0,0,0,0,0,0,0,0,0,0,0,0,0,0,0,0,0,0,0,0,0,0,0,0,0,0,0,0,0,0,0,0,0,0,0,0,0,0,0,0,0,0,0,0],"id":0,"left_children":[1,3,5,7,9,11,13,15,17,19,21,23,25,27,29,-1,-1,31,33,35,37,39,41,43,45,-1,-1,-1,-1,-1,-1,-1,-1,-1,-1,-1,-1,-1,-1,47,49,51,53,55,-1,-1,-1,-1,-1,-1,-1,-1,-1,-1,-1,-1,-1],"loss_changes":[4.4519375E4,4.7363555E3,5.01299E3,7.975332E2,7.1809283E2,6.995713E2,8.0075977E2,1.2008203E2,9.245557E1,7.77699E1,7.926724E1,8.739844E1,6.608154E1,5.0018555E1,8.0365234E1,0E0,0E0,4.1357422E-1,5.7321777E0,7.404785E0,6.673218E0,8.266357E0,1.1721561E1,1.1226929E1,4.001709E0,0E0,0E0,0E0,0E0,0E0,0E0,0E0,0E0,0E0,0E0,0E0,0E0,0E0,0E0,6.389656E-1,1.097537E0,1.6126761E0,5.252037E-1,1.9577026E-2,0E0,0E0,0E0,0E0,0E0,0E0,0E0,0E0,0E0,0E0,0E0,0E0,0E0],"parents":[2147483647,0,0,1,1,2,2,3,3,4,4,5,5,6,6,7,7,8,8,9,9,10,10,11,11,12,12,13,13,14,14,17,17,18,18,19,19,20,20,21,21,22,22,23,23,24,24,39,39,40,40,41,41,42,42,43,43],"right_children":[2,4,6,8,10,12,14,16,18,20,22,24,26,28,30,-1,-1,32,34,36,38,40,42,44,46,-1,-1,-1,-1,-1,-1,-1,-1,-1,-1,-1,-1,-1,-1,48,50,52,54,56,-1,-1,-1,-1,-1,-1,-1,-1,-1,-1,-1,-1,-1],"split_conditions":[5.307705E0,3.504587E0,7.3543134E0,2.6635885E0,4.361727E0,6.3265567E0,8.497947E0,2.1849723E0,3.0838375E0,3.9241848E0,4.809864E0,5.829416E0,6.8321257E0,7.8564706E0,9.253074E0,5.813872E-1,4.6984553E-1,2.8983796E0,3.2961938E0,3.7204885E0,4.157257E0,4.582023E0,5.081636E0,5.561869E0,6.0525064E0,-3.521222E-1,-4.5421836E-1,-5.535137E-1,-6.592514E-1,-8.006291E-1,-9.766368E-1,4.0359268E-1,3.6011925E-1,3.2283705E-1,2.8076726E-1,2.3787908E-1,1.9530049E-1,1.5163642E-1,1.0899695E-1,4.490161E0,4.717593E0,4.9255404E0,5.178048E0,5.4138618E0,-1.7786738E-1,-2.2488748E-1,-2.7544144E-1,7.532192E-2,5.3399798E-2,3.235635E-2,9.102355E-3,-1.1995697E-2,-3.73713E-2,-6.274723E-2,-8.563655E-2,-1.0706228E-1,-1.3316345E-1],"split_indices":[1,1,1,1,1,1,1,1,1,1,1,1,1,1,1,0,0,1,1,1,1,1,1,1,1,0,0,0,0,0,0,0,0,0,0,0,0,0,0,1,1,1,1,1,0,0,0,0,0,0,0,0,0,0,0,0,0],"split_type":[0,0,0,0,0,0,0,0,0,0,0,0,0,0,0,0,0,0,0,0,0,0,0,0,0,0,0,0,0,0,0,0,0,0,0,0,0,0,0,0,0,0,0,0,0,0,0,0,0,0,0,0,0,0,0,0,0],"sum_hessian":[3.18E3,1.994E3,1.186E3,1.163E3,8.31E2,6.59E2,5.27E2,4.97E2,6.66E2,4.71E2,3.6E2,3.41E2,3.18E2,3.09E2,2.18E2,1.89E2,3.08E2,3.21E2,3.45E2,2.73E2,1.98E2,1.76E2,1.84E2,1.77E2,1.64E2,1.45E2,1.73E2,1.54E2,1.55E2,1.42E2,7.6E1,1.73E2,1.48E2,1.97E2,1.48E2,1.55E2,1.18E2,1.24E2,7.4E1,9E1,8.6E1,1.02E2,8.2E1,8.8E1,8.9E1,7.2E1,9.2E1,5.2E1,3.8E1,5.1E1,3.5E1,5.1E1,5.1E1,3.8E1,4.4E1,3.9E1,4.9E1],"tree_param":{"num_deleted":"0","num_feature":"9","num_nodes":"57","size_leaf_vector":"1"}},{"base_weights":[2.8174098E-3,2.632191E0,-4.2162614E0,3.7778833E0,1.1677064E0,-2.4450665E0,-6.119073E0,4.718283E0,3.2420194E0,1.8121927E0,2.0039438E-1,-1.5887305E0,-3.251721E0,-5.0640492E0,-7.289538E0,5.412309E-1,4.4358405E-1,3.618289E0,2.9209986E0,2.1460624E0,1.3310024E0,3.894091E-1,-8.9685535E-1,-1.3824345E0,-2.7997758E0,-2.9734333E0,-4.5637986E-1,-4.7738094E0,-6.114138E-1,-6.565451E-1,-7.889305E-1,3.710246E0,3.1501684E-1,2.9501498E0,1.535733E-1,2.1954544E0,6.3534755E-1,3.3648288E-1,1.4789059E0,-6.450347E-1,6.962195E-1,-6.652574E-1,-1.284493E0,-2.5162134E0,-1.0181769E0,-2.2365072E-1,-3.2613853E-1,-4.1206798E-1,-2.479927E0,-5.8030355E-1,-4.261387E-1,3.7425816E-1,2.5243714E-1,2.2898977E-1,3.0029926E-1,1.4746754E-1,2.2843802E-1,7.722405E-2,1.2886048E-3,-2.3146134E-2,6.0363084E-2,1.6522373E-1,7.362405E-2,-1.2641148E-1,-3.2147218E-2,9.425064E-2,5.0382735E-3,-2.6913236E-3,-8.010843E-2,-9.497334E-2,-1.5842257E-1,-3.1501237E-1,-2.2392826E-1,-7.593535E-2,-1.5322162E-1,-2.1366744E-1,-3.102854E-1],"categories":[],"categories_nodes":[],"categories_segments":[],"categories_sizes":[],"default_left":[0,0,0,0,0,0,0,0,0,0,0,0,0,0,0,0,0,0,0,0,0,0,0,0,0,0,0,0,0,0,0,0,0,0,0,0,0,0,0,0,0,0,0,0,0,0,0,0,0,0,0,0,0,0,0,0,0,0,0,0,0,0,0,0,0,0,0,0,0,0,0,0,0,0,0,0,0],"id":1,"left_children":[1,3,5,7,9,11,13,15,17,19,21,23,25,27,29,-1,-1,31,33,35,37,39,41,43,45,47,-1,49,-1,-1,-1,51,-1,53,-1,55,57,59,61,63,65,67,69,71,73,-1,-1,-1,75,-1,-1,-1,-1,-1,-1,-1,-1,-1,-1,-1,-1,-1,-1,-1,-1,-1,-1,-1,-1,-1,-1,-1,-1,-1,-1,-1,-1],"loss_changes":[3.5221977E4,3.27746E3,4.093375E3,5.3750977E2,5.357776E2,4.3208936E2,6.879531E2,5.3617188E1,7.4226074E1,8.004138E1,7.1900986E1,7.3328186E1,1.0509912E2,6.590283E1,6.806543E1,0E0,0E0,2.0444336E0,1.0975586E1,2.121399E1,3.0980286E1,9.407562E1,3.7240639E0,1.07292725E2,4.146332E0,1.4321387E2,0E0,1.0659277E2,0E0,0E0,0E0,5.60791E-1,0E0,6.2070312E0,0E0,1.5411499E1,9.273658E-1,4.5397468E0,2.2726807E1,1.3214777E1,3.6218445E1,2.926385E0,3.014965E-1,4.181122E0,2.5844742E1,0E0,0E0,0E0,3.442395E1,0E0,0E0,0E0,0E0,0E0,0E0,0E0,0E0,0E0,0E0,0E0,0E0,0E0,0E0,0E0,0E0,0E0,0E0,0E0,0E0,0E0,0E0,0E0,0E0,0E0,0E0,0E0,0E0],"parents":[2147483647,0,0,1,1,2,2,3,3,4,4,5,5,6,6,7,7,8,8,9,9,10,10,11,11,12,12,13,13,14,14,17,17,18,18,19,19,20,20,21,21,22,22,23,23,24,24,25,25,27,27,31,31,33,33,35,35,36,36,37,37,38,38,39,39,40,40,41,41,42,42,43,43,44,44,48,48],"right_children":[2,4,6,8,10,12,14,16,18,20,22,24,26,28,30,-1,-1,32,34,36,38,40,42,44,46,48,-1,50,-1,-1,-1,52,-1,54,-1,56,58,60,62,64,66,68,70,72,74,-1,-1,-1,76,-1,-1,-1,-1,-1,-1,-1,-1,-1,-1,-1,-1,-1,-1,-1,-1,-1,-1,-1,-1,-1,-1,-1,-1,-1,-1,-1,-1],"split_conditions":[1.6850504E1,1.1280925E1,2.2774889E1,8.324048E0,1.4000725E1,1.944725E1,2.6143812E1,6.4405594E0,9.733671E0,1.279994E1,1.4955837E0,1.9201133E0,2.2388203E0,2.5423276E0,2.8435362E1,5.412309E-1,4.4358405E-1,4.5373707E0,1.1043835E0,1.2250193E0,-1.2414916E0,-1.4130483E0,1.698721E0,-1.8435397E0,2.0952039E0,-2.127818E0,-4.5637986E-1,-2.4617555E0,-6.114138E-1,-6.565451E-1,-7.889305E-1,8.4384143E-1,3.1501684E-1,-7.819377E-1,1.535733E-1,-9.9781084E-1,1.4001442E0,-1.472453E0,1.1043835E0,-1.6339887E0,1.1599703E0,2.6351411E0,3.2321773E0,-2.0463033E0,1.5842754E0,-2.2365072E-1,-3.2613853E-1,-4.1206798E-1,1.9201133E0,-5.8030355E-1,-4.261387E-1,3.7425816E-1,2.5243714E-1,2.2898977E-1,3.0029926E-1,1.4746754E-1,2.2843802E-1,7.722405E-2,1.2886048E-3,-2.3146134E-2,6.0363084E-2,1.6522373E-1,7.362405E-2,-1.2641148E-1,-3.2147218E-2,9.425064E-2,5.0382735E-3,-2.6913236E-3,-8.010843E-2,-9.497334E-2,-1.5842257E-1,-3.1501237E-1,-2.2392826E-1,-7.593535E-2,-1.5322162E-1,-2.1366744E-1,-3.102854E-1],"split_indices":[4,4,4,4,4,4,4,4,4,4,5,5,5,5,4,0,0,8,5,5,5,5,5,5,5,5,0,5,0,0,0,5,0,5,0,5,5,5,5,5,5,8,8,5,5,0,0,0,5,0,0,0,0,0,0,0,0,0,0,0,0,0,0,0,0,0,0,0,0,0,0,0,0,0,0,0,0],"split_type":[0,0,0,0,0,0,0,0,0,0,0,0,0,0,0,0,0,0,0,0,0,0,0,0,0,0,0,0,0,0,0,0,0,0,0,0,0,0,0,0,0,0,0,0,0,0,0,0,0,0,0,0,0,0,0,0,0,0,0,0,0,0,0,0,0,0,0,0,0,0,0,0,0,0,0,0,0],"sum_hessian":[3.173E3,1.955E3,1.218E3,1.096E3,8.59E2,6.32E2,5.86E2,3.95E2,7.01E2,5.15E2,3.44E2,3.08E2,3.24E2,3.11E2,2.75E2,1.09E2,2.86E2,3.18E2,3.83E2,3.02E2,2.13E2,2.94E2,5E1,2.65E2,4.3E1,2.7E2,5.4E1,2.48E2,6.3E1,1.3E2,1.45E2,2.6E2,5.8E1,3.74E2,9E0,2.92E2,1E1,2.8E1,1.85E2,6.7E1,2.27E2,3.3E1,1.7E1,6.3E1,2.02E2,2.2E1,2.1E1,7.9E1,1.91E2,7.9E1,1.69E2,2.51E2,9E0,3.1E1,3.43E2,3.4E1,2.58E2,8E0,2E0,9E0,1.9E1,1.49E2,3.6E1,2.2E1,4.5E1,1.64E2,6.3E1,6E0,2.7E1,1E1,7E0,1.6E1,4.7E1,1.36E2,6.6E1,1.26E2,6.5E1],"tree_param":{"num_deleted":"0","num_feature":"9","num_nodes":"77","size_leaf_vector":"1"}},{"base_weights":[-2.6398057E-2,2.30235E0,-3.9723103E0,3.2149134E0,5.972679E-1,-2.771565E0,-6.0444703E0,4.062533E0,2.6065385E0,1.1252717E0,-2.7439716E-1,-1.9603953E0,-3.758807E0,-5.1373887E0,-6.7466574E0,4.590262E-1,3.6550212E0,2.9052749E0,2.2335725E0,2.414005E-1,1.2758769E0,-1.00762665E-1,-1.2248118E0,-1.4727898E0,-2.4455972E0,-4.7062325E-1,-3.4947696E0,-6.1618817E-1,-4.919982E0,-7.660896E-1,-6.352858E0,3.7382996E-1,3.117374E-1,2.9531457E0,2.2295637E-1,1.4544129E0,2.2925181E0,-2.3790435E-1,5.277717E-1,1.5070741E0,4.2096514E-1,-1.1862415E0,1.5345664E-1,-9.3789184E-1,-1.7111653E0,-2.2872727E0,-1.2616591E0,-3.6666217E-1,-2.2805746E0,-3.0598125E0,-4.7111702E-1,-4.5042187E-1,-5.897625E-1,-5.69618E-1,-7.579326E-1,2.0734957E-1,2.987586E-1,2.3287011E-2,1.597403E-1,2.3333979E-1,1.3084637E-1,1.1574268E-2,-3.8186394E-2,8.6838536E-2,2.234487E-2,1.8209985E-1,1.2801091E-1,5.7366222E-2,-5.0484847E-2,-1.6735284E-1,-9.192996E-2,3.267136E-2,-2.4839332E-2,-5.1458742E-2,-1.02994815E-1,-4.858322E-2,-1.76805E-1,-2.720521E-1,-1.9458191E-1,-9.065494E-2,-2.1914843E-1,-1.974647E-1,-3.1884682E-1,-3.5269243E-1,-2.8596887E-1],"categories":[],"categories_nodes":[],"categories_segments":[],"categories_sizes":[],"default_left":[0,0,0,0,0,0,0,0,0,0,0,0,0,0,0,0,0,0,0,0,0,0,0,0,0,0,0,0,0,0,0,0,0,0,0,0,0,0,0,0,0,0,0,0,0,0,0,0,0,0,0,0,0,0,0,0,0,0,0,0,0,0,0,0,0,0,0,0,0,0,0,0,0,0,0,0,0,0,0,0,0,0,0,0,0],"id":2,"left_children":[1,3,5,7,9,11,13,15,17,19,21,23,25,27,29,-1,31,33,35,37,39,41,43,45,47,-1,49,-1,51,-1,53,-1,-1,55,-1,57,59,61,63,65,67,69,71,73,75,77,79,-1,81,83,-1,-1,-1,-1,-1,-1,-1,-1,-1,-1,-1,-1,-1,-1,-1,-1,-1,-1,-1,-1,-1,-1,-1,-1,-1,-1,-1,-1,-1,-1,-1,-1,-1,-1,-1],"loss_changes":[2.9414059E4,3.1302988E3,2.9391523E3,6.654551E2,3.2385925E2,5.964497E2,2.4240918E2,1.00643555E2,7.885742E1,5.7996643E1,4.3773174E1,9.481848E1,6.835547E1,1.2893555E1,3.845703E1,0E0,2.3603516E0,7.066162E0,1.2511108E1,9.047402E0,7.328784E1,6.2546665E1,4.11644E0,3.322635E1,3.334778E1,0E0,1.27907715E2,0E0,4.0502686E1,0E0,9.7770996E1,0E0,0E0,5.650635E0,0E0,4.344059E0,9.779419E0,1.3169698E0,4.0558796E0,1.8616394E1,1.1740506E1,4.0548477E0,1.2891838E1,5.611019E-1,1.16859436E-1,9.195862E-1,5.38154E1,0E0,4.5087646E1,8.703613E0,0E0,0E0,0E0,0E0,0E0,0E0,0E0,0E0,0E0,0E0,0E0,0E0,0E0,0E0,0E0,0E0,0E0,0E0,0E0,0E0,0E0,0E0,0E0,0E0,0E0,0E0,0E0,0E0,0E0,0E0,0E0,0E0,0E0,0E0,0E0],"parents":[2147483647,0,0,1,1,2,2,3,3,4,4,5,5,6,6,7,7,8,8,9,9,10,10,11,11,12,12,13,13,14,14,16,16,17,17,18,18,19,19,20,20,21,21,22,22,23,23,24,24,26,26,28,28,30,30,33,33,35,35,36,36,37,37,38,38,39,39,40,40,41,41,42,42,43,43,44,44,45,45,46,46,48,48,49,49],"right_children":[2,4,6,8,10,12,14,16,18,20,22,24,26,28,30,-1,32,34,36,38,40,42,44,46,48,-1,50,-1,52,-1,54,-1,-1,56,-1,58,60,62,64,66,68,70,72,74,76,78,80,-1,82,84,-1,-1,-1,-1,-1,-1,-1,-1,-1,-1,-1,-1,-1,-1,-1,-1,-1,-1,-1,-1,-1,-1,-1,-1,-1,-1,-1,-1,-1,-1,-1,-1,-1,-1,-1],"split_conditions":[1.727429E1,1.2206575E1,2.4349382E1,8.978169E0,1.515987E1,2.0925045E1,2.687058E1,7.292676E0,1.0584671E1,-1.2115755E0,1.6156559E0,1.9077173E1,-2.3446672E0,-2.7236984E0,-2.969803E0,4.590262E-1,4.3000536E0,8.2151437E-1,-9.9781084E-1,-1.435915E0,1.1043835E0,-1.5514379E0,1.8171307E0,-1.8435397E0,-2.2002335E0,-4.7062325E-1,2.3560505E0,-6.1618817E-1,2.5796928E0,-7.660896E-1,2.9415681E0,3.7382996E-1,3.117374E-1,-9.044386E-1,2.2295637E-1,-1.3838074E0,1.0786128E0,2.2960563E0,3.3287501E0,1.3163169E1,1.5264329E0,-1.8047386E0,1.2926705E0,2.7897208E0,5.381206E1,-2.0062797E0,1.8171307E0,-3.6666217E-1,2.0375524E0,-2.127818E0,-4.7111702E-1,-4.5042187E-1,-5.897625E-1,-5.69618E-1,-7.579326E-1,2.0734957E-1,2.987586E-1,2.3287011E-2,1.597403E-1,2.3333979E-1,1.3084637E-1,1.1574268E-2,-3.8186394E-2,8.6838536E-2,2.234487E-2,1.8209985E-1,1.2801091E-1,5.7366222E-2,-5.0484847E-2,-1.6735284E-1,-9.192996E-2,3.267136E-2,-2.4839332E-2,-5.1458742E-2,-1.02994815E-1,-4.858322E-2,-1.76805E-1,-2.720521E-1,-1.9458191E-1,-9.065494E-2,-2.1914843E-1,-1.974647E-1,-3.1884682E-1,-3.5269243E-1,-2.8596887E-1],"split_indices":[4,4,4,4,4,4,4,4,4,5,5,4,5,5,5,0,8,5,5,5,5,5,5,5,5,0,5,0,5,0,5,0,0,5,0,5,5,8,8,4,5,5,5,8,3,5,5,0,5,5,0,0,0,0,0,0,0,0,0,0,0,0,0,0,0,0,0,0,0,0,0,0,0,0,0,0,0,0,0,0,0,0,0,0,0],"split_type":[0,0,0,0,0,0,0,0,0,0,0,0,0,0,0,0,0,0,0,0,0,0,0,0,0,0,0,0,0,0,0,0,0,0,0,0,0,0,0,0,0,0,0,0,0,0,0,0,0,0,0,0,0,0,0,0,0,0,0,0,0,0,0,0,0,0,0,0,0,0,0,0,0,0,0,0,0,0,0,0,0,0,0,0,0],"sum_hessian":[3.199E3,2.012E3,1.187E3,1.31E3,7.02E2,7.53E2,4.34E2,5.45E2,7.65E2,4.37E2,2.65E2,4.15E2,3.38E2,1.93E2,2.41E2,2.33E2,3.12E2,4.21E2,3.44E2,6.4E1,3.73E2,2.25E2,4E1,2.09E2,2.06E2,7E1,2.68E2,2.9E1,1.64E2,6.7E1,1.74E2,2.65E2,4.7E1,3.9E2,3.1E1,2.6E1,3.18E2,2.4E1,4E1,2.93E2,8E1,4.2E1,1.83E2,2.7E1,1.3E1,4.1E1,1.68E2,2.2E1,1.84E2,2E2,6.8E1,1.19E2,4.5E1,1.17E2,5.7E1,1.7E1,3.73E2,3E0,2.3E1,3.04E2,1.4E1,7E0,1.7E1,1.8E1,2.2E1,1.2E2,1.73E2,6.9E1,1.1E1,1.3E1,2.9E1,1.28E2,5.5E1,6E0,2.1E1,1E0,1.2E1,1.5E1,2.6E1,1.23E2,4.5E1,1.4E2,4.4E1,5.5E1,1.45E2],"tree_param":{"num_deleted":"0","num_feature":"9","num_nodes":"85","size_leaf_vector":"1"}},{"base_weights":[1.6336182E-2,2.1543694E0,-3.4947753E0,3.1095114E0,8.299032E-1,-2.1253617E0,-5.2320533E0,3.925271E0,2.6322844E0,1.4433515E0,8.2806155E-2,-1.3201398E0,-2.8631647E0,-4.5133452E0,-6.6087976E0,4.419116E-1,3.6164823E-1,2.9676545E0,2.3180618E0,1.6852933E0,1.1101067E0,4.4322413E-1,-2.4018197E-1,-9.394688E-1,-1.6577243E0,-2.3661731E-1,-3.1697326E0,-4.0284133E-1,-4.9597326E-1,-6.173393E-1,-7.6260906E-1,3.136281E-1,2.8012046E-1,2.4504407E-1,2.1321683E-1,1.8256032E-1,1.5121561E-1,1.2255664E-1,9.310522E-2,6.172293E-1,3.1180477E-1,-7.144725E-2,-4.5412332E-1,-8.089341E-2,-1.11447275E-1,-1.4048739E-1,-1.7806365E-1,-2.9130325E-1,-3.3906165E-1,7.165909E-3,6.235481E-2,4.091758E-2,2.4954304E-2,3.3032856E-4,-1.6238524E-2,-3.539788E-2,-5.3020258E-2],"categories":[],"categories_nodes":[],"categories_segments":[],"categories_sizes":[],"default_left":[0,0,0,0,0,0,0,0,0,0,0,0,0,0,0,0,0,0,0,0,0,0,0,0,0,0,0,0,0,0,0,0,0,0,0,0,0,0,0,0,0,0,0,0,0,0,0,0,0,0,0,0,0,0,0,0,0],"id":3,"left_children":[1,3,5,7,9,11,13,15,17,19,21,23,25,27,29,-1,-1,31,33,35,37,39,41,43,45,-1,47,-1,-1,-1,-1,-1,-1,-1,-1,-1,-1,-1,-1,49,51,53,55,-1,-1,-1,-1,-1,-1,-1,-1,-1,-1,-1,-1,-1,-1],"loss_changes":[2.405955E4,2.5174053E3,2.87467E3,4.4009082E2,3.8302386E2,4.0020508E2,4.985537E2,4.8827637E1,7.0364746E1,3.5136353E1,4.4109707E1,4.0464966E1,4.643579E1,5.6649902E1,3.3091797E1,0E0,0E0,1.0664062E0,4.2001953E0,3.652771E0,2.9109497E0,3.900856E0,7.187421E0,2.66214E0,2.8439026E0,0E0,2.3706055E0,0E0,0E0,0E0,0E0,0E0,0E0,0E0,0E0,0E0,0E0,0E0,0E0,2.1731377E-1,5.283909E-1,7.686723E-1,4.8278427E-1,0E0,0E0,0E0,0E0,0E0,0E0,0E0,0E0,0E0,0E0,0E0,0E0,0E0,0E0],"parents":[2147483647,0,0,1,1,2,2,3,3,4,4,5,5,6,6,7,7,8,8,9,9,10,10,11,11,12,12,13,13,14,14,17,17,18,18,19,19,20,20,21,21,22,22,23,23,24,24,26,26,39,39,40,40,41,41,42,42],"right_children":[2,4,6,8,10,12,14,16,18,20,22,24,26,28,30,-1,-1,32,34,36,38,40,42,44,46,-1,48,-1,-1,-1,-1,-1,-1,-1,-1,-1,-1,-1,-1,50,52,54,56,-1,-1,-1,-1,-1,-1,-1,-1,-1,-1,-1,-1,-1,-1],"split_conditions":[5.241613E0,3.4475627E0,7.315958E0,2.555221E0,4.260308E0,6.2169805E0,8.610075E0,2.0645542E0,3.0094452E0,3.854562E0,4.717593E0,5.6891956E0,6.6444597E0,7.8888035E0,9.506089E0,4.419116E-1,3.6164823E-1,2.7666507E0,3.238794E0,3.6530464E0,4.066992E0,4.4630895E0,4.9959087E0,5.496962E0,5.8561025E0,-2.3661731E-1,6.976821E0,-4.0284133E-1,-4.9597326E-1,-6.173393E-1,-7.6260906E-1,3.136281E-1,2.8012046E-1,2.4504407E-1,2.1321683E-1,1.8256032E-1,1.5121561E-1,1.2255664E-1,9.310522E-2,1.10139475E1,4.551138E0,4.8737745E0,5.1126585E0,-8.089341E-2,-1.11447275E-1,-1.4048739E-1,-1.7806365E-1,-2.9130325E-1,-3.3906165E-1,7.165909E-3,6.235481E-2,4.091758E-2,2.4954304E-2,3.3032856E-4,-1.6238524E-2,-3.539788E-2,-5.3020258E-2],"split_indices":[1,1,1,1,1,1,1,1,1,1,1,1,1,1,1,0,0,1,1,1,1,1,1,1,1,0,1,0,0,0,0,0,0,0,0,0,0,0,0,4,1,1,1,0,0,0,0,0,0,0,0,0,0,0,0,0,0],"split_type":[0,0,0,0,0,0,0,0,0,0,0,0,0,0,0,0,0,0,0,0,0,0,0,0,0,0,0,0,0,0,0,0,0,0,0,0,0,0,0,0,0,0,0,0,0,0,0,0,0,0,0,0,0,0,0,0,0],"sum_hessian":[3.203E3,1.991E3,1.212E3,1.156E3,8.35E2,6.79E2,5.33E2,4.24E2,7.32E2,4.58E2,3.77E2,3.26E2,3.53E2,3.53E2,1.8E2,1.58E2,2.66E2,3.5E2,3.82E2,2.63E2,1.95E2,1.78E2,1.99E2,1.55E2,1.71E2,1.38E2,2.15E2,1.74E2,1.79E2,1.31E2,4.9E1,1.65E2,1.85E2,2.16E2,1.66E2,1.4E2,1.23E2,1.15E2,8E1,7.5E1,1.03E2,1.12E2,8.7E1,9.2E1,6.3E1,6E1,1.11E2,1.06E2,1.09E2,1E0,7.4E1,3.8E1,6.5E1,6.2E1,5E1,4E1,4.7E1],"tree_param":{"num_deleted":"0","num_feature":"9","num_nodes":"57","size_leaf_vector":"1"}},{"base_weights":[-4.0304057E-2,1.8829536E0,-3.2784247E0,2.7259762E0,5.727602E-1,-2.1124365E0,-4.8511047E0,3.3974845E0,2.2099683E0,1.1212558E0,-7.401755E-2,-1.3649814E0,-2.8179107E0,-4.246547E0,-6.0386696E0,3.828819E0,3.059163E-1,2.467795E0,1.9271483E0,1.3434428E0,8.059158E-1,2.0424262E-1,-4.091676E-1,-1.0375818E0,-1.710228E0,-2.4584632E-1,-3.1238458E-1,-3.8652962E-1,-4.6766517E-1,-5.5973846E-1,-6.874789E-1,4.3140125E-1,3.6228552E-1,2.5980112E-1,2.296329E-1,2.038571E-1,1.7585956E-1,1.4281799E-1,1.1393633E-1,9.087274E-2,6.288431E-1,3.5226065E-1,2.10623E-2,-2.795635E-1,-5.572623E-1,-8.5598993E-1,-1.215555E-1,-1.506416E-1,-1.8686128E-1,4.2119827E-2,6.529699E-2,4.312885E-2,2.739721E-2,-1.2836832E-3,1.403511E-2,-1.8113064E-2,-3.4801193E-2,-5.824813E-2,-2.7009105E-2,-7.461425E-2,-9.28945E-2],"categories":[],"categories_nodes":[],"categories_segments":[],"categories_sizes":[],"default_left":[0,0,0,0,0,0,0,0,0,0,0,0,0,0,0,0,0,0,0,0,0,0,0,0,0,0,0,0,0,0,0,0,0,0,0,0,0,0,0,0,0,0,0,0,0,0,0,0,0,0,0,0,0,0,0,0,0,0,0,0,0],"id":4,"left_children":[1,3,5,7,9,11,13,15,17,19,21,23,25,27,29,31,-1,33,35,37,39,41,43,45,47,-1,-1,-1,-1,-1,-1,-1,-1,-1,-1,-1,-1,-1,-1,-1,49,51,53,55,57,59,-1,-1,-1,-1,-1,-1,-1,-1,-1,-1,-1,-1,-1,-1,-1],"loss_changes":[1.9972309E4,2.2207373E3,2.1810566E3,4.166123E2,2.7998447E2,3.589431E2,3.390752E2,6.5629395E1,4.5922363E1,2.8834839E1,3.393655E1,3.6204712E1,3.1138672E1,3.767578E1,2.3875E1,7.255371E0,0E0,2.0722656E0,2.7252197E0,2.678772E0,2.6872864E0,5.3882647E0,3.0111675E0,4.6152496E0,2.4145813E0,0E0,0E0,0E0,0E0,0E0,0E0,0E0,0E0,0E0,0E0,0E0,0E0,0E0,0E0,0E0,7.064819E-2,5.624075E-1,3.6574247E-1,5.433464E-1,3.9308167E-1,2.8129578E-2,0E0,0E0,0E0,0E0,0E0,0E0,0E0,0E0,0E0,0E0,0E0,0E0,0E0,0E0,0E0],"parents":[2147483647,0,0,1,1,2,2,3,3,4,4,5,5,6,6,7,7,8,8,9,9,10,10,11,11,12,12,13,13,14,14,15,15,17,17,18,18,19,19,20,20,21,21,22,22,23,23,24,24,40,40,41,41,42,42,43,43,44,44,45,45],"right_children":[2,4,6,8,10,12,14,16,18,20,22,24,26,28,30,32,-1,34,36,38,40,42,44,46,48,-1,-1,-1,-1,-1,-1,-1,-1,-1,-1,-1,-1,-1,-1,-1,50,52,54,56,58,60,-1,-1,-1,-1,-1,-1,-1,-1,-1,-1,-1,-1,-1,-1,-1],"split_conditions":[5.3266454E0,3.5674288E0,7.459411E0,2.697189E0,4.391974E0,6.4100413E0,8.732319E0,2.248751E0,3.1383426E0,3.9954405E0,4.8989353E0,5.8561025E0,6.931201E0,8.05138E0,9.506089E0,1.8298585E0,3.059163E-1,2.966781E0,3.3574553E0,3.854562E0,4.2300925E0,4.6742487E0,5.1433043E0,5.615616E0,6.0989566E0,-2.4584632E-1,-3.1238458E-1,-3.8652962E-1,-4.6766517E-1,-5.5973846E-1,-6.874789E-1,4.3140125E-1,3.6228552E-1,2.5980112E-1,2.296329E-1,2.038571E-1,1.7585956E-1,1.4281799E-1,1.1393633E-1,9.087274E-2,1.2639124E1,4.5170693E0,1.6850504E1,4.9959087E0,1.9077173E1,5.4507546E0,-1.215555E-1,-1.506416E-1,-1.8686128E-1,4.2119827E-2,6.529699E-2,4.312885E-2,2.739721E-2,-1.2836832E-3,1.403511E-2,-1.8113064E-2,-3.4801193E-2,-5.824813E-2,-2.7009105E-2,-7.461425E-2,-9.28945E-2],"split_indices":[1,1,1,1,1,1,1,1,1,1,1,1,1,1,1,1,0,1,1,1,1,1,1,1,1,0,0,0,0,0,0,0,0,0,0,0,0,0,0,0,4,1,4,1,4,1,0,0,0,0,0,0,0,0,0,0,0,0,0,0,0],"split_type":[0,0,0,0,0,0,0,0,0,0,0,0,0,0,0,0,0,0,0,0,0,0,0,0,0,0,0,0,0,0,0,0,0,0,0,0,0,0,0,0,0,0,0,0,0,0,0,0,0,0,0,0,0,0,0,0,0,0,0,0,0],"sum_hessian":[3.205E3,2.011E3,1.194E3,1.223E3,7.88E2,6.87E2,5.07E2,5.29E2,6.94E2,4.26E2,3.62E2,3.35E2,3.52E2,3.39E2,1.68E2,2.28E2,3.01E2,3.59E2,3.35E2,2.48E2,1.78E2,1.98E2,1.64E2,1.74E2,1.61E2,1.66E2,1.86E2,1.85E2,1.54E2,1.15E2,5.3E1,6.2E1,1.66E2,1.96E2,1.63E2,1.95E2,1.4E2,1.71E2,7.7E1,1.1E2,6.8E1,1.09E2,8.9E1,8.9E1,7.5E1,8.9E1,8.5E1,7.5E1,8.6E1,9E0,5.9E1,5.2E1,5.7E1,7E1,1.9E1,3.8E1,5.1E1,6.8E1,7E0,4E1,4.9E1],"tree_param":{"num_deleted":"0","num_feature":"9","num_nodes":"61","size_leaf_vector":"1"}},{"base_weights":[-1.1954898E-2,1.7260395E0,-2.9317756E0,2.486492E0,6.274625E-1,-1.8777668E0,-4.3736815E0,3.2243745E0,2.1300287E0,1.1035908E0,-1.0492659E-2,-1.2126975E0,-2.5223863E0,-3.8329678E0,-5.458077E0,3.7653044E-1,3.0272344E-1,2.416335E0,1.8727937E0,1.3015865E0,8.121353E-1,2.3318225E-1,-3.3213866E-1,-9.157345E-1,-1.5183508E0,-2.1799164E0,-2.8302985E-1,-3.5462153E-1,-4.3315187E-1,-5.1469326E-1,-6.4037716E-1,2.519293E-1,2.2448733E-1,2.0039268E-1,1.7197314E-1,1.4333872E-1,1.1671539E-1,9.262237E-2,6.809112E-1,3.4718582E-1,1.7947666E-2,-1.8695205E-1,-4.5556912E-1,-6.869182E-2,-1.021486E0,-1.3546027E-1,-1.6623096E-1,-1.9499572E-1,-2.3352464E-1,7.238569E-2,5.6516524E-2,4.4739682E-2,2.5746284E-2,1.4395142E-2,4.1019148E-4,-1.9332327E-2,1.3270187E-2,-3.887675E-2,-5.3012766E-2,-8.940106E-2,-1.1039455E-1],"categories":[],"categories_nodes":[],"categories_segments":[],"categories_sizes":[],"default_left":[0,0,0,0,0,0,0,0,0,0,0,0,0,0,0,0,0,0,0,0,0,0,0,0,0,0,0,0,0,0,0,0,0,0,0,0,0,0,0,0,0,0,0,0,0,0,0,0,0,0,0,0,0,0,0,0,0,0,0,0,0],"id":5,"left_children":[1,3,5,7,9,11,13,15,17,19,21,23,25,27,29,-1,-1,31,33,35,37,39,41,43,45,47,-1,-1,-1,-1,-1,-1,-1,-1,-1,-1,-1,-1,49,51,53,55,57,-1,59,-1,-1,-1,-1,-1,-1,-1,-1,-1,-1,-1,-1,-1,-1,-1,-1],"loss_changes":[1.6320003E4,1.6826372E3,1.8155254E3,3.0639746E2,2.509079E2,2.9489893E2,2.7577148E2,2.9764404E1,5.4835205E1,2.6238281E1,2.7822927E1,2.983371E1,3.0948975E1,3.338916E1,1.5885254E1,0E0,0E0,1.0175781E0,5.1644287E0,3.2881775E0,2.2737198E0,4.950347E0,2.6566582E0,3.581314E0,1.7084656E0,1.5545044E0,0E0,0E0,0E0,0E0,0E0,0E0,0E0,0E0,0E0,0E0,0E0,0E0,5.8158875E-2,1.0716534E0,1.23277314E-1,1.7228818E-1,2.0231438E-1,0E0,2.6392365E-1,0E0,0E0,0E0,0E0,0E0,0E0,0E0,0E0,0E0,0E0,0E0,0E0,0E0,0E0,0E0,0E0],"parents":[2147483647,0,0,1,1,2,2,3,3,4,4,5,5,6,6,7,7,8,8,9,9,10,10,11,11,12,12,13,13,14,14,17,17,18,18,19,19,20,20,21,21,22,22,23,23,24,24,25,25,38,38,39,39,40,40,41,41,42,42,44,44],"right_children":[2,4,6,8,10,12,14,16,18,20,22,24,26,28,30,-1,-1,32,34,36,38,40,42,44,46,48,-1,-1,-1,-1,-1,-1,-1,-1,-1,-1,-1,-1,50,52,54,56,58,-1,60,-1,-1,-1,-1,-1,-1,-1,-1,-1,-1,-1,-1,-1,-1,-1,-1],"split_conditions":[5.307705E0,3.4899755E0,7.459411E0,2.5290706E0,4.3287344E0,6.377792E0,8.732319E0,1.9378897E0,3.0094452E0,3.9241848E0,4.8737745E0,5.829416E0,6.931201E0,8.190839E0,9.640178E0,3.7653044E-1,3.0272344E-1,2.8105774E0,3.2251008E0,3.689492E0,4.1087766E0,4.6742487E0,5.081636E0,5.496962E0,6.0989566E0,6.600555E0,-2.8302985E-1,-3.5462153E-1,-4.3315187E-1,-5.1469326E-1,-6.4037716E-1,2.519293E-1,2.2448733E-1,2.0039268E-1,1.7197314E-1,1.4333872E-1,1.1671539E-1,9.262237E-2,4.260308E0,4.490161E0,3.5752335E1,5.6792725E1,5.213068E0,-6.869182E-2,5.653104E0,-1.3546027E-1,-1.6623096E-1,-1.9499572E-1,-2.3352464E-1,7.238569E-2,5.6516524E-2,4.4739682E-2,2.5746284E-2,1.4395142E-2,4.1019148E-4,-1.9332327E-2,1.3270187E-2,-3.887675E-2,-5.3012766E-2,-8.940106E-2,-1.1039455E-1],"split_indices":[1,1,1,1,1,1,1,1,1,1,1,1,1,1,1,0,0,1,1,1,1,1,1,1,1,1,0,0,0,0,0,0,0,0,0,0,0,0,1,1,2,0,1,0,1,0,0,0,0,0,0,0,0,0,0,0,0,0,0,0,0],"split_type":[0,0,0,0,0,0,0,0,0,0,0,0,0,0,0,0,0,0,0,0,0,0,0,0,0,0,0,0,0,0,0,0,0,0,0,0,0,0,0,0,0,0,0,0,0,0,0,0,0,0,0,0,0,0,0,0,0,0,0,0,0],"sum_hessian":[3.214E3,2.015E3,1.199E3,1.19E3,8.25E2,6.94E2,5.05E2,3.85E2,8.05E2,4.72E2,3.53E2,3.43E2,3.51E2,3.4E2,1.65E2,9.8E1,2.87E2,3.77E2,4.28E2,2.79E2,1.93E2,2.01E2,1.52E2,1.76E2,1.67E2,1.7E2,1.81E2,2.21E2,1.19E2,1.29E2,3.6E1,2.27E2,1.5E2,2.24E2,2.04E2,1.36E2,1.43E2,1E2,9.3E1,1.31E2,7E1,7.1E1,8.1E1,5.8E1,1.18E2,8.3E1,8.4E1,7.4E1,9.6E1,6.4E1,2.9E1,6E1,7.1E1,6E0,6.4E1,7E1,1E0,4.6E1,3.5E1,5.1E1,6.7E1],"tree_param":{"num_deleted":"0","num_feature":"9","num_nodes":"61","size_leaf_vector":"1"}},{"base_weights":[8.7928055E-3,1.5434332E0,-2.6093607E0,2.2616265E0,5.840495E-1,-1.5419044E0,-3.7707748E0,2.9143262E0,1.9336045E0,1.042342E0,3.9373883E-3,-1.0137129E0,-2.0516107E0,-3.1649084E0,-4.6940393E0,3.3312094E-1,2.7290592E-1,2.1937795E0,1.7111287E0,1.2497364E0,7.967926E-1,2.2566979E-1,-3.0374092E-1,-7.473834E-1,-1.2277234E0,-1.7243557E-1,-2.3012476E-1,-2.785061E-1,-3.407025E-1,-4.2438608E-1,-5.3513676E-1,2.3001169E-1,2.053128E-1,1.8080106E-1,1.5729849E-1,1.3347456E-1,1.1224537E-1,8.8916786E-2,6.477203E-2,3.6138356E-1,6.2463574E-2,-1.4444548E-1,-3.9049235E-1,-5.9322238E-2,-8.255932E-2,-1.0885932E-1,-1.3762055E-1,4.463135E-2,2.9942531E-2,1.4434579E-2,1.15906E-3,-1.2196843E-2,-2.2939578E-2,-3.3486057E-2,-4.697409E-2],"categories":[],"categories_nodes":[],"categories_segments":[],"categories_sizes":[],"default_left":[0,0,0,0,0,0,0,0,0,0,0,0,0,0,0,0,0,0,0,0,0,0,0,0,0,0,0,0,0,0,0,0,0,0,0,0,0,0,0,0,0,0,0,0,0,0,0,0,0,0,0,0,0,0,0],"id":6,"left_children":[1,3,5,7,9,11,13,15,17,19,21,23,25,27,29,-1,-1,31,33,35,37,39,41,43,45,-1,-1,-1,-1,-1,-1,-1,-1,-1,-1,-1,-1,-1,-1,47,49,51,53,-1,-1,-1,-1,-1,-1,-1,-1,-1,-1,-1,-1],"loss_changes":[1.2797098E4,1.3822373E3,1.4533828E3,2.4015186E2,2.2890228E2,1.6349219E2,3.0007178E2,2.0412842E1,4.064209E1,2.349939E1,2.6061224E1,1.6409576E1,2.152063E1,2.2056152E1,4.268701E1,0E0,0E0,5.123291E-1,2.7503662E0,1.3042297E0,2.4949036E0,4.894578E0,2.1546516E0,1.1740875E0,1.951828E0,0E0,0E0,0E0,0E0,0E0,0E0,0E0,0E0,0E0,0E0,0E0,0E0,0E0,0E0,5.0307655E-1,4.2321742E-1,8.276796E-2,2.9680252E-1,0E0,0E0,0E0,0E0,0E0,0E0,0E0,0E0,0E0,0E0,0E0,0E0],"parents":[2147483647,0,0,1,1,2,2,3,3,4,4,5,5,6,6,7,7,8,8,9,9,10,10,11,11,12,12,13,13,14,14,17,17,18,18,19,19,20,20,21,21,22,22,23,23,24,24,39,39,40,40,41,41,42,42],"right_children":[2,4,6,8,10,12,14,16,18,20,22,24,26,28,30,-1,-1,32,34,36,38,40,42,44,46,-1,-1,-1,-1,-1,-1,-1,-1,-1,-1,-1,-1,-1,-1,48,50,52,54,-1,-1,-1,-1,-1,-1,-1,-1,-1,-1,-1,-1],"split_conditions":[5.307705E0,3.4475627E0,7.247631E0,2.517799E0,4.2956805E0,6.2169805E0,8.431649E0,1.983138E0,2.9820282E0,3.8320363E0,4.8737745E0,5.7207117E0,6.6977673E0,7.6838236E0,9.173508E0,3.3312094E-1,2.7290592E-1,2.7666507E0,3.2251008E0,3.6530464E0,4.085692E0,4.615216E0,5.0304976E0,5.4507546E0,5.9859595E0,-1.7243557E-1,-2.3012476E-1,-2.785061E-1,-3.407025E-1,-4.2438608E-1,-5.3513676E-1,2.3001169E-1,2.053128E-1,1.8080106E-1,1.5729849E-1,1.3347456E-1,1.1224537E-1,8.8916786E-2,6.477203E-2,4.413423E0,4.717593E0,4.7690167E0,5.213068E0,-5.9322238E-2,-8.255932E-2,-1.0885932E-1,-1.3762055E-1,4.463135E-2,2.9942531E-2,1.4434579E-2,1.15906E-3,-1.2196843E-2,-2.2939578E-2,-3.3486057E-2,-4.697409E-2],"split_indices":[1,1,1,1,1,1,1,1,1,1,1,1,1,1,1,0,0,1,1,1,1,1,1,1,1,0,0,0,0,0,0,0,0,0,0,0,0,0,0,1,1,8,1,0,0,0,0,0,0,0,0,0,0,0,0],"split_type":[0,0,0,0,0,0,0,0,0,0,0,0,0,0,0,0,0,0,0,0,0,0,0,0,0,0,0,0,0,0,0,0,0,0,0,0,0,0,0,0,0,0,0,0,0,0,0,0,0,0,0,0,0,0,0],"sum_hessian":[3.183E3,2.007E3,1.176E3,1.147E3,8.6E2,6.14E2,5.62E2,3.81E2,7.66E2,4.8E2,3.8E2,3.03E2,3.11E2,3.42E2,2.2E2,1.12E2,2.69E2,3.49E2,4.17E2,2.58E2,2.22E2,2.21E2,1.59E2,1.37E2,1.66E2,1.38E2,1.73E2,1.38E2,2.04E2,1.35E2,8.5E1,1.9E2,1.59E2,2.38E2,1.79E2,1.49E2,1.09E2,1.34E2,8.8E1,1.2E2,1.01E2,5.7E1,1.02E2,4.9E1,8.8E1,9E1,7.6E1,4.8E1,7.2E1,3.8E1,6.3E1,4.7E1,1E1,6.3E1,3.9E1],"tree_param":{"num_deleted":"0","num_feature":"9","num_nodes":"55","size_leaf_vector":"1"}},{"base_weights":[1.1491772E-3,1.3836087E0,-2.3562117E0,1.9922079E0,4.618747E-1,-1.5628593E0,-3.6504967E0,2.553153E0,1.6693223E0,8.552141E-1,-3.0806607E-2,-1.0402571E0,-2.1358113E0,-3.2324486E0,-4.53415E0,2.8669236E0,2.323925E0,1.8655834E0,1.4310021E0,1.0055414E0,5.984221E-1,1.512388E-1,-2.8211403E-1,-7.6504767E-1,-1.3288922E0,-1.8825167E-1,-2.4035314E-1,-2.9800242E-1,-3.5940406E-1,-4.310197E-1,-5.4188025E-1,3.2276866E-1,2.7120712E-1,2.488401E-1,2.1894102E-1,1.99282E-1,1.7425148E-1,1.5106528E-1,1.2952146E-1,1.1022692E-1,8.832213E-2,6.6655076E-1,4.7916165E-1,2.522617E-1,8.317688E-3,-1.6998622E-1,-3.6618903E-1,-6.101315E-2,-9.0234995E-2,-1.1354216E-1,-1.4234747E-1,6.1095793E-2,7.449654E-2,2.5551388E-2,4.9757477E-2,3.0535981E-2,1.6863128E-2,-2.3070322E-3,1.3166386E-2,-1.9468939E-2,-5.239692E-3,-3.7997466E-2,-1.563263E-2],"categories":[],"categories_nodes":[],"categories_segments":[],"categories_sizes":[],"default_left":[0,0,0,0,0,0,0,0,0,0,0,0,0,0,0,0,0,0,0,0,0,0,0,0,0,0,0,0,0,0,0,0,0,0,0,0,0,0,0,0,0,0,0,0,0,0,0,0,0,0,0,0,0,0,0,0,0,0,0,0,0,0,0],"id":7,"left_children":[1,3,5,7,9,11,13,15,17,19,21,23,25,27,29,31,33,35,37,39,41,43,45,47,49,-1,-1,-1,-1,-1,-1,-1,-1,-1,-1,-1,-1,-1,-1,-1,-1,51,53,55,57,59,61,-1,-1,-1,-1,-1,-1,-1,-1,-1,-1,-1,-1,-1,-1,-1,-1],"loss_changes":[1.0526429E4,1.141208E3,1.2203228E3,2.1779248E2,1.5719083E2,2.1995215E2,1.5268604E2,2.5415771E1,3.3859863E1,1.6808136E1,1.6558186E1,2.9963043E1,1.9412964E1,1.7676025E1,4.975342E0,1.5253906E0,3.7072754E-1,3.182495E0,1.904541E0,2.3748474E0,1.0537453E0,3.0299459E0,1.3706789E0,3.7460632E0,1.8422546E0,0E0,0E0,0E0,0E0,0E0,0E0,0E0,0E0,0E0,0E0,0E0,0E0,0E0,0E0,0E0,0E0,2.58255E-3,1.4053535E-1,4.9470282E-1,3.4373745E-1,1.8442237E-1,1.8940544E-1,0E0,0E0,0E0,0E0,0E0,0E0,0E0,0E0,0E0,0E0,0E0,0E0,0E0,0E0,0E0,0E0],"parents":[2147483647,0,0,1,1,2,2,3,3,4,4,5,5,6,6,7,7,8,8,9,9,10,10,11,11,12,12,13,13,14,14,15,15,16,16,17,17,18,18,19,19,20,20,21,21,22,22,23,23,24,24,41,41,42,42,43,43,44,44,45,45,46,46],"right_children":[2,4,6,8,10,12,14,16,18,20,22,24,26,28,30,32,34,36,38,40,42,44,46,48,50,-1,-1,-1,-1,-1,-1,-1,-1,-1,-1,-1,-1,-1,-1,-1,-1,52,54,56,58,60,62,-1,-1,-1,-1,-1,-1,-1,-1,-1,-1,-1,-1,-1,-1,-1,-1],"split_conditions":[5.307705E0,3.534895E0,7.5851607E0,2.599397E0,4.361727E0,6.49936E0,8.877531E0,2.123E0,3.1181793E0,3.9954405E0,4.8989353E0,5.9038277E0,7.0903525E0,8.235078E0,9.857277E0,1.7764672E0,2.3566604E0,2.867268E0,3.3385336E0,3.7666135E0,4.1904798E0,4.6742487E0,5.081636E0,5.615616E0,6.1519423E0,-1.8825167E-1,-2.4035314E-1,-2.9800242E-1,-3.5940406E-1,-4.310197E-1,-5.4188025E-1,3.2276866E-1,2.7120712E-1,2.488401E-1,2.1894102E-1,1.99282E-1,1.7425148E-1,1.5106528E-1,1.2952146E-1,1.1022692E-1,8.832213E-2,1.384831E1,1.2474598E1,4.551138E0,1.6850504E1,1.727429E1,1.9077173E1,-6.101315E-2,-9.0234995E-2,-1.1354216E-1,-1.4234747E-1,6.1095793E-2,7.449654E-2,2.5551388E-2,4.9757477E-2,3.0535981E-2,1.6863128E-2,-2.3070322E-3,1.3166386E-2,-1.9468939E-2,-5.239692E-3,-3.7997466E-2,-1.563263E-2],"split_indices":[1,1,1,1,1,1,1,1,1,1,1,1,1,1,1,1,1,1,1,1,1,1,1,1,1,0,0,0,0,0,0,0,0,0,0,0,0,0,0,0,0,4,4,1,4,4,4,0,0,0,0,0,0,0,0,0,0,0,0,0,0,0,0],"split_type":[0,0,0,0,0,0,0,0,0,0,0,0,0,0,0,0,0,0,0,0,0,0,0,0,0,0,0,0,0,0,0,0,0,0,0,0,0,0,0,0,0,0,0,0,0,0,0,0,0,0,0,0,0,0,0,0,0,0,0,0,0,0,0],"sum_hessian":[3.228E3,2.035E3,1.193E3,1.225E3,8.1E2,7.41E2,4.52E2,4.45E2,7.8E2,4.5E2,3.6E2,3.89E2,3.52E2,3.1E2,1.42E2,1.83E2,2.62E2,4.24E2,3.56E2,2.82E2,1.68E2,2.09E2,1.51E2,2.01E2,1.88E2,1.85E2,1.67E2,1.88E2,1.22E2,1.18E2,2.4E1,4.9E1,1.34E2,1.1E2,1.52E2,2.01E2,2.23E2,2.18E2,1.38E2,1.53E2,1.29E2,1.04E2,6.4E1,1.22E2,8.7E1,6.6E1,8.5E1,9.7E1,1.04E2,6.6E1,1.22E2,6.6E1,3.8E1,6E0,5.8E1,7.3E1,4.9E1,7E1,1.7E1,5.4E1,1.2E1,7.9E1,6E0],"tree_param":{"num_deleted":"0","num_feature":"9","num_nodes":"63","size_leaf_vector":"1"}},{"base_weights":[-1.8280862E-2,1.2342213E0,-2.1812935E0,1.7918231E0,3.6023936E-1,-1.4648005E0,-3.328559E0,2.4064336E0,1.5464497E0,7.3262745E-1,-8.251213E-2,-9.806521E-1,-1.9679004E0,-2.9628851E0,-4.170685E0,2.9631335E-1,2.2963505E0,1.7609241E0,1.313005E0,8.743864E-1,5.0381494E-1,9.87523E-2,-2.9565406E-1,-7.5025856E-1,-1.2411605E0,-1.7435764E-1,-2.2071274E-1,-2.6980788E-1,-3.2599965E-1,-3.9077106E-1,-4.9608395E-1,2.3800223E-1,2.0677324E-1,1.8482946E-1,1.609307E-1,1.3980038E-1,1.16271056E-1,9.742886E-2,7.8430064E-2,5.814125E-2,3.9486727E-1,2.0280845E-1,-3.1908243E-3,-2.1737179E-1,-4.075784E-1,-5.907051E-1,-8.644403E-2,-1.1287743E0,-1.3430351E-1,9.220505E-3,3.977903E-2,2.2767263E-2,9.445458E-3,3.1999275E-3,-7.0463563E-3,-1.4013446E-2,-2.5799349E-2,-8.628464E-3,-4.1108605E-2,-5.1533144E-2,-6.412101E-2,-1.1344186E-1,-3.1603243E-2],"categories":[],"categories_nodes":[],"categories_segments":[],"categories_sizes":[],"default_left":[0,0,0,0,0,0,0,0,0,0,0,0,0,0,0,0,0,0,0,0,0,0,0,0,0,0,0,0,0,0,0,0,0,0,0,0,0,0,0,0,0,0,0,0,0,0,0,0,0,0,0,0,0,0,0,0,0,0,0,0,0,0,0],"id":8,"left_children":[1,3,5,7,9,11,13,15,17,19,21,23,25,27,29,-1,31,33,35,37,39,41,43,45,47,-1,-1,-1,-1,-1,-1,-1,-1,-1,-1,-1,-1,-1,-1,-1,49,51,53,55,57,59,-1,61,-1,-1,-1,-1,-1,-1,-1,-1,-1,-1,-1,-1,-1,-1,-1],"loss_changes":[8.739791E3,9.9497754E2,9.675586E2,1.8433765E2,1.3146616E2,1.7588E2,1.2744922E2,1.4889893E1,4.2448486E1,1.360437E1,1.4130991E1,2.1516083E1,1.5309814E1,1.6381104E1,8.666016E0,0E0,8.173828E-1,3.1588135E0,3.8931885E0,1.6298065E0,1.1907043E0,2.1009939E0,1.3833685E0,3.1512146E0,4.761963E-1,0E0,0E0,0E0,0E0,0E0,0E0,0E0,0E0,0E0,0E0,0E0,0E0,0E0,0E0,0E0,2.7903557E-2,2.4251986E-1,2.4135554E-1,2.8073454E-1,4.116249E-2,7.5149536E-4,0E0,4.977417E-2,0E0,0E0,0E0,0E0,0E0,0E0,0E0,0E0,0E0,0E0,0E0,0E0,0E0,0E0,0E0],"parents":[2147483647,0,0,1,1,2,2,3,3,4,4,5,5,6,6,7,7,8,8,9,9,10,10,11,11,12,12,13,13,14,14,16,16,17,17,18,18,19,19,20,20,21,21,22,22,23,23,24,24,40,40,41,41,42,42,43,43,44,44,45,45,47,47],"right_children":[2,4,6,8,10,12,14,16,18,20,22,24,26,28,30,-1,32,34,36,38,40,42,44,46,48,-1,-1,-1,-1,-1,-1,-1,-1,-1,-1,-1,-1,-1,-1,-1,50,52,54,56,58,60,-1,62,-1,-1,-1,-1,-1,-1,-1,-1,-1,-1,-1,-1,-1,-1,-1],"split_conditions":[5.372146E0,3.5674288E0,7.639644E0,2.4648874E0,4.413423E0,6.5289454E0,8.9460535E0,1.7764672E0,3.0584338E0,4.022692E0,4.9255404E0,5.9859595E0,7.1268983E0,8.235078E0,9.857277E0,2.9631335E-1,2.2960463E0,2.8222342E0,3.3385336E0,3.7666135E0,4.2300925E0,4.6742487E0,5.213068E0,5.653104E0,6.2620764E0,-1.7435764E-1,-2.2071274E-1,-2.6980788E-1,-3.2599965E-1,-3.9077106E-1,-4.9608395E-1,2.3800223E-1,2.0677324E-1,1.8482946E-1,1.609307E-1,1.3980038E-1,1.16271056E-1,9.742886E-2,7.8430064E-2,5.814125E-2,3.760048E1,5.408161E0,4.8410354E0,5.0304976E0,3.441687E1,5.496962E0,-8.644403E-2,6.474655E1,-1.3430351E-1,9.220505E-3,3.977903E-2,2.2767263E-2,9.445458E-3,3.1999275E-3,-7.0463563E-3,-1.4013446E-2,-2.5799349E-2,-8.628464E-3,-4.1108605E-2,-5.1533144E-2,-6.412101E-2,-1.1344186E-1,-3.1603243E-2],"split_indices":[1,1,1,1,1,1,1,1,1,1,1,1,1,1,1,0,1,1,1,1,1,1,1,1,1,0,0,0,0,0,0,0,0,0,0,0,0,0,0,0,7,8,8,1,2,1,0,3,0,0,0,0,0,0,0,0,0,0,0,0,0,0,0],"split_type":[0,0,0,0,0,0,0,0,0,0,0,0,0,0,0,0,0,0,0,0,0,0,0,0,0,0,0,0,0,0,0,0,0,0,0,0,0,0,0,0,0,0,0,0,0,0,0,0,0,0,0,0,0,0,0,0,0,0,0,0,0,0,0],"sum_hessian":[3.224E3,2.042E3,1.182E3,1.246E3,7.96E2,7.29E2,4.53E2,3.53E2,8.93E2,4.32E2,3.64E2,3.73E2,3.56E2,3.19E2,1.34E2,5.4E1,2.99E2,4.62E2,4.31E2,2.65E2,1.67E2,1.97E2,1.67E2,2E2,1.73E2,1.88E2,1.68E2,1.74E2,1.45E2,1.05E2,2.9E1,2.12E2,8.7E1,2.86E2,1.76E2,2.7E2,1.61E2,1.21E2,1.44E2,9.5E1,7.2E1,9.7E1,1E2,1E2,6.7E1,8.6E1,1.14E2,8.8E1,8.5E1,1E0,7.1E1,7.8E1,1.9E1,6.6E1,3.4E1,3.6E1,6.4E1,1E0,6.6E1,3.9E1,4.7E1,8.7E1,1E0],"tree_param":{"num_deleted":"0","num_feature":"9","num_nodes":"63","size_leaf_vector":"1"}},{"base_weights":[-3.713277E-3,1.1331991E0,-1.894765E0,1.6125114E0,3.41337E-1,-1.1932255E0,-2.8246448E0,2.0700414E0,1.3334213E0,6.7267287E-1,-2.3252588E-2,-7.7241373E-1,-1.5856229E0,-2.4218683E0,-3.5522845E0,2.365629E0,1.8787757E0,1.4986672E0,1.1436294E0,7.866067E-1,4.7375363E-1,1.437633E-1,-2.1398948E-1,-5.522164E-1,-9.5086086E-1,-1.3742902E0,-1.8025135E-1,-2.2006097E-1,-2.6917037E-1,-3.3252022E-1,-4.374554E-1,2.7653936E-1,2.227818E-1,1.9948636E-1,1.7546998E-1,1.5806623E-1,1.3872632E-1,1.20096326E-1,1.01704255E-1,8.420465E-2,6.7560844E-2,5.3671718E-2,3.977258E-1,2.1195315E-1,2.7169757E-2,-1.08772054E-1,-2.8271022E-1,-4.315187E-2,-6.09457E-2,-8.259769E-2,-1.0250943E-1,-1.2587433E-1,-1.4954858E-1,4.4007093E-2,3.2268368E-2,2.5873566E-2,1.6007869E-2,6.77441E-3,-5.1819766E-3,-1.1440984E-2,1.3447952E-2,-2.2525026E-2,-3.1522136E-2],"categories":[],"categories_nodes":[],"categories_segments":[],"categories_sizes":[],"default_left":[0,0,0,0,0,0,0,0,0,0,0,0,0,0,0,0,0,0,0,0,0,0,0,0,0,0,0,0,0,0,0,0,0,0,0,0,0,0,0,0,0,0,0,0,0,0,0,0,0,0,0,0,0,0,0,0,0,0,0,0,0,0,0],"id":9,"left_children":[1,3,5,7,9,11,13,15,17,19,21,23,25,27,29,31,33,35,37,39,41,43,45,47,49,51,-1,-1,-1,-1,-1,-1,-1,-1,-1,-1,-1,-1,-1,-1,-1,-1,53,55,57,59,61,-1,-1,-1,-1,-1,-1,-1,-1,-1,-1,-1,-1,-1,-1,-1,-1],"loss_changes":[6.8540703E3,7.551321E2,7.7748975E2,1.5557788E2,9.085845E1,1.1172101E2,1.420376E2,2.2014282E1,2.2529175E1,8.556808E0,1.1467101E1,1.2520401E1,1.3702942E1,1.4017456E1,1.9250732E1,3.7557373E0,6.623535E-1,1.5524292E0,1.4204102E0,9.633789E-1,4.8543167E-1,1.5207365E0,1.1839933E0,7.802391E-1,8.405304E-1,6.8026733E-1,0E0,0E0,0E0,0E0,0E0,0E0,0E0,0E0,0E0,0E0,0E0,0E0,0E0,0E0,0E0,0E0,8.043289E-2,2.5222778E-1,2.342667E-1,1.0864085E-1,1.1767292E-1,0E0,0E0,0E0,0E0,0E0,0E0,0E0,0E0,0E0,0E0,0E0,0E0,0E0,0E0,0E0,0E0],"parents":[2147483647,0,0,1,1,2,2,3,3,4,4,5,5,6,6,7,7,8,8,9,9,10,10,11,11,12,12,13,13,14,14,15,15,16,16,17,17,18,18,19,19,20,20,21,21,22,22,23,23,24,24,25,25,42,42,43,43,44,44,45,45,46,46],"right_children":[2,4,6,8,10,12,14,16,18,20,22,24,26,28,30,32,34,36,38,40,42,44,46,48,50,52,-1,-1,-1,-1,-1,-1,-1,-1,-1,-1,-1,-1,-1,-1,-1,-1,54,56,58,60,62,-1,-1,-1,-1,-1,-1,-1,-1,-1,-1,-1,-1,-1,-1,-1,-1],"split_conditions":[5.307705E0,3.586433E0,7.397855E0,2.6154497E0,4.361727E0,6.287199E0,8.610075E0,2.123E0,3.1301172E0,4.022692E0,4.8737745E0,5.7570777E0,6.860739E0,7.966235E0,9.640178E0,1.6882406E0,2.401564E0,2.930739E0,3.4133828E0,3.854562E0,4.157257E0,4.6742487E0,5.0304976E0,5.4507546E0,5.9859595E0,6.600555E0,-1.8025135E-1,-2.2006097E-1,-2.6917037E-1,-3.3252022E-1,-4.374554E-1,2.7653936E-1,2.227818E-1,1.9948636E-1,1.7546998E-1,1.5806623E-1,1.3872632E-1,1.20096326E-1,1.01704255E-1,8.420465E-2,6.7560844E-2,5.3671718E-2,4.9720654E0,4.5170693E0,4.7819324E0,5.705329E1,5.1433043E0,-4.315187E-2,-6.09457E-2,-8.259769E-2,-1.0250943E-1,-1.2587433E-1,-1.4954858E-1,4.4007093E-2,3.2268368E-2,2.5873566E-2,1.6007869E-2,6.77441E-3,-5.1819766E-3,-1.1440984E-2,1.3447952E-2,-2.2525026E-2,-3.1522136E-2],"split_indices":[1,1,1,1,1,1,1,1,1,1,1,1,1,1,1,1,1,1,1,1,1,1,1,1,1,1,0,0,0,0,0,0,0,0,0,0,0,0,0,0,0,0,8,1,8,0,1,0,0,0,0,0,0,0,0,0,0,0,0,0,0,0,0],"split_type":[0,0,0,0,0,0,0,0,0,0,0,0,0,0,0,0,0,0,0,0,0,0,0,0,0,0,0,0,0,0,0,0,0,0,0,0,0,0,0,0,0,0,0,0,0,0,0,0,0,0,0,0,0,0,0,0,0,0,0,0,0,0,0],"sum_hessian":[3.186E3,1.99E3,1.196E3,1.239E3,7.51E2,6.83E2,5.13E2,4.67E2,7.72E2,3.93E2,3.58E2,3.31E2,3.52E2,3.33E2,1.8E2,1.79E2,2.88E2,4.09E2,3.63E2,2.48E2,1.45E2,1.91E2,1.67E2,1.5E2,1.81E2,1.82E2,1.7E2,1.88E2,1.45E2,1.45E2,3.5E1,4.1E1,1.38E2,1.41E2,1.47E2,2.28E2,1.81E2,2.44E2,1.19E2,1.61E2,8.7E1,7.6E1,6.9E1,1.2E2,7.1E1,6.7E1,1E2,5.1E1,9.9E1,7.2E1,1.09E2,9.9E1,8.3E1,4.1E1,2.8E1,6.1E1,5.9E1,4.7E1,2.4E1,6.6E1,1E0,3.9E1,6.1E1],"tree_param":{"num_deleted":"0","num_feature":"9","num_nodes":"63","size_leaf_vector":"1"}},{"base_weights":[9.918658E-3,9.9175864E-1,-1.6630715E0,1.4238102E0,3.5817418E-1,-9.4715744E-1,-2.3301675E0,1.8162066E0,1.204977E0,6.1395264E-1,-1.5807744E-3,-6.577734E-1,-1.2098781E0,-1.8757112E0,-2.7440438E0,2.1881782E-1,1.7230699E0,1.3612736E0,1.0684693E0,1.9359805E-1,6.732474E-1,-3.2731676E-1,1.023567E-1,-5.791335E-1,-1.3223803E-1,-1.6296408E-1,-1.1029488E0,-2.3691022E-1,-1.7664715E0,-2.6132224E0,-3.5321638E-1,1.8099096E-1,1.566864E-1,1.4165033E0,1.2094481E0,1.0989639E0,7.649828E-1,2.868701E-1,-5.9200063E-2,7.3154473E-1,1.6506906E-1,-5.9040016E-1,-1.8743217E-1,2.9157543E-1,-2.2338024E-1,-9.480266E-1,-4.291241E-1,-9.196041E-1,-1.5796006E0,-1.5754205E0,-2.1898036E-1,-3.2124555E-1,-2.3878136E0,9.6004866E-2,1.4332841E-1,1.2250739E-1,6.644165E-2,7.8304276E-2,1.1377565E-1,8.0294214E-2,4.6590313E-2,8.420875E-3,4.6824746E-2,2.1562304E-3,-3.2706834E-2,8.066975E-2,5.7841547E-2,3.3260856E-2,7.5797015E-3,-4.5681E-2,-7.553295E-2,-1.0935212E-2,-5.7435777E-2,3.8120788E-2,1.5745716E-2,-3.660787E-3,-3.8379937E-2,-1.2897538E-1,-8.550873E-2,-2.9484898E-2,-7.115913E-2,-1.15629435E-1,-8.262394E-2,-1.4014442E-1,-1.8085928E-1,-1.7974225E-1,-1.4793445E-1,-2.1685708E-1,-2.7485394E-1],"categories":[],"categories_nodes":[],"categories_segments":[],"categories_sizes":[],"default_left":[0,0,0,0,0,0,0,0,0,0,0,0,0,0,0,0,0,0,0,0,0,0,0,0,0,0,0,0,0,0,0,0,0,0,0,0,0,0,0,0,0,0,0,0,0,0,0,0,0,0,0,0,0,0,0,0,0,0,0,0,0,0,0,0,0,0,0,0,0,0,0,0,0,0,0,0,0,0,0,0,0,0,0,0,0,0,0,0,0],"id":10,"left_children":[1,3,5,7,9,11,13,15,17,19,21,23,25,27,29,-1,31,33,35,37,39,41,43,45,-1,-1,47,-1,49,51,-1,-1,-1,53,55,57,59,61,63,65,67,69,71,73,75,77,79,81,83,85,-1,-1,87,-1,-1,-1,-1,-1,-1,-1,-1,-1,-1,-1,-1,-1,-1,-1,-1,-1,-1,-1,-1,-1,-1,-1,-1,-1,-1,-1,-1,-1,-1,-1,-1,-1,-1,-1,-1],"loss_changes":[5.2054336E3,5.4615137E2,5.575205E2,9.9738525E1,7.462722E1,4.2311584E1,1.0883496E2,1.0884033E1,1.4867432E1,1.1684021E1,1.1476889E1,1.3450142E1,1.1488556E1,1.1553101E1,2.324707E1,0E0,1.8168945E0,1.2467651E0,2.9814758E0,1.4317222E0,1.2173782E1,2.9070473E0,1.5905462E1,1.3150848E1,0E0,0E0,1.943396E1,0E0,1.6203552E1,2.9339111E1,0E0,0E0,0E0,5.6188965E-1,4.6203613E-2,3.680359E0,9.137535E-2,1.5779293E0,3.7482482E-1,3.8144073E0,6.3287926E-1,2.718811E-1,1.5988073E0,1.899457E0,2.8323264E0,1.1203346E0,6.4655724E0,2.9118805E0,1.17126465E-1,9.8825073E-1,0E0,0E0,1.0094238E1,0E0,0E0,0E0,0E0,0E0,0E0,0E0,0E0,0E0,0E0,0E0,0E0,0E0,0E0,0E0,0E0,0E0,0E0,0E0,0E0,0E0,0E0,0E0,0E0,0E0,0E0,0E0,0E0,0E0,0E0,0E0,0E0,0E0,0E0,0E0,0E0],"parents":[2147483647,0,0,1,1,2,2,3,3,4,4,5,5,6,6,7,7,8,8,9,9,10,10,11,11,12,12,13,13,14,14,16,16,17,17,18,18,19,19,20,20,21,21,22,22,23,23,26,26,28,28,29,29,33,33,34,34,35,35,36,36,37,37,38,38,39,39,40,40,41,41,42,42,43,43,44,44,45,45,46,46,47,47,48,48,49,49,52,52],"right_children":[2,4,6,8,10,12,14,16,18,20,22,24,26,28,30,-1,32,34,36,38,40,42,44,46,-1,-1,48,-1,50,52,-1,-1,-1,54,56,58,60,62,64,66,68,70,72,74,76,78,80,82,84,86,-1,-1,88,-1,-1,-1,-1,-1,-1,-1,-1,-1,-1,-1,-1,-1,-1,-1,-1,-1,-1,-1,-1,-1,-1,-1,-1,-1,-1,-1,-1,-1,-1,-1,-1,-1,-1,-1,-1],"split_conditions":[1.7054728E1,1.1745411E1,2.227602E1,8.44829E0,1.4463338E1,1.944725E1,2.5362621E1,6.119965E0,9.996723E0,-1.105615E0,-1.3838074E0,2.0375524E0,-2.1486006E0,-2.5342612E0,3.0552847E0,2.1881782E-1,7.780619E0,4.3208284E0,8.6357224E-1,4.158282E0,1.2250193E0,-1.6339887E0,1.3482853E0,-1.7632006E0,-1.3223803E-1,-1.6296408E-1,2.1199074E0,-2.3691022E-1,2.4146426E0,-2.9176555E0,-3.5321638E-1,1.8099096E-1,1.566864E-1,-8.4309655E-1,6.4700806E-1,-7.819377E-1,1.1916339E0,-1.3542805E0,5.577711E0,1.3355419E1,1.3232116E0,3.5608912E0,5.000353E0,1.5668297E1,1.5264329E0,-2.0866487E0,1.698721E0,-1.9007993E0,2.3373544E0,-2.3233657E0,-2.1898036E-1,-3.2124555E-1,2.7296004E0,9.6004866E-2,1.4332841E-1,1.2250739E-1,6.644165E-2,7.8304276E-2,1.1377565E-1,8.0294214E-2,4.6590313E-2,8.420875E-3,4.6824746E-2,2.1562304E-3,-3.2706834E-2,8.066975E-2,5.7841547E-2,3.3260856E-2,7.5797015E-3,-4.5681E-2,-7.553295E-2,-1.0935212E-2,-5.7435777E-2,3.8120788E-2,1.5745716E-2,-3.660787E-3,-3.8379937E-2,-1.2897538E-1,-8.550873E-2,-2.9484898E-2,-7.115913E-2,-1.15629435E-1,-8.262394E-2,-1.4014442E-1,-1.8085928E-1,-1.7974225E-1,-1.4793445E-1,-2.1685708E-1,-2.7485394E-1],"split_indices":[4,4,4,4,4,4,4,4,4,5,5,5,5,5,5,0,4,8,5,8,5,5,5,5,0,0,5,0,5,5,0,0,0,5,5,5,5,5,8,4,5,8,8,4,5,5,5,5,5,5,0,0,5,0,0,0,0,0,0,0,0,0,0,0,0,0,0,0,0,0,0,0,0,0,0,0,0,0,0,0,0,0,0,0,0,0,0,0,0],"split_type":[0,0,0,0,0,0,0,0,0,0,0,0,0,0,0,0,0,0,0,0,0,0,0,0,0,0,0,0,0,0,0,0,0,0,0,0,0,0,0,0,0,0,0,0,0,0,0,0,0,0,0,0,0,0,0,0,0,0,0,0,0,0,0,0,0,0,0,0,0,0,0,0,0,0,0,0,0,0,0,0,0,0,0,0,0,0,0,0,0],"sum_hessian":[3.167E3,1.996E3,1.171E3,1.186E3,8.1E2,5.66E2,6.05E2,4.22E2,7.64E2,4.73E2,3.37E2,2.71E2,2.95E2,2.91E2,3.14E2,8E1,3.42E2,3.52E2,4.12E2,5.9E1,4.14E2,8.1E1,2.56E2,2.44E2,2.7E1,5.7E1,2.38E2,4.9E1,2.42E2,2.73E2,4.1E1,2.13E2,1.29E2,2.52E2,1E2,3.72E2,4E1,4.3E1,1.6E1,3.71E2,4.3E1,2.7E1,5.4E1,1.62E2,9.4E1,6.9E1,1.75E2,1.74E2,6.4E1,1.7E2,7.2E1,7.1E1,2.02E2,1.1E1,2.41E2,9.6E1,4E0,4.3E1,3.29E2,3.4E1,6E0,2.1E1,2.2E1,1.3E1,3E0,2.46E2,1.25E2,1.4E1,2.9E1,1.7E1,1E1,4.6E1,8E0,9.6E1,6.6E1,4.4E1,5E1,1.2E1,5.7E1,1.2E2,5.5E1,4.6E1,1.28E2,4E1,2.4E1,4.6E1,1.24E2,1.3E2,7.2E1],"tree_param":{"num_deleted":"0","num_feature":"9","num_nodes":"89","size_leaf_vector":"1"}},{"base_weights":[7.910939E-3,9.319352E-1,-1.5177743E0,1.3568867E0,3.6623445E-1,-8.9707416E-1,-2.2434826E0,1.7841403E0,1.1803652E0,6.368579E-1,4.2492688E-2,-5.471172E-1,-1.1889726E0,-1.8699158E0,-2.771733E0,2.2956052E-1,1.7134634E0,1.3402499E0,1.0339113E0,7.3831785E-1,4.7267506E-1,1.9156839E-1,-1.1304949E-1,-3.8993382E-1,-6.792683E-1,-9.993249E-1,-1.3501032E-1,-1.6649367E-1,-2.0427589E-1,-2.482152E-1,-3.14797E-1,1.8247026E-1,1.6186081E-1,1.3950448E-1,1.250422E-1,1.0921236E-1,9.258388E-2,7.9844885E-2,6.538053E-1,4.187468E-1,5.459843E-1,2.7558014E-1,1.23848714E-1,-4.1338652E-2,-2.0012274E-1,-4.171394E-1,-2.1849605E-1,-5.6641287E-1,-7.268758E-1,-1.0201969E-1,-7.563764E-2,5.9959095E-2,7.489323E-2,4.7761537E-2,3.38117E-2,6.0157698E-2,4.684387E-2,1.8657025E-2,3.336145E-2,1.039808E-2,3.3967253E-2,-9.124878E-3,1.1574055E-2,-2.4538025E-2,-1.2716523E-2,-3.245608E-2,-4.7385257E-2,-1.3231151E-2,-3.000679E-2,-6.327938E-2,-4.285637E-2,-7.351682E-2,-3.2540705E-2],"categories":[],"categories_nodes":[],"categories_segments":[],"categories_sizes":[],"default_left":[0,0,0,0,0,0,0,0,0,0,0,0,0,0,0,0,0,0,0,0,0,0,0,0,0,0,0,0,0,0,0,0,0,0,0,0,0,0,0,0,0,0,0,0,0,0,0,0,0,0,0,0,0,0,0,0,0,0,0,0,0,0,0,0,0,0,0,0,0,0,0,0,0],"id":11,"left_children":[1,3,5,7,9,11,13,15,17,19,21,23,25,27,29,-1,31,33,35,37,39,41,43,45,47,49,-1,-1,-1,-1,-1,-1,-1,-1,-1,-1,-1,-1,51,53,55,57,59,61,63,65,67,69,71,-1,-1,-1,-1,-1,-1,-1,-1,-1,-1,-1,-1,-1,-1,-1,-1,-1,-1,-1,-1,-1,-1,-1,-1],"loss_changes":[4.488713E3,4.7620728E2,5.389746E2,8.32688E1,7.461848E1,6.564606E1,1.0394409E2,7.9594727E0,1.7440552E1,7.3803253E0,9.041617E0,5.9044113E0,9.437775E0,8.184326E0,1.6918213E1,0E0,1.3812256E-1,1.3092041E-1,1.6563416E0,9.262848E-1,4.8299026E-1,1.0980301E0,1.1843495E0,5.5249786E-1,4.4792175E-1,7.009888E-2,0E0,0E0,0E0,0E0,0E0,0E0,0E0,0E0,0E0,0E0,0E0,0E0,1.9044876E-1,3.5113907E-1,3.289795E-2,3.9233303E-1,4.4493294E-1,8.415847E-1,2.527573E-1,4.6575546E-1,1.0793233E-1,2.0463562E-1,1.2364578E-1,0E0,0E0,0E0,0E0,0E0,0E0,0E0,0E0,0E0,0E0,0E0,0E0,0E0,0E0,0E0,0E0,0E0,0E0,0E0,0E0,0E0,0E0,0E0,0E0],"parents":[2147483647,0,0,1,1,2,2,3,3,4,4,5,5,6,6,7,7,8,8,9,9,10,10,11,11,12,12,13,13,14,14,16,16,17,17,18,18,19,19,20,20,21,21,22,22,23,23,24,24,25,25,38,38,39,39,40,40,41,41,42,42,43,43,44,44,45,45,46,46,47,47,48,48],"right_children":[2,4,6,8,10,12,14,16,18,20,22,24,26,28,30,-1,32,34,36,38,40,42,44,46,48,50,-1,-1,-1,-1,-1,-1,-1,-1,-1,-1,-1,-1,52,54,56,58,60,62,64,66,68,70,72,-1,-1,-1,-1,-1,-1,-1,-1,-1,-1,-1,-1,-1,-1,-1,-1,-1,-1,-1,-1,-1,-1,-1,-1],"split_conditions":[5.241613E0,3.4133828E0,7.247631E0,2.424949E0,4.2300925E0,6.1519423E0,8.358796E0,1.6882406E0,2.930739E0,3.854562E0,4.7481365E0,5.653104E0,6.6444597E0,7.734054E0,9.107123E0,2.2956052E-1,2.0946891E0,2.7323039E0,3.2251008E0,3.6530464E0,1.368782E1,4.4630895E0,4.9959087E0,1.944725E1,5.7953343E0,2.2774889E1,-1.3501032E-1,-1.6649367E-1,-2.0427589E-1,-2.482152E-1,-3.14797E-1,1.8247026E-1,1.6186081E-1,1.3950448E-1,1.250422E-1,1.0921236E-1,9.258388E-2,7.9844885E-2,1.3081929E1,4.0458384E0,4.066992E0,1.4083644E1,1.7054728E1,1.6850504E1,1.6850504E1,5.372146E0,5.561869E0,1.9077173E1,2.2774889E1,-1.0201969E-1,-7.563764E-2,5.9959095E-2,7.489323E-2,4.7761537E-2,3.38117E-2,6.0157698E-2,4.684387E-2,1.8657025E-2,3.336145E-2,1.039808E-2,3.3967253E-2,-9.124878E-3,1.1574055E-2,-2.4538025E-2,-1.2716523E-2,-3.245608E-2,-4.7385257E-2,-1.3231151E-2,-3.000679E-2,-6.327938E-2,-4.285637E-2,-7.351682E-2,-3.2540705E-2],"split_indices":[1,1,1,1,1,1,1,1,1,1,1,1,1,1,1,0,1,1,1,1,4,1,1,4,1,4,0,0,0,0,0,0,0,0,0,0,0,0,4,1,1,4,4,4,4,1,1,4,4,0,0,0,0,0,0,0,0,0,0,0,0,0,0,0,0,0,0,0,0,0,0,0,0],"split_type":[0,0,0,0,0,0,0,0,0,0,0,0,0,0,0,0,0,0,0,0,0,0,0,0,0,0,0,0,0,0,0,0,0,0,0,0,0,0,0,0,0,0,0,0,0,0,0,0,0,0,0,0,0,0,0,0,0,0,0,0,0,0,0,0,0,0,0,0,0,0,0,0,0],"sum_hessian":[3.182E3,1.982E3,1.2E3,1.131E3,8.51E2,6.48E2,5.52E2,3.28E2,8.03E2,4.63E2,3.88E2,2.96E2,3.52E2,3.26E2,2.26E2,3.6E1,2.92E2,3.8E2,4.23E2,2.84E2,1.79E2,1.98E2,1.9E2,1.37E2,1.59E2,1.65E2,1.87E2,1.54E2,1.72E2,1.32E2,9.4E1,1.26E2,1.66E2,2.27E2,1.53E2,2.69E2,1.54E2,1.61E2,1.23E2,1.07E2,7.2E1,8.7E1,1.11E2,1.05E2,8.5E1,1.17E2,2E1,5.1E1,1.08E2,1.49E2,1.6E1,8.3E1,4E1,5.9E1,4.8E1,3.8E1,3.4E1,3.6E1,5.1E1,1.03E2,8E0,8E1,2.5E1,5.1E1,3.4E1,4.7E1,7E1,1.1E1,9E0,3.2E1,1.9E1,1.05E2,3E0],"tree_param":{"num_deleted":"0","num_feature":"9","num_nodes":"73","size_leaf_vector":"1"}},{"base_weights":[-7.21866E-3,8.419188E-1,-1.3220282E0,1.180056E0,3.4875315E-1,-7.38477E-1,-1.9137346E0,1.5394056E0,1.0164647E0,5.310794E-1,4.2889945E-2,-5.301968E-1,-1.0579408E0,-1.6338996E0,-2.3711886E0,2.1007894E-1,1.4838741E0,1.1617137E0,9.066583E-1,1.8116772E-1,5.7950836E-1,1.066458E-1,-3.27579E-1,-9.5613277E-1,-4.5066524E-1,-1.4320719E-1,-9.710775E-1,-2.028433E-1,-1.530691E0,-2.2590153E0,-3.0901092E-1,1.5505549E0,1.3044933E0,1.1727151E0,7.6328404E-2,9.2364186E-1,5.6034565E-1,2.5858435E-1,-7.864329E-2,6.160522E-1,1.5533829E-1,-2.3973145E-1,2.1915938E-1,-2.4444366E-1,-5.0702137E-1,-1.12611555E-1,-7.930248E-2,-3.1899565E-1,-8.830565E-1,-8.075212E-1,-1.3648953E0,-1.3840343E0,-1.9795835E-1,-2.676562E-1,-2.142977E0,1.566208E-1,1.04017414E-1,1.3113545E-1,3.2634735E-2,9.079174E-2,1.1878216E-1,4.78567E-2,9.3727335E-2,3.6450704E-3,6.0631562E-2,1.2053076E-2,3.8077243E-2,5.768967E-3,-1.52578745E-2,7.293165E-2,5.4718435E-2,3.1622667E-2,6.171799E-3,-1.5921814E-2,-5.686448E-2,3.2165952E-2,5.360372E-3,-1.577152E-2,-3.9567843E-2,-1.7875163E-2,-5.5045664E-2,-5.5917468E-2,-2.4945516E-2,-7.6398365E-2,-1.0826589E-1,-9.961982E-2,-7.181175E-2,-1.2610282E-1,-1.7477417E-1,-1.5427431E-1,-1.2995969E-1,-1.9245468E-1,-2.3978794E-1],"categories":[],"categories_nodes":[],"categories_segments":[],"categories_sizes":[],"default_left":[0,0,0,0,0,0,0,0,0,0,0,0,0,0,0,0,0,0,0,0,0,0,0,0,0,0,0,0,0,0,0,0,0,0,0,0,0,0,0,0,0,0,0,0,0,0,0,0,0,0,0,0,0,0,0,0,0,0,0,0,0,0,0,0,0,0,0,0,0,0,0,0,0,0,0,0,0,0,0,0,0,0,0,0,0,0,0,0,0,0,0,0,0],"id":12,"left_children":[1,3,5,7,9,11,13,15,17,19,21,23,25,27,29,-1,31,33,35,37,39,41,43,45,47,-1,49,-1,51,53,-1,55,57,59,-1,61,63,65,67,69,71,73,75,77,79,-1,-1,81,83,85,87,89,-1,-1,91,-1,-1,-1,-1,-1,-1,-1,-1,-1,-1,-1,-1,-1,-1,-1,-1,-1,-1,-1,-1,-1,-1,-1,-1,-1,-1,-1,-1,-1,-1,-1,-1,-1,-1,-1,-1,-1,-1],"loss_changes":[3.5849304E3,3.2493262E2,4.3365356E2,6.645117E1,4.4311905E1,4.1757263E1,7.613306E1,8.105469E0,1.1674194E1,8.334045E0,7.0735645E0,1.2678856E1,6.7338867E0,1.2816284E1,1.1970581E1,0E0,1.9365234E0,5.9521484E-1,2.182129E0,1.2673848E0,6.6781464E0,9.990437E0,5.32454E-1,7.7049637E-1,1.8392265E1,0E0,1.2166565E1,0E0,1.7931763E1,4.293579E0,0E0,2.5628662E-1,2.163086E-1,2.376709E-1,0E0,2.1966858E0,5.559015E-1,7.6379323E-1,1.5999979E-1,2.7366486E0,5.2273023E-1,1.5778217E0,3.257866E0,3.57319E-1,8.696532E-2,0E0,0E0,4.0861607E0,9.7917557E-1,1.7811356E0,1.4219666E-1,1.2113037E0,0E0,0E0,4.6834717E0,0E0,0E0,0E0,0E0,0E0,0E0,0E0,0E0,0E0,0E0,0E0,0E0,0E0,0E0,0E0,0E0,0E0,0E0,0E0,0E0,0E0,0E0,0E0,0E0,0E0,0E0,0E0,0E0,0E0,0E0,0E0,0E0,0E0,0E0,0E0,0E0,0E0,0E0],"parents":[2147483647,0,0,1,1,2,2,3,3,4,4,5,5,6,6,7,7,8,8,9,9,10,10,11,11,12,12,13,13,14,14,16,16,17,17,18,18,19,19,20,20,21,21,22,22,23,23,24,24,26,26,28,28,29,29,31,31,32,32,33,33,35,35,36,36,37,37,38,38,39,39,40,40,41,41,42,42,43,43,44,44,47,47,48,48,49,49,50,50,51,51,54,54],"right_children":[2,4,6,8,10,12,14,16,18,20,22,24,26,28,30,-1,32,34,36,38,40,42,44,46,48,-1,50,-1,52,54,-1,56,58,60,-1,62,64,66,68,70,72,74,76,78,80,-1,-1,82,84,86,88,90,-1,-1,92,-1,-1,-1,-1,-1,-1,-1,-1,-1,-1,-1,-1,-1,-1,-1,-1,-1,-1,-1,-1,-1,-1,-1,-1,-1,-1,-1,-1,-1,-1,-1,-1,-1,-1,-1,-1,-1,-1],"split_conditions":[1.6629978E1,1.1568517E1,2.227602E1,8.043036E0,1.4259544E1,2.0025072E1,2.687058E1,5.2507E0,9.593631E0,-1.105615E0,1.5264329E0,-1.9007993E0,-2.2002335E0,-2.5940905E0,3.243161E1,2.1007894E-1,3.3851986E0,5.282693E0,5.7144227E0,4.158282E0,1.2250193E0,-1.3838074E0,1.6177845E1,-2.0866487E0,1.8383197E0,-1.4320719E-1,2.1511075E0,-2.028433E-1,2.5423276E0,-3.0546782E0,-3.0901092E-1,6.1864215E-1,4.656053E0,-6.6459894E-1,7.6328404E-2,-1.051413E0,-5.109252E-1,-1.3542805E0,1.3163169E1,1.23518305E1,2.6862452E0,4.6017065E0,1.0450002E0,1.698721E0,1.5458974E0,-1.12611555E-1,-7.930248E-2,-1.6760926E0,2.1199074E0,-1.920559E0,2.5146782E0,-2.2963324E0,-1.9795835E-1,-2.676562E-1,2.7661397E0,1.566208E-1,1.04017414E-1,1.3113545E-1,3.2634735E-2,9.079174E-2,1.1878216E-1,4.78567E-2,9.3727335E-2,3.6450704E-3,6.0631562E-2,1.2053076E-2,3.8077243E-2,5.768967E-3,-1.52578745E-2,7.293165E-2,5.4718435E-2,3.1622667E-2,6.171799E-3,-1.5921814E-2,-5.686448E-2,3.2165952E-2,5.360372E-3,-1.577152E-2,-3.9567843E-2,-1.7875163E-2,-5.5045664E-2,-5.5917468E-2,-2.4945516E-2,-7.6398365E-2,-1.0826589E-1,-9.961982E-2,-7.181175E-2,-1.2610282E-1,-1.7477417E-1,-1.5427431E-1,-1.2995969E-1,-1.9245468E-1,-2.3978794E-1],"split_indices":[4,4,4,4,4,4,4,4,4,5,5,5,5,5,4,0,8,8,8,8,5,5,4,5,5,0,5,0,5,5,0,5,8,5,0,5,5,5,4,4,8,8,5,5,5,0,0,5,5,5,5,5,0,0,5,0,0,0,0,0,0,0,0,0,0,0,0,0,0,0,0,0,0,0,0,0,0,0,0,0,0,0,0,0,0,0,0,0,0,0,0,0,0],"split_type":[0,0,0,0,0,0,0,0,0,0,0,0,0,0,0,0,0,0,0,0,0,0,0,0,0,0,0,0,0,0,0,0,0,0,0,0,0,0,0,0,0,0,0,0,0,0,0,0,0,0,0,0,0,0,0,0,0,0,0,0,0,0,0,0,0,0,0,0,0,0,0,0,0,0,0,0,0,0,0,0,0,0,0,0,0,0,0,0,0,0,0,0,0],"sum_hessian":[3.209E3,1.95E3,1.259E3,1.156E3,7.94E2,6.35E2,6.24E2,3.59E2,7.97E2,4.97E2,2.97E2,3.86E2,2.49E2,3.9E2,2.34E2,2.9E1,3.3E2,3.39E2,4.58E2,6.1E1,4.36E2,2.54E2,4.3E1,5.9E1,3.27E2,4.4E1,2.05E2,7.7E1,3.13E2,2.06E2,2.8E1,2.35E2,9.5E1,3.28E2,1.1E1,4.35E2,2.3E1,4.7E1,1.4E1,4.01E2,3.5E1,6.2E1,1.92E2,3.1E1,1.2E1,2.6E1,3.3E1,2.52E2,7.5E1,1.47E2,5.8E1,2.39E2,7.4E1,4E1,1.66E2,2.26E2,9E0,9.4E1,1E0,2.1E1,3.07E2,1.4E1,4.21E2,2E0,2.1E1,2.3E1,2.4E1,5E0,9E0,1.48E2,2.53E2,1.2E1,2.3E1,5.1E1,1.1E1,1.18E2,7.4E1,2.1E1,1E1,2E0,1E1,5.5E1,1.97E2,5E1,2.5E1,4.4E1,1.03E2,4.9E1,9E0,7.7E1,1.62E2,9.4E1,7.2E1],"tree_param":{"num_deleted":"0","num_feature":"9","num_nodes":"93","size_leaf_vector":"1"}},{"base_weights":[-1.3254314E-2,7.6133114E-1,-1.2547196E0,1.1061697E0,2.9969317E-1,-7.3053575E-1,-1.8593271E0,1.4748251E0,9.721936E-1,5.104335E-1,2.9069576E-2,-4.7693783E-1,-9.928369E-1,-1.568743E0,-2.3476756E0,1.9528712E-1,1.4240806E-1,1.103313E0,8.473513E-1,6.237339E-1,4.076965E-1,1.4566962E-1,-9.413307E-2,-3.3515057E-1,-5.923881E-1,-8.4123725E-1,-1.1320628E-1,-1.4247814E-1,-1.7884171E-1,-2.126442E-1,-2.7452452E0,1.1427386E-1,1.012032E-1,9.1414414E-2,7.775771E-2,6.601111E-2,5.7202507E-2,4.5677772E-1,3.4123498E-1,1.8774651E-1,8.363979E-2,-3.6835775E-2,-1.6441572E-1,-2.876308E-1,-4.010246E-1,-5.329446E-2,-6.6709965E-1,-8.4527045E-2,-3.4975436E-2,-2.5356525E-1,-3.3726543E-1,4.3307822E-2,5.4585706E-2,3.9438993E-2,3.0182242E-2,2.4496673E-2,1.4010966E-2,1.1179527E-2,-1.1156183E-3,-7.7974476E-4,-1.1226436E-2,-1.4768356E-2,-2.2819163E-2,-2.3717279E-2,-3.280998E-2,-2.3183769E-2,-4.1501183E-2,-6.742231E-2,-5.929947E-3],"categories":[],"categories_nodes":[],"categories_segments":[],"categories_sizes":[],"default_left":[0,0,0,0,0,0,0,0,0,0,0,0,0,0,0,0,0,0,0,0,0,0,0,0,0,0,0,0,0,0,0,0,0,0,0,0,0,0,0,0,0,0,0,0,0,0,0,0,0,0,0,0,0,0,0,0,0,0,0,0,0,0,0,0,0,0,0,0,0],"id":13,"left_children":[1,3,5,7,9,11,13,15,17,19,21,23,25,27,29,-1,-1,31,33,35,37,39,41,43,45,47,-1,-1,-1,-1,49,-1,-1,-1,-1,-1,-1,51,53,55,57,59,61,63,65,-1,67,-1,-1,-1,-1,-1,-1,-1,-1,-1,-1,-1,-1,-1,-1,-1,-1,-1,-1,-1,-1,-1,-1],"loss_changes":[3.081027E3,3.1375146E2,3.8877698E2,5.4328613E1,4.8176605E1,4.3495575E1,7.73457E1,4.472168E0,1.2667969E1,5.2747803E0,5.343289E0,5.33432E0,5.8862E0,8.868347E0,1.2721069E1,0E0,0E0,2.9019165E-1,1.2931519E0,4.374695E-2,6.6615677E-1,4.8281097E-1,7.228316E-1,3.667221E-1,4.6607208E-1,1.953125E-2,0E0,0E0,0E0,0E0,9.161377E-1,0E0,0E0,0E0,0E0,0E0,0E0,6.33831E-2,1.1350632E-1,2.7369237E-1,2.1210027E-1,2.2034694E-1,5.2735567E-2,1.120882E-1,5.0504684E-2,0E0,2.977333E-1,0E0,0E0,0E0,0E0,0E0,0E0,0E0,0E0,0E0,0E0,0E0,0E0,0E0,0E0,0E0,0E0,0E0,0E0,0E0,0E0,0E0,0E0],"parents":[2147483647,0,0,1,1,2,2,3,3,4,4,5,5,6,6,7,7,8,8,9,9,10,10,11,11,12,12,13,13,14,14,17,17,18,18,19,19,20,20,21,21,22,22,23,23,24,24,25,25,30,30,37,37,38,38,39,39,40,40,41,41,42,42,43,43,44,44,46,46],"right_children":[2,4,6,8,10,12,14,16,18,20,22,24,26,28,30,-1,-1,32,34,36,38,40,42,44,46,48,-1,-1,-1,-1,50,-1,-1,-1,-1,-1,-1,52,54,56,58,60,62,64,66,-1,68,-1,-1,-1,-1,-1,-1,-1,-1,-1,-1,-1,-1,-1,-1,-1,-1,-1,-1,-1,-1,-1,-1],"split_conditions":[5.241613E0,3.4133828E0,7.282417E0,2.386877E0,4.260308E0,6.2620764E0,8.54592E0,1.5781262E0,2.930739E0,3.7467816E0,4.7481365E0,5.6891956E0,6.748129E0,7.966235E0,9.376029E0,1.9528712E-1,1.4240806E-1,2.7666507E0,3.1522453E0,3.586433E0,4.022692E0,4.551138E0,4.9959087E0,5.496962E0,5.9859595E0,7.1432953E0,-1.1320628E-1,-1.4247814E-1,-1.7884171E-1,-2.126442E-1,1.0116201E1,1.1427386E-1,1.012032E-1,9.1414414E-2,7.775771E-2,6.601111E-2,5.7202507E-2,6.1065464E1,4.0716996E0,4.177068E0,5.1350856E0,5.089052E0,5.198258E0,4.158282E0,2.6351411E0,-5.329446E-2,6.591041E1,-8.4527045E-2,-3.4975436E-2,-2.5356525E-1,-3.3726543E-1,4.3307822E-2,5.4585706E-2,3.9438993E-2,3.0182242E-2,2.4496673E-2,1.4010966E-2,1.1179527E-2,-1.1156183E-3,-7.7974476E-4,-1.1226436E-2,-1.4768356E-2,-2.2819163E-2,-2.3717279E-2,-3.280998E-2,-2.3183769E-2,-4.1501183E-2,-6.742231E-2,-5.929947E-3],"split_indices":[1,1,1,1,1,1,1,1,1,1,1,1,1,1,1,0,0,1,1,1,1,1,1,1,1,8,0,0,0,0,1,0,0,0,0,0,0,3,8,8,8,8,8,8,8,0,3,0,0,0,0,0,0,0,0,0,0,0,0,0,0,0,0,0,0,0,0,0,0],"split_type":[0,0,0,0,0,0,0,0,0,0,0,0,0,0,0,0,0,0,0,0,0,0,0,0,0,0,0,0,0,0,0,0,0,0,0,0,0,0,0,0,0,0,0,0,0,0,0,0,0,0,0,0,0,0,0,0,0,0,0,0,0,0,0,0,0,0,0,0,0],"sum_hessian":[3.202E3,1.972E3,1.23E3,1.128E3,8.44E2,6.6E2,5.7E2,2.98E2,8.3E2,4.74E2,3.7E2,3.37E2,3.23E2,3.6E2,2.1E2,2.5E1,2.73E2,4.01E2,4.29E2,2.23E2,2.51E2,1.9E2,1.8E2,1.53E2,1.84E2,1.58E2,1.65E2,2.22E2,1.38E2,1.39E2,7.1E1,2.72E2,1.29E2,2.13E2,2.16E2,1.24E2,9.9E1,1.41E2,1.1E2,1.12E2,7.8E1,1E2,8E1,9.2E1,6.1E1,1.07E2,7.7E1,1.56E2,2E0,5.7E1,1.4E1,1.16E2,2.5E1,4.3E1,6.7E1,4.9E1,6.3E1,6E1,1.8E1,7.3E1,2.7E1,6.6E1,1.4E1,4.4E1,4.8E1,6E0,5.5E1,7.6E1,1E0],"tree_param":{"num_deleted":"0","num_feature":"9","num_nodes":"69","size_leaf_vector":"1"}},{"base_weights":[6.2942887E-3,6.8372285E-1,-1.1096735E0,9.898196E-1,2.7705988E-1,-7.2596E-1,-1.7498537E0,1.2830124E0,8.49735E-1,4.799664E-1,5.825222E-2,-4.7365773E-1,-1.0133722E0,-1.5642098E0,-2.3196857E0,1.5666477E-1,1.2017397E0,9.607896E-1,7.475288E-1,5.5828243E-1,3.947149E-1,1.5740326E-1,-6.845818E-2,-3.1184706E-1,-5.96657E-1,-8.691791E-2,-1.1338933E0,-1.3842434E-1,-1.7488469E-1,-2.1884952E-1,-3.120132E-1,1.2577055E-1,1.0982938E-1,1.0081861E-1,9.014692E-2,7.8631437E-1,6.7535293E-1,5.091639E-1,6.625778E-2,3.114853E-1,4.7355968E-1,2.3760498E-1,1.0395672E-1,-1.0082125E-1,6.1094955E-2,-3.3513004E-1,-1.6373707E-1,-5.083263E-1,-6.5019256E-1,-1.1584262E-1,-7.444867E-2,7.426481E-2,8.570313E-2,6.1288025E-2,7.68158E-2,5.4599006E-2,4.3868717E-2,3.481158E-2,2.3775151E-2,4.384566E-2,5.79614E-2,1.757793E-2,3.0702174E-2,8.616825E-3,3.0635072E-2,-3.4012713E-3,-1.6024692E-2,1.4100102E-2,-4.1206363E-3,-2.628617E-2,-4.0775258E-2,-5.019379E-3,-2.3156453E-2,-5.186946E-2,-2.2625275E-2,-6.7528926E-2,-3.5500277E-2],"categories":[],"categories_nodes":[],"categories_segments":[],"categories_sizes":[],"default_left":[0,0,0,0,0,0,0,0,0,0,0,0,0,0,0,0,0,0,0,0,0,0,0,0,0,0,0,0,0,0,0,0,0,0,0,0,0,0,0,0,0,0,0,0,0,0,0,0,0,0,0,0,0,0,0,0,0,0,0,0,0,0,0,0,0,0,0,0,0,0,0,0,0,0,0,0,0],"id":14,"left_children":[1,3,5,7,9,11,13,15,17,19,21,23,25,27,29,-1,31,33,35,37,39,41,43,45,47,-1,49,-1,-1,-1,-1,-1,-1,-1,-1,51,53,55,-1,57,59,61,63,65,67,69,71,73,75,-1,-1,-1,-1,-1,-1,-1,-1,-1,-1,-1,-1,-1,-1,-1,-1,-1,-1,-1,-1,-1,-1,-1,-1,-1,-1,-1,-1],"loss_changes":[2.417654E3,2.4743738E2,2.9546985E2,4.5526245E1,3.7976303E1,5.4413666E1,4.418689E1,6.53125E0,8.032959E0,2.7440338E0,5.1994877E0,7.874489E0,5.148987E0,9.009705E0,4.617798E0,0E0,2.8601074E-1,1.2020874E-1,6.0549927E-1,8.3576965E-1,1.2699318E0,9.6976805E-1,7.6923776E-1,5.5550194E-1,7.52388E-1,0E0,9.4311523E-1,0E0,0E0,0E0,0E0,0E0,0E0,0E0,0E0,1.6023254E-1,3.9308167E-1,1.7574692E-1,0E0,2.0893288E-1,1.516552E-1,3.408718E-1,4.8124194E-1,5.7419014E-1,3.0826646E-1,6.905594E-1,1.8861204E-1,1.4878273E-1,7.900238E-1,0E0,0E0,0E0,0E0,0E0,0E0,0E0,0E0,0E0,0E0,0E0,0E0,0E0,0E0,0E0,0E0,0E0,0E0,0E0,0E0,0E0,0E0,0E0,0E0,0E0,0E0,0E0,0E0],"parents":[2147483647,0,0,1,1,2,2,3,3,4,4,5,5,6,6,7,7,8,8,9,9,10,10,11,11,12,12,13,13,14,14,16,16,17,17,18,18,19,19,20,20,21,21,22,22,23,23,24,24,26,26,35,35,36,36,37,37,39,39,40,40,41,41,42,42,43,43,44,44,45,45,46,46,47,47,48,48],"right_children":[2,4,6,8,10,12,14,16,18,20,22,24,26,28,30,-1,32,34,36,38,40,42,44,46,48,-1,50,-1,-1,-1,-1,-1,-1,-1,-1,52,54,56,-1,58,60,62,64,66,68,70,72,74,76,-1,-1,-1,-1,-1,-1,-1,-1,-1,-1,-1,-1,-1,-1,-1,-1,-1,-1,-1,-1,-1,-1,-1,-1,-1,-1,-1,-1],"split_conditions":[5.213068E0,3.4133828E0,7.5379167E0,2.517799E0,4.130887E0,6.4563656E0,9.029802E0,1.8641105E0,2.9820282E0,3.7467816E0,4.717593E0,5.7570777E0,6.976821E0,8.14187E0,1.0116201E1,1.5666477E-1,2.2960463E0,2.7455325E0,3.238794E0,1.2397665E1,1.3081929E1,4.361727E0,1.7172207E1,1.944725E1,6.0250754E0,-8.691791E-2,2.6143812E1,-1.3842434E-1,-1.7488469E-1,-2.1884952E-1,-3.120132E-1,1.2577055E-1,1.0982938E-1,1.0081861E-1,9.014692E-2,1.0632298E1,1.1280925E1,3.586433E0,6.625778E-2,3.9659436E0,1.4925528E1,1.4259544E1,1.6850504E1,4.9255404E0,4.9959087E0,5.4507546E0,5.561869E0,2.1657984E1,2.2774889E1,-1.1584262E-1,-7.444867E-2,7.426481E-2,8.570313E-2,6.1288025E-2,7.68158E-2,5.4599006E-2,4.3868717E-2,3.481158E-2,2.3775151E-2,4.384566E-2,5.79614E-2,1.757793E-2,3.0702174E-2,8.616825E-3,3.0635072E-2,-3.4012713E-3,-1.6024692E-2,1.4100102E-2,-4.1206363E-3,-2.628617E-2,-4.0775258E-2,-5.019379E-3,-2.3156453E-2,-5.186946E-2,-2.2625275E-2,-6.7528926E-2,-3.5500277E-2],"split_indices":[1,1,1,1,1,1,1,1,1,1,1,1,1,1,1,0,1,1,1,4,4,1,4,4,1,0,4,0,0,0,0,0,0,0,0,4,4,1,0,1,4,4,4,1,1,1,1,4,4,0,0,0,0,0,0,0,0,0,0,0,0,0,0,0,0,0,0,0,0,0,0,0,0,0,0,0,0],"split_type":[0,0,0,0,0,0,0,0,0,0,0,0,0,0,0,0,0,0,0,0,0,0,0,0,0,0,0,0,0,0,0,0,0,0,0,0,0,0,0,0,0,0,0,0,0,0,0,0,0,0,0,0,0,0,0,0,0,0,0,0,0,0,0,0,0,0,0,0,0,0,0,0,0,0,0,0,0],"sum_hessian":[3.196E3,1.989E3,1.207E3,1.134E3,8.55E2,7.56E2,4.51E2,3.64E2,7.7E2,4.43E2,4.12E2,4.04E2,3.52E2,3.43E2,1.08E2,7.7E1,2.87E2,3.65E2,4.05E2,2.28E2,2.15E2,2.31E2,1.81E2,1.76E2,2.28E2,1.64E2,1.88E2,1.78E2,1.65E2,9.6E1,1.2E1,1.79E2,1.08E2,1.94E2,1.71E2,2.57E2,1.48E2,1.59E2,6.9E1,1.07E2,1.08E2,9.1E1,1.4E2,1.45E2,3.6E1,1.51E2,2.5E1,9E1,1.38E2,1.75E2,1.3E1,1.66E2,9.1E1,9.3E1,5.5E1,1E2,5.9E1,6.9E1,3.8E1,8.5E1,2.3E1,5E1,4.1E1,1.3E2,1E1,6.9E1,7.6E1,2E1,1.6E1,7.8E1,7.3E1,1E1,1.5E1,8.6E1,4E0,1.26E2,1.2E1],"tree_param":{"num_deleted":"0","num_feature":"9","num_nodes":"77","size_leaf_vector":"1"}},{"base_weights":[-8.103302E-3,5.6916046E-1,-1.0282607E0,7.9911256E-1,1.1575368E-1,-6.705061E-1,-1.4596962E0,1.0180889E0,6.3838637E-1,2.5527978E-1,-9.496592E-2,-5.011042E-1,-8.8409895E-1,-1.1776276E0,-1.6367162E0,1.2313344E0,9.2905015E-1,7.141393E-1,5.267738E-1,2.6821494E-2,2.9597682E-1,-3.2792994E-1,-3.9421014E-2,-8.711934E-2,-4.407952E-1,-8.205625E-1,-1.2448038E-1,-1.1307524E0,-1.5794642E-1,-2.1908961E-1,-1.55652E0,1.6842316E-1,1.1785398E-1,9.6814924E-1,8.2067376E-1,7.2520226E-1,3.9850575E-1,5.659039E-1,3.9491954E-1,1.3192098E-1,-8.9314125E-2,3.5078558E-1,2.7862923E-2,-4.72031E-1,-2.26292E-1,1.0504355E-1,-2.0123103E-1,-3.3312967E-1,-7.252192E-1,-1.1520523E0,-7.0920473E-1,-1.4011852E-1,-1.0662972E0,-1.4588964E0,-2.1298853E-1,9.960987E-2,7.463371E-2,8.3407275E-2,4.9479347E-2,7.4252866E-2,5.488446E-2,4.328065E-2,8.273316E-3,4.137497E-2,6.138372E-2,4.1792165E-2,1.7469024E-2,-4.7004005E-4,1.890424E-2,-1.5612497E-2,2.9651096E-4,4.372293E-2,2.8294642E-2,8.694344E-3,-1.5911357E-2,-8.190918E-3,-4.8744164E-2,-1.3710245E-2,-4.1771777E-2,-1.0652944E-2,1.9809363E-2,-1.6327314E-2,-4.8496183E-2,-5.3296268E-2,-2.1563476E-2,-5.6467663E-2,-7.8745075E-2,-9.739519E-2,-1.2718885E-1,-6.153446E-2,-9.058896E-2,-1.0753591E-1,-4.531021E-2,-1.7116308E-1,-1.3676766E-1],"categories":[],"categories_nodes":[],"categories_segments":[],"categories_sizes":[],"default_left":[0,0,0,0,0,0,0,0,0,0,0,0,0,0,0,0,0,0,0,0,0,0,0,0,0,0,0,0,0,0,0,0,0,0,0,0,0,0,0,0,0,0,0,0,0,0,0,0,0,0,0,0,0,0,0,0,0,0,0,0,0,0,0,0,0,0,0,0,0,0,0,0,0,0,0,0,0,0,0,0,0,0,0,0,0,0,0,0,0,0,0,0,0,0,0],"id":15,"left_children":[1,3,5,7,9,11,13,15,17,19,21,23,25,27,29,31,33,35,37,39,41,43,45,-1,47,49,-1,51,-1,-1,53,-1,-1,55,57,59,61,63,65,67,69,71,73,75,77,79,81,83,85,87,89,-1,91,93,-1,-1,-1,-1,-1,-1,-1,-1,-1,-1,-1,-1,-1,-1,-1,-1,-1,-1,-1,-1,-1,-1,-1,-1,-1,-1,-1,-1,-1,-1,-1,-1,-1,-1,-1,-1,-1,-1,-1,-1,-1],"loss_changes":[1.890365E3,2.1364429E2,1.7806494E2,4.7215576E1,2.0340254E1,2.2569397E1,2.4286743E1,9.754639E0,6.2778625E0,3.8598518E0,3.558503E0,7.584114E0,5.395569E0,2.0942688E0,1.0811584E1,1.9842224E0,9.3859863E-1,1.3381958E0,1.4378662E0,7.929532E-1,5.177557E0,6.694288E-1,5.2573204E0,0E0,9.220806E0,8.079224E0,0E0,1.7829285E0,0E0,0E0,1.2733398E1,0E0,0E0,1.0854492E0,8.945465E-2,9.644623E-1,1.5915465E-1,1.5401688E0,3.1705475E-1,2.662248E-1,1.915858E-1,1.5945206E0,6.8768066E-1,8.63266E-2,5.0614464E-1,2.3638425E0,1.0624208E0,5.19141E0,3.945732E-1,2.0469666E-2,2.8209E0,0E0,3.796234E-1,3.307373E0,0E0,0E0,0E0,0E0,0E0,0E0,0E0,0E0,0E0,0E0,0E0,0E0,0E0,0E0,0E0,0E0,0E0,0E0,0E0,0E0,0E0,0E0,0E0,0E0,0E0,0E0,0E0,0E0,0E0,0E0,0E0,0E0,0E0,0E0,0E0,0E0,0E0,0E0,0E0,0E0,0E0],"parents":[2147483647,0,0,1,1,2,2,3,3,4,4,5,5,6,6,7,7,8,8,9,9,10,10,11,11,12,12,13,13,14,14,15,15,16,16,17,17,18,18,19,19,20,20,21,21,22,22,24,24,25,25,27,27,30,30,33,33,34,34,35,35,36,36,37,37,38,38,39,39,40,40,41,41,42,42,43,43,44,44,45,45,46,46,47,47,48,48,49,49,50,50,52,52,53,53],"right_children":[2,4,6,8,10,12,14,16,18,20,22,24,26,28,30,32,34,36,38,40,42,44,46,-1,48,50,-1,52,-1,-1,54,-1,-1,56,58,60,62,64,66,68,70,72,74,76,78,80,82,84,86,88,90,-1,92,94,-1,-1,-1,-1,-1,-1,-1,-1,-1,-1,-1,-1,-1,-1,-1,-1,-1,-1,-1,-1,-1,-1,-1,-1,-1,-1,-1,-1,-1,-1,-1,-1,-1,-1,-1,-1,-1,-1,-1,-1,-1],"split_conditions":[1.7522188E1,1.2564635E1,2.3304665E1,9.178368E0,1.5306877E1,2.060743E1,2.5362621E1,6.877415E0,1.10139475E1,-1.2414916E0,-1.5332623E0,-2.0463033E0,2.3560505E0,2.7296004E0,-3.0896184E0,4.706883E0,3.8926356E0,5.6387887E0,6.8870544E-1,3.5066833E0,1.2557149E0,-1.7313483E0,1.2926705E0,-8.711934E-2,1.8383197E0,-2.2963324E0,-1.2448038E-1,-2.5940905E0,-1.5794642E-1,-2.1908961E-1,3.0552847E0,1.6842316E-1,1.1785398E-1,5.676931E-1,5.282693E0,7.919635E-1,6.393148E0,-7.819377E-1,1.2250193E0,-1.5010151E0,-1.4130483E0,4.656053E0,1.5264329E0,2.184891E0,4.396469E0,-1.2895919E0,1.8768946E0,-1.6760926E0,3.3082657E0,3.6053648E0,2.0952039E0,-1.4011852E-1,5.378382E1,-2.7691288E0,-2.1298853E-1,9.960987E-2,7.463371E-2,8.3407275E-2,4.9479347E-2,7.4252866E-2,5.488446E-2,4.328065E-2,8.273316E-3,4.137497E-2,6.138372E-2,4.1792165E-2,1.7469024E-2,-4.7004005E-4,1.890424E-2,-1.5612497E-2,2.9651096E-4,4.372293E-2,2.8294642E-2,8.694344E-3,-1.5911357E-2,-8.190918E-3,-4.8744164E-2,-1.3710245E-2,-4.1771777E-2,-1.0652944E-2,1.9809363E-2,-1.6327314E-2,-4.8496183E-2,-5.3296268E-2,-2.1563476E-2,-5.6467663E-2,-7.8745075E-2,-9.739519E-2,-1.2718885E-1,-6.153446E-2,-9.058896E-2,-1.0753591E-1,-4.531021E-2,-1.7116308E-1,-1.3676766E-1],"split_indices":[4,4,4,4,4,4,4,4,4,5,5,5,5,5,5,4,8,8,5,8,5,5,5,0,5,5,0,5,0,0,5,0,0,5,8,5,8,5,5,5,5,8,5,8,8,5,5,5,8,8,5,0,0,5,0,0,0,0,0,0,0,0,0,0,0,0,0,0,0,0,0,0,0,0,0,0,0,0,0,0,0,0,0,0,0,0,0,0,0,0,0,0,0,0,0],"split_type":[0,0,0,0,0,0,0,0,0,0,0,0,0,0,0,0,0,0,0,0,0,0,0,0,0,0,0,0,0,0,0,0,0,0,0,0,0,0,0,0,0,0,0,0,0,0,0,0,0,0,0,0,0,0,0,0,0,0,0,0,0,0,0,0,0,0,0,0,0,0,0,0,0,0,0,0,0,0,0,0,0,0,0,0,0,0,0,0,0,0,0,0,0,0,0],"sum_hessian":[3.208E3,2.049E3,1.159E3,1.359E3,6.9E2,6.35E2,5.24E2,5.73E2,7.86E2,4.15E2,2.75E2,3.56E2,2.79E2,2.05E2,3.19E2,1.65E2,4.08E2,4.65E2,3.21E2,6.3E1,3.52E2,5.2E1,2.23E2,4.8E1,3.08E2,2.4E2,3.9E1,1.87E2,1.8E1,3.7E1,2.82E2,1.4E1,1.51E2,2.94E2,1.14E2,4.48E2,1.7E1,2.45E2,7.6E1,3.3E1,3E1,2.92E2,6E1,2E1,3.2E1,1.18E2,1.05E2,2.25E2,8.3E1,5.8E1,1.82E2,3.2E1,1.55E2,2.44E2,3.8E1,2.58E2,3.6E1,1.08E2,6E0,4.05E2,4.3E1,1.5E1,2E0,6.1E1,1.84E2,6.8E1,8E0,1E1,2.3E1,1.7E1,1.3E1,1.26E2,1.66E2,4.6E1,1.4E1,1E0,1.9E1,2.3E1,9E0,3.6E1,8.2E1,9.4E1,1.1E1,8.2E1,1.43E2,2.6E1,5.7E1,2.7E1,3.1E1,1.26E2,5.6E1,1.52E2,3E0,6E1,1.84E2],"tree_param":{"num_deleted":"0","num_feature":"9","num_nodes":"95","size_leaf_vector":"1"}},{"base_weights":[1.0426262E-2,5.543178E-1,-8.807347E-1,7.656597E-1,2.0856611E-1,-5.6262285E-1,-1.3257309E0,9.883986E-1,6.553897E-1,3.6193138E-1,4.4515863E-2,-3.9307192E-1,-8.0675364E-1,-1.136095E0,-1.567568E0,1.402934E-1,9.5617414E-1,7.386195E-1,5.7455146E-1,4.1358954E-1,2.8573355E-1,1.1643659E-1,-6.491226E-2,-3.33452E-1,-6.0070944E-1,-7.558343E-1,-9.7316134E-1,-1.528917E-1,-1.1022886E0,-1.508736E0,-2.2631781E-1,1.0220363E0,8.6590415E-1,7.8001964E-1,6.449587E-1,5.798015E-1,1.13913216E-1,4.1986674E-1,1.8769836E-1,3.4179357E-1,1.661069E-1,1.6287678E-1,5.1266905E-2,-2.6225679E-2,-2.0633304E-1,-6.34034E-1,-2.5355572E-1,-5.4709715E-1,-8.2117416E-2,-9.025131E-1,-6.568229E-1,-1.04655996E-1,-6.3626915E-1,-1.0344094E0,-1.29231E-1,-1.6954955E-1,-1.421051E0,8.30668E-2,1.04651E-1,8.6861536E-2,2.0928193E-2,3.6004256E-2,7.8334026E-2,6.608691E-2,4.5215316E-2,3.3088073E-2,5.8762785E-2,1.7959138E-2,-1.0723877E-2,3.4463696E-2,4.4686433E-2,2.550888E-3,2.0722417E-2,2.690857E-2,4.921258E-2,-4.6774293E-3,1.8443953E-2,1.1112124E-2,2.9722378E-2,-1.0882094E-2,1.5428416E-2,-5.9067826E-3,1.1529195E-2,-2.6111985E-2,-9.782728E-3,-9.704192E-2,-5.7300895E-2,-2.7235284E-2,5.012274E-3,-6.687307E-2,-4.1143548E-2,-8.280516E-2,-1.1293443E-1,-7.822379E-2,-5.8772713E-2,-2.158483E-2,-6.883519E-2,-1.1629865E-1,-9.033041E-2,-1.24729715E-1,-1.5994594E-1],"categories":[],"categories_nodes":[],"categories_segments":[],"categories_sizes":[],"default_left":[0,0,0,0,0,0,0,0,0,0,0,0,0,0,0,0,0,0,0,0,0,0,0,0,0,0,0,0,0,0,0,0,0,0,0,0,0,0,0,0,0,0,0,0,0,0,0,0,0,0,0,0,0,0,0,0,0,0,0,0,0,0,0,0,0,0,0,0,0,0,0,0,0,0,0,0,0,0,0,0,0,0,0,0,0,0,0,0,0,0,0,0,0,0,0,0,0,0,0,0,0],"id":16,"left_children":[1,3,5,7,9,11,13,15,17,19,21,23,25,27,29,-1,31,33,35,37,39,41,43,45,47,49,51,-1,53,55,-1,57,59,61,63,65,67,69,71,73,75,77,79,81,83,85,87,89,-1,91,93,-1,95,97,-1,-1,99,-1,-1,-1,-1,-1,-1,-1,-1,-1,-1,-1,-1,-1,-1,-1,-1,-1,-1,-1,-1,-1,-1,-1,-1,-1,-1,-1,-1,-1,-1,-1,-1,-1,-1,-1,-1,-1,-1,-1,-1,-1,-1,-1,-1],"loss_changes":[1.5423026E3,1.4423029E2,1.6997375E2,2.9464478E1,1.8878757E1,2.886467E1,2.1241272E1,4.0552673E0,5.1128845E0,1.4090881E0,2.872293E0,4.9742584E0,1.704773E0,2.0994568E0,5.506897E0,0E0,1.3623657E0,1.0557098E0,9.544983E-1,2.4590683E-1,1.0162296E0,6.574781E-1,7.878963E-1,7.6922646E0,6.3814163E-1,2.6748505E0,9.166641E-1,0E0,2.0942078E0,9.3130493E-1,0E0,1.2826538E-1,1.1373901E-1,1.000824E-1,9.690857E-2,6.179352E-1,1.0640829E-1,2.968788E-1,2.0048946E-2,1.0480518E0,2.1546865E-1,8.5698223E-1,1.5505278E0,5.413005E-1,1.587404E-1,8.39838E-1,1.4978065E0,9.954395E-1,0E0,5.51178E-1,7.361183E-1,0E0,1.5797424E-1,2.3377533E0,0E0,0E0,2.4998474E0,0E0,0E0,0E0,0E0,0E0,0E0,0E0,0E0,0E0,0E0,0E0,0E0,0E0,0E0,0E0,0E0,0E0,0E0,0E0,0E0,0E0,0E0,0E0,0E0,0E0,0E0,0E0,0E0,0E0,0E0,0E0,0E0,0E0,0E0,0E0,0E0,0E0,0E0,0E0,0E0,0E0,0E0,0E0,0E0],"parents":[2147483647,0,0,1,1,2,2,3,3,4,4,5,5,6,6,7,7,8,8,9,9,10,10,11,11,12,12,13,13,14,14,16,16,17,17,18,18,19,19,20,20,21,21,22,22,23,23,24,24,25,25,26,26,28,28,29,29,31,31,32,32,33,33,34,34,35,35,36,36,37,37,38,38,39,39,40,40,41,41,42,42,43,43,44,44,45,45,46,46,47,47,49,49,50,50,52,52,53,53,56,56],"right_children":[2,4,6,8,10,12,14,16,18,20,22,24,26,28,30,-1,32,34,36,38,40,42,44,46,48,50,52,-1,54,56,-1,58,60,62,64,66,68,70,72,74,76,78,80,82,84,86,88,90,-1,92,94,-1,96,98,-1,-1,100,-1,-1,-1,-1,-1,-1,-1,-1,-1,-1,-1,-1,-1,-1,-1,-1,-1,-1,-1,-1,-1,-1,-1,-1,-1,-1,-1,-1,-1,-1,-1,-1,-1,-1,-1,-1,-1,-1,-1,-1,-1,-1,-1,-1],"split_conditions":[1.6850504E1,1.1692011E1,2.345311E1,8.226631E0,1.3923352E1,2.060743E1,2.687058E1,5.2507E0,9.940814E0,1.2996496E1,1.5668297E1,5.513027E1,5.845934E1,3.7464813E1,3.3774338E1,1.402934E-1,3.1370132E0,4.2061234E0,6.44918E0,6.288186E0,5.5032875E1,5.4764828E1,5.3454037E1,4.401116E1,5.89088E1,4.320325E1,4.4719296E1,-1.528917E-1,6.011177E1,3.7464813E1,-2.2631781E-1,4.678588E1,4.9172993E0,1.8644474E0,5.32635E0,3.9663574E1,5.1901108E1,4.5636044E1,1.1928203E1,4.848568E1,5.5852116E1,4.810178E1,4.9548244E1,6.232354E1,4.381845E1,4.0319946E1,5.497035E1,4.2367817E1,-8.2117416E-2,4.8825808E0,4.1561607E1,-1.04655996E-1,6.308736E1,4.1841454E1,-1.29231E-1,-1.6954955E-1,6.126845E1,8.30668E-2,1.04651E-1,8.6861536E-2,2.0928193E-2,3.6004256E-2,7.8334026E-2,6.608691E-2,4.5215316E-2,3.3088073E-2,5.8762785E-2,1.7959138E-2,-1.0723877E-2,3.4463696E-2,4.4686433E-2,2.550888E-3,2.0722417E-2,2.690857E-2,4.921258E-2,-4.6774293E-3,1.8443953E-2,1.1112124E-2,2.9722378E-2,-1.0882094E-2,1.5428416E-2,-5.9067826E-3,1.1529195E-2,-2.6111985E-2,-9.782728E-3,-9.704192E-2,-5.7300895E-2,-2.7235284E-2,5.012274E-3,-6.687307E-2,-4.1143548E-2,-8.280516E-2,-1.1293443E-1,-7.822379E-2,-5.8772713E-2,-2.158483E-2,-6.883519E-2,-1.1629865E-1,-9.033041E-2,-1.24729715E-1,-1.5994594E-1],"split_indices":[4,4,4,4,4,4,4,4,4,4,4,6,6,6,4,0,8,8,8,8,7,7,6,6,6,6,7,0,6,6,0,6,8,8,8,7,0,7,4,0,7,7,6,3,7,6,0,7,0,8,7,0,3,6,0,0,6,0,0,0,0,0,0,0,0,0,0,0,0,0,0,0,0,0,0,0,0,0,0,0,0,0,0,0,0,0,0,0,0,0,0,0,0,0,0,0,0,0,0,0,0],"split_type":[0,0,0,0,0,0,0,0,0,0,0,0,0,0,0,0,0,0,0,0,0,0,0,0,0,0,0,0,0,0,0,0,0,0,0,0,0,0,0,0,0,0,0,0,0,0,0,0,0,0,0,0,0,0,0,0,0,0,0,0,0,0,0,0,0,0,0,0,0,0,0,0,0,0,0,0,0,0,0,0,0,0,0,0,0,0,0,0,0,0,0,0,0,0,0,0,0,0,0,0,0],"sum_hessian":[3.18E3,1.975E3,1.205E3,1.225E3,7.5E2,7.04E2,5.01E2,4.03E2,8.22E2,3.87E2,3.63E2,4.17E2,2.87E2,2.84E2,2.17E2,2.6E1,3.77E2,4.01E2,4.21E2,2.28E2,1.59E2,2.19E2,1.44E2,3.26E2,9.1E1,2.24E2,6.3E1,1.9E1,2.65E2,2.03E2,1.4E1,2.12E2,1.65E2,2.73E2,1.28E2,4.16E2,5E0,2.21E2,7E0,1.07E2,5.2E1,1.27E2,9.2E1,1.14E2,3E1,6.7E1,2.59E2,7.6E1,1.5E1,8.7E1,1.37E2,5E1,1.3E1,2E2,6.5E1,5.9E1,1.44E2,2.8E1,1.84E2,1.64E2,1E0,3E0,2.7E2,1.16E2,1.2E1,1.4E1,4.02E2,4E0,1E0,6.2E1,1.59E2,1E0,6E0,7.4E1,3.3E1,4E0,4.8E1,9.3E1,3.4E1,3.6E1,5.6E1,9.3E1,2.1E1,1.9E1,1.1E1,8E0,5.9E1,2.44E2,1.5E1,3.8E1,3.8E1,6.9E1,1.8E1,4.5E1,9.2E1,2E0,1.1E1,9.7E1,1.03E2,7.7E1,6.7E1],"tree_param":{"num_deleted":"0","num_feature":"9","num_nodes":"101","size_leaf_vector":"1"}},{"base_weights":[-3.4557544E-3,5.082981E-1,-8.348939E-1,7.389915E-1,1.8300526E-1,-5.529501E-1,-1.363817E0,9.834613E-1,6.411373E-1,3.2774392E-1,1.808488E-2,-3.6541796E-1,-7.686896E-1,-1.2075402E0,-1.7476448E0,1.3708434E-1,9.438956E-1,7.028867E-1,5.223222E-1,4.1267097E-1,2.6987016E-1,1.01619445E-1,-5.5301256E-2,-2.5656706E-1,-4.690495E-1,-6.650134E-1,-8.6873186E-1,-1.0773926E0,-1.3216044E-1,-1.6182281E-1,-2.4796262E-1,9.949636E-2,8.717492E-2,7.54725E-1,6.494172E-1,4.7029927E-1,6.3343816E-2,3.6448985E-1,5.4674048E-2,1.8947442E-1,3.3590972E-1,5.299582E-2,2.0476131E-1,-9.249576E-2,8.6112976E-2,-2.773623E-1,-6.720006E-2,-4.8805958E-1,-2.3282453E-1,-7.105503E-2,-5.72833E-1,-8.999008E-2,-5.1144093E-1,-1.109674E-1,-8.670585E-2,6.926877E-2,8.438426E-2,5.8390524E-2,7.275332E-2,5.0085764E-2,4.0006656E-2,2.712729E-2,3.9067436E-2,2.3511825E-2,1.293335E-2,3.9889093E-2,2.5945475E-2,8.086181E-3,-4.443741E-3,1.5004329E-2,2.9848749E-2,-2.5232777E-3,-1.2876965E-2,1.8491322E-2,1.4400776E-3,-2.1972729E-2,-3.3265978E-2,5.6779045E-3,-1.1724091E-2,-4.4084433E-2,-5.461972E-2,-2.5533924E-2,7.4962615E-3,-4.0370893E-2,-6.146595E-2,-1.1304855E-2,-5.2927494E-2],"categories":[],"categories_nodes":[],"categories_segments":[],"categories_sizes":[],"default_left":[0,0,0,0,0,0,0,0,0,0,0,0,0,0,0,0,0,0,0,0,0,0,0,0,0,0,0,0,0,0,0,0,0,0,0,0,0,0,0,0,0,0,0,0,0,0,0,0,0,0,0,0,0,0,0,0,0,0,0,0,0,0,0,0,0,0,0,0,0,0,0,0,0,0,0,0,0,0,0,0,0,0,0,0,0,0,0],"id":17,"left_children":[1,3,5,7,9,11,13,15,17,19,21,23,25,27,29,-1,31,33,35,37,39,41,43,45,47,49,51,53,-1,-1,-1,-1,-1,55,57,59,-1,61,-1,63,65,67,69,71,73,75,77,79,81,-1,83,-1,85,-1,-1,-1,-1,-1,-1,-1,-1,-1,-1,-1,-1,-1,-1,-1,-1,-1,-1,-1,-1,-1,-1,-1,-1,-1,-1,-1,-1,-1,-1,-1,-1,-1,-1],"loss_changes":[1.3479564E3,1.4702396E2,1.792417E2,2.6808472E1,1.9448416E1,3.1640533E1,2.3022644E1,3.7026672E0,5.663666E0,2.021759E0,2.3473861E0,4.6625443E0,3.2184448E0,3.0444946E0,7.260376E0,0E0,2.3428345E-1,1.0010681E0,1.349556E0,9.2469215E-1,1.3220825E0,8.8685703E-1,1.080971E0,8.0438995E-1,8.5634613E-1,3.6533356E-1,1.5776978E0,2.9174805E-2,0E0,0E0,0E0,0E0,0E0,8.916321E-1,9.671478E-1,2.2457504E-1,0E0,2.1376991E-1,0E0,2.9899883E-1,5.8026695E-1,3.3754724E-1,2.4753904E-1,3.9201283E-1,3.0199993E-1,5.2607536E-1,1.4314526E-1,3.054695E-1,1.4387608E-1,0E0,2.1873283E-1,0E0,6.095028E-2,0E0,0E0,0E0,0E0,0E0,0E0,0E0,0E0,0E0,0E0,0E0,0E0,0E0,0E0,0E0,0E0,0E0,0E0,0E0,0E0,0E0,0E0,0E0,0E0,0E0,0E0,0E0,0E0,0E0,0E0,0E0,0E0,0E0,0E0],"parents":[2147483647,0,0,1,1,2,2,3,3,4,4,5,5,6,6,7,7,8,8,9,9,10,10,11,11,12,12,13,13,14,14,16,16,17,17,18,18,19,19,20,20,21,21,22,22,23,23,24,24,25,25,26,26,27,27,33,33,34,34,35,35,37,37,39,39,40,40,41,41,42,42,43,43,44,44,45,45,46,46,47,47,48,48,50,50,52,52],"right_children":[2,4,6,8,10,12,14,16,18,20,22,24,26,28,30,-1,32,34,36,38,40,42,44,46,48,50,52,54,-1,-1,-1,-1,-1,56,58,60,-1,62,-1,64,66,68,70,72,74,76,78,80,82,-1,84,-1,86,-1,-1,-1,-1,-1,-1,-1,-1,-1,-1,-1,-1,-1,-1,-1,-1,-1,-1,-1,-1,-1,-1,-1,-1,-1,-1,-1,-1,-1,-1,-1,-1,-1,-1],"split_conditions":[5.241613E0,3.4280193E0,7.734054E0,2.401564E0,4.2300925E0,6.5289454E0,9.029802E0,1.5781262E0,3.091992E0,3.7025294E0,4.6742487E0,5.8561025E0,7.1268983E0,8.235078E0,1.0116201E1,1.3708434E-1,2.1543503E0,2.7666507E0,1.1280925E1,1.2639124E1,1.29363985E1,1.515987E1,1.727429E1,2.0148005E1,2.2599884E1,2.2599884E1,2.6143812E1,2.7079435E1,-1.3216044E-1,-1.6182281E-1,-2.4796262E-1,9.949636E-2,8.717492E-2,8.978169E0,9.872716E0,3.2860332E0,6.3343816E-2,1.07207775E1,5.4674048E-2,3.8918893E0,4.0458384E0,4.551138E0,1.654486E1,4.837104E0,4.9594793E0,5.527609E0,5.561869E0,6.2620764E0,2.4499939E1,-7.105503E-2,6.748129E0,-8.999008E-2,3.2004234E1,-1.109674E-1,-8.670585E-2,6.926877E-2,8.438426E-2,5.8390524E-2,7.275332E-2,5.0085764E-2,4.0006656E-2,2.712729E-2,3.9067436E-2,2.3511825E-2,1.293335E-2,3.9889093E-2,2.5945475E-2,8.086181E-3,-4.443741E-3,1.5004329E-2,2.9848749E-2,-2.5232777E-3,-1.2876965E-2,1.8491322E-2,1.4400776E-3,-2.1972729E-2,-3.3265978E-2,5.6779045E-3,-1.1724091E-2,-4.4084433E-2,-5.461972E-2,-2.5533924E-2,7.4962615E-3,-4.0370893E-2,-6.146595E-2,-1.1304855E-2,-5.2927494E-2],"split_indices":[1,1,1,1,1,1,1,1,1,1,1,1,1,1,1,0,1,1,4,4,4,4,4,4,4,4,4,4,0,0,0,0,0,4,4,1,0,4,0,1,1,1,4,1,1,1,1,1,4,0,1,0,2,0,0,0,0,0,0,0,0,0,0,0,0,0,0,0,0,0,0,0,0,0,0,0,0,0,0,0,0,0,0,0,0,0,0],"split_type":[0,0,0,0,0,0,0,0,0,0,0,0,0,0,0,0,0,0,0,0,0,0,0,0,0,0,0,0,0,0,0,0,0,0,0,0,0,0,0,0,0,0,0,0,0,0,0,0,0,0,0,0,0,0,0,0,0,0,0,0,0,0,0,0,0,0,0,0,0,0,0,0,0,0,0,0,0,0,0,0,0,0,0,0,0,0,0],"sum_hessian":[3.166E3,1.96E3,1.206E3,1.146E3,8.14E2,7.88E2,4.18E2,3.25E2,8.21E2,4.33E2,3.81E2,4.23E2,3.65E2,3E2,1.18E2,2.7E1,2.98E2,5.37E2,2.84E2,1.73E2,2.6E2,1.78E2,2.03E2,2.08E2,2.15E2,1.83E2,1.82E2,1.45E2,1.55E2,1.03E2,1.5E1,1.67E2,1.31E2,2.66E2,2.71E2,1.97E2,8.7E1,1.3E2,4.3E1,1.19E2,1.41E2,1.22E2,5.6E1,1.61E2,4.2E1,1.87E2,2.1E1,1.98E2,1.7E1,1.18E2,6.5E1,1.66E2,1.6E1,1.22E2,2.3E1,1.62E2,1.04E2,1.52E2,1.19E2,1.33E2,6.4E1,3.1E1,9.9E1,6.6E1,5.3E1,7.5E1,6.6E1,9.5E1,2.7E1,3.7E1,1.9E1,5.7E1,1.04E2,1.7E1,2.5E1,9.4E1,9.3E1,6E0,1.5E1,1.14E2,8.4E1,1.6E1,1E0,1.5E1,5E1,1E0,1.5E1],"tree_param":{"num_deleted":"0","num_feature":"9","num_nodes":"87","size_leaf_vector":"1"}},{"base_weights":[-1.9577201E-3,4.6569306E-1,-6.6705173E-1,6.5388507E-1,2.410718E-1,-3.628425E-1,-1.0098042E0,8.371613E-1,5.723972E-1,3.7237322E-1,1.23380706E-1,-2.1502924E-1,-5.236533E-1,-8.075997E-1,-1.1897514E0,1.1543455E-1,8.01949E-1,6.248494E-1,4.9953318E-1,3.8399166E-1,1.8779637E-1,1.874345E-1,3.701446E-2,-1.729272E-1,-3.6443502E-1,-8.521655E-1,-4.9679086E-1,-1.0473926E0,-7.703692E-1,-1.1329967E0,-1.8032197E0,8.353966E-2,6.8513654E-2,6.5781504E-1,5.512456E-1,5.5364347E-1,4.61529E-1,3.079015E-1,4.0997425E-1,2.511356E-1,1.389122E-2,2.2858372E-1,1.01042636E-1,-1.2416599E-3,1.951053E-1,-4.1412726E-1,-1.3696937E-1,-5.402419E-1,-3.2857823E-1,-2.060051E-2,-8.713027E-2,-4.198215E-1,-6.238869E-1,-3.0622864E-2,-1.0594741E-1,-6.9320524E-1,-9.62225E-2,-1.3714062E-1,-1.0656933E0,-1.5315087E-1,-2.4536717E-1,6.743143E-2,5.195759E-2,1.3293075E-2,5.5340763E-2,1.041565E-2,5.5654544E-2,4.7413163E-2,3.2713078E-2,3.7213594E-2,2.0880708E-2,4.4639565E-2,3.192432E-2,4.010468E-3,3.0473683E-2,8.210973E-3,-2.3181915E-2,1.7813398E-2,3.3078354E-2,1.11299405E-5,1.638846E-2,5.1024943E-3,-1.5670376E-2,2.5384862E-2,4.667409E-3,6.9972994E-3,-4.295182E-2,-8.126791E-3,-1.9706298E-2,-2.2455089E-2,-5.80925E-2,-3.4202646E-2,-1.3036728E-2,-5.5822965E-2,-3.150728E-2,-6.591511E-2,-4.216614E-2,-7.940142E-2,-6.152133E-2,-9.2941746E-2,-1.2291986E-1],"categories":[],"categories_nodes":[],"categories_segments":[],"categories_sizes":[],"default_left":[0,0,0,0,0,0,0,0,0,0,0,0,0,0,0,0,0,0,0,0,0,0,0,0,0,0,0,0,0,0,0,0,0,0,0,0,0,0,0,0,0,0,0,0,0,0,0,0,0,0,0,0,0,0,0,0,0,0,0,0,0,0,0,0,0,0,0,0,0,0,0,0,0,0,0,0,0,0,0,0,0,0,0,0,0,0,0,0,0,0,0,0,0,0,0,0,0,0,0,0,0],"id":18,"left_children":[1,3,5,7,9,11,13,15,17,19,21,23,25,27,29,-1,31,33,35,37,39,41,43,45,47,49,51,53,55,57,59,-1,-1,61,63,65,67,69,71,73,75,77,79,81,83,85,87,89,91,-1,-1,93,95,-1,-1,97,-1,-1,99,-1,-1,-1,-1,-1,-1,-1,-1,-1,-1,-1,-1,-1,-1,-1,-1,-1,-1,-1,-1,-1,-1,-1,-1,-1,-1,-1,-1,-1,-1,-1,-1,-1,-1,-1,-1,-1,-1,-1,-1,-1,-1],"loss_changes":[9.974784E2,7.94404E1,1.3768506E2,1.4814026E1,1.3243641E1,1.6597687E1,2.1671326E1,2.5700989E0,2.4090424E0,7.9854965E-1,2.5101604E0,2.2518044E0,2.5417328E0,1.8356934E0,9.342194E0,0E0,5.4115295E-1,6.3220215E-1,3.675766E-1,6.27018E-1,2.8290176E-1,9.0474796E-1,1.179591E0,2.4497833E0,3.2679844E-1,1.17284775E-1,2.8000107E0,6.8740845E-3,3.1821136E0,3.3843079E0,8.372879E-1,0E0,0E0,2.837143E-1,4.6718597E-2,9.855652E-2,1.5655136E-1,5.6518745E-1,7.8606796E-1,2.0269763E-1,1.5313056E-1,8.485241E-1,5.454558E-1,1.291821E0,3.1948674E-1,3.0573225E-1,8.30853E-1,2.3671865E-2,1.3933659E-1,0E0,0E0,2.6947365E0,5.492935E-1,0E0,0E0,9.974747E-1,0E0,0E0,4.2052E0,0E0,0E0,0E0,0E0,0E0,0E0,0E0,0E0,0E0,0E0,0E0,0E0,0E0,0E0,0E0,0E0,0E0,0E0,0E0,0E0,0E0,0E0,0E0,0E0,0E0,0E0,0E0,0E0,0E0,0E0,0E0,0E0,0E0,0E0,0E0,0E0,0E0,0E0,0E0,0E0,0E0,0E0],"parents":[2147483647,0,0,1,1,2,2,3,3,4,4,5,5,6,6,7,7,8,8,9,9,10,10,11,11,12,12,13,13,14,14,16,16,17,17,18,18,19,19,20,20,21,21,22,22,23,23,24,24,25,25,26,26,27,27,28,28,29,29,30,30,33,33,34,34,35,35,36,36,37,37,38,38,39,39,40,40,41,41,42,42,43,43,44,44,45,45,46,46,47,47,48,48,51,51,52,52,55,55,58,58],"right_children":[2,4,6,8,10,12,14,16,18,20,22,24,26,28,30,-1,32,34,36,38,40,42,44,46,48,50,52,54,56,58,60,-1,-1,62,64,66,68,70,72,74,76,78,80,82,84,86,88,90,92,-1,-1,94,96,-1,-1,98,-1,-1,100,-1,-1,-1,-1,-1,-1,-1,-1,-1,-1,-1,-1,-1,-1,-1,-1,-1,-1,-1,-1,-1,-1,-1,-1,-1,-1,-1,-1,-1,-1,-1,-1,-1,-1,-1,-1,-1,-1,-1,-1,-1,-1],"split_conditions":[1.609201E1,1.0954194E1,2.227602E1,7.780619E0,1.2996496E1,1.9077173E1,2.5362621E1,5.2507E0,4.0821238E0,5.957404E0,1.4654045E1,5.4692307E1,4.0319946E1,3.9107067E1,3.243161E1,1.1543455E-1,3.3851986E0,9.733671E0,9.539022E0,4.5789345E1,5.089797E1,5.4764828E1,5.4085583E1,4.367955E1,4.0672882E1,5.3897762E1,5.5646847E1,3.2004234E1,5.9090984E1,3.7464813E1,6.3803204E1,8.353966E-2,6.8513654E-2,5.639112E1,3.5752335E1,3.956797E1,5.6387887E0,4.7936337E1,5.5032875E1,4.5620094E1,1.2700826E1,4.838561E1,4.967717E1,5.4764828E1,6.064171E1,5.037034E1,5.676847E1,3.794124E1,4.6190243E1,-2.060051E-2,-8.713027E-2,4.421308E1,4.5212418E1,-3.0622864E-2,-1.0594741E-1,4.2753254E1,-9.62225E-2,-1.3714062E-1,6.0326538E1,-1.5315087E-1,-2.4536717E-1,6.743143E-2,5.195759E-2,1.3293075E-2,5.5340763E-2,1.041565E-2,5.5654544E-2,4.7413163E-2,3.2713078E-2,3.7213594E-2,2.0880708E-2,4.4639565E-2,3.192432E-2,4.010468E-3,3.0473683E-2,8.210973E-3,-2.3181915E-2,1.7813398E-2,3.3078354E-2,1.11299405E-5,1.638846E-2,5.1024943E-3,-1.5670376E-2,2.5384862E-2,4.667409E-3,6.9972994E-3,-4.295182E-2,-8.126791E-3,-1.9706298E-2,-2.2455089E-2,-5.80925E-2,-3.4202646E-2,-1.3036728E-2,-5.5822965E-2,-3.150728E-2,-6.591511E-2,-4.216614E-2,-7.940142E-2,-6.152133E-2,-9.2941746E-2,-1.2291986E-1],"split_indices":[4,4,4,4,4,4,4,4,8,8,4,6,6,6,4,0,8,4,4,7,6,7,0,6,7,7,6,2,6,6,6,0,0,7,2,7,8,6,7,6,4,7,6,7,7,7,7,2,7,0,0,6,7,0,0,6,0,0,6,0,0,0,0,0,0,0,0,0,0,0,0,0,0,0,0,0,0,0,0,0,0,0,0,0,0,0,0,0,0,0,0,0,0,0,0,0,0,0,0,0,0],"split_type":[0,0,0,0,0,0,0,0,0,0,0,0,0,0,0,0,0,0,0,0,0,0,0,0,0,0,0,0,0,0,0,0,0,0,0,0,0,0,0,0,0,0,0,0,0,0,0,0,0,0,0,0,0,0,0,0,0,0,0,0,0,0,0,0,0,0,0,0,0,0,0,0,0,0,0,0,0,0,0,0,0,0,0,0,0,0,0,0,0,0,0,0,0,0,0,0,0,0,0,0,0],"sum_hessian":[3.205E3,1.882E3,1.323E3,1.023E3,8.59E2,7.02E2,6.21E2,3.12E2,7.11E2,4.05E2,4.54E2,3.67E2,3.35E2,2.95E2,3.26E2,2.8E1,2.84E2,4.09E2,3.02E2,3.8E2,2.5E1,2.6E2,1.94E2,2.88E2,7.9E1,2.3E1,3.12E2,3.6E1,2.59E2,3.01E2,2.5E1,2.16E2,6.8E1,2.77E2,1.32E2,1.19E2,1.83E2,1E2,2.8E2,1.8E1,7E0,1.75E2,8.5E1,1.57E2,3.7E1,3.6E1,2.52E2,1.1E1,6.8E1,1E0,2.2E1,1.97E2,1.15E2,1E0,3.5E1,1.88E2,7.1E1,6.2E1,2.39E2,2E1,5E0,2.44E2,3.3E1,1E0,1.31E2,1E0,1.18E2,1.65E2,1.8E1,5.9E1,4.1E1,1.97E2,8.3E1,4E0,1.4E1,6E0,1E0,1.19E2,5.6E1,3.3E1,5.2E1,1.18E2,3.9E1,2.6E1,1.1E1,1E0,3.5E1,1.32E2,1.2E2,2E0,9E0,6.3E1,5E0,8.3E1,1.14E2,9.6E1,1.9E1,7.8E1,1.1E2,1.34E2,1.05E2],"tree_param":{"num_deleted":"0","num_feature":"9","num_nodes":"101","size_leaf_vector":"1"}},{"base_weights":[-1.1498546E-3,3.9837492E-1,-6.926999E-1,5.876013E-1,1.2857863E-1,-4.588566E-1,-1.1075143E0,7.51903E-1,4.7498927E-1,2.7476543E-1,2.988657E-2,-3.0971077E-1,-6.2576586E-1,-1.009972E0,-1.6153934E0,9.902169E-1,7.026069E-1,5.4044944E-1,4.1390678E-1,2.1362434E-1,3.676378E-1,9.6759394E-2,-5.197971E-2,-2.2199492E-1,-3.7999126E-1,-5.3804743E-1,-7.1240854E-1,-8.2526946E-1,-1.0973035E0,-1.4278388E-1,-2.1578899E-1,1.2556063E-1,9.096562E-2,7.565448E-2,6.420572E-1,4.8738596E-1,6.138212E-1,3.5951194E-1,4.9970046E-1,2.4797845E-1,8.596581E-2,4.3226074E-2,2.943763E-1,4.9861073E-2,1.6992815E-1,-1.0022925E-1,6.8330385E-2,-2.6805225E-1,-9.780594E-2,-3.9932734E-1,-1.4188682E-1,-5.4812187E-1,-2.1220072E-1,-7.389983E-2,-4.233744E-1,-8.819145E-2,-6.1169922E-2,-9.9867724E-2,-1.15584075E-1,5.5639714E-2,7.139988E-2,5.153465E-2,4.289323E-2,7.162873E-2,5.734354E-2,3.8947847E-2,2.823934E-2,4.6683382E-2,6.10536E-2,1.8000742E-2,2.8350098E-2,2.1151225E-3,1.3697143E-2,2.2505015E-2,3.473687E-2,7.0849336E-3,-4.97462E-3,2.4685154E-2,1.2744796E-2,-6.2741623E-3,-1.468651E-2,3.1103238E-3,2.4825426E-2,-2.1327553E-2,-3.133871E-2,-3.837755E-3,-1.6058763E-2,-3.360868E-2,-4.325093E-2,6.289826E-3,-2.0488957E-2,-5.8318224E-2,-4.6855073E-2,-2.464536E-2,-3.3416747E-4,-7.14798E-3,-4.4090033E-2],"categories":[],"categories_nodes":[],"categories_segments":[],"categories_sizes":[],"default_left":[0,0,0,0,0,0,0,0,0,0,0,0,0,0,0,0,0,0,0,0,0,0,0,0,0,0,0,0,0,0,0,0,0,0,0,0,0,0,0,0,0,0,0,0,0,0,0,0,0,0,0,0,0,0,0,0,0,0,0,0,0,0,0,0,0,0,0,0,0,0,0,0,0,0,0,0,0,0,0,0,0,0,0,0,0,0,0,0,0,0,0,0,0,0,0,0,0],"id":19,"left_children":[1,3,5,7,9,11,13,15,17,19,21,23,25,27,29,31,33,35,37,39,41,43,45,47,49,51,53,55,57,-1,-1,-1,-1,-1,59,61,63,65,67,69,71,-1,73,75,77,79,81,83,85,87,89,91,93,-1,95,-1,-1,-1,-1,-1,-1,-1,-1,-1,-1,-1,-1,-1,-1,-1,-1,-1,-1,-1,-1,-1,-1,-1,-1,-1,-1,-1,-1,-1,-1,-1,-1,-1,-1,-1,-1,-1,-1,-1,-1,-1,-1],"loss_changes":[8.805402E2,1.0305066E2,1.1269263E2,2.1605133E1,1.2024306E1,1.8426773E1,1.9175232E1,4.9550476E0,2.6032104E0,1.8293762E0,2.7368696E0,2.363037E0,2.2919464E0,4.820709E0,3.6342163E0,5.6822205E-1,8.271332E-1,1.0167923E0,1.547039E0,8.777294E-1,4.976902E-1,9.3518734E-1,1.3129526E0,9.976301E-1,9.516144E-1,4.712944E-1,1.0243759E0,8.880615E-1,2.1975708E-1,0E0,0E0,0E0,0E0,0E0,8.1059265E-1,1.0746384E-1,1.6032791E-1,4.215374E-1,2.286148E-1,3.3770275E-1,1.4586875E-1,0E0,1.6061926E-1,3.568331E-1,3.181851E-1,2.722565E-1,4.2765185E-1,2.5599003E-1,1.8038774E-1,2.785263E-1,2.4512357E-1,2.0938492E-1,4.9254626E-2,0E0,7.332826E-2,0E0,0E0,0E0,0E0,0E0,0E0,0E0,0E0,0E0,0E0,0E0,0E0,0E0,0E0,0E0,0E0,0E0,0E0,0E0,0E0,0E0,0E0,0E0,0E0,0E0,0E0,0E0,0E0,0E0,0E0,0E0,0E0,0E0,0E0,0E0,0E0,0E0,0E0,0E0,0E0,0E0,0E0],"parents":[2147483647,0,0,1,1,2,2,3,3,4,4,5,5,6,6,7,7,8,8,9,9,10,10,11,11,12,12,13,13,14,14,15,15,16,16,17,17,18,18,19,19,20,20,21,21,22,22,23,23,24,24,25,25,26,26,27,27,28,28,34,34,35,35,36,36,37,37,38,38,39,39,40,40,42,42,43,43,44,44,45,45,46,46,47,47,48,48,49,49,50,50,51,51,52,52,54,54],"right_children":[2,4,6,8,10,12,14,16,18,20,22,24,26,28,30,32,34,36,38,40,42,44,46,48,50,52,54,56,58,-1,-1,-1,-1,-1,60,62,64,66,68,70,72,-1,74,76,78,80,82,84,86,88,90,92,94,-1,96,-1,-1,-1,-1,-1,-1,-1,-1,-1,-1,-1,-1,-1,-1,-1,-1,-1,-1,-1,-1,-1,-1,-1,-1,-1,-1,-1,-1,-1,-1,-1,-1,-1,-1,-1,-1,-1,-1,-1,-1,-1,-1],"split_conditions":[5.3266454E0,3.520433E0,7.6838236E0,2.6474235E0,4.085692E0,6.5289454E0,9.376029E0,1.8641105E0,3.091992E0,1.2996496E1,4.7481365E0,5.8561025E0,7.1268983E0,8.101676E0,1.0116201E1,1.5027345E0,2.3566604E0,9.829434E0,1.1280925E1,3.873121E0,3.8918893E0,1.4830295E1,1.727429E1,1.9077173E1,2.2599884E1,2.4901087E1,2.5881517E1,2.5748762E1,8.54592E0,-1.4278388E-1,-2.1578899E-1,1.2556063E-1,9.096562E-2,7.565448E-2,8.324048E0,2.8826184E0,2.8826184E0,3.311911E0,1.2700826E1,1.1358017E1,1.2206575E1,4.3226074E-2,1.4000725E1,4.582023E0,4.391974E0,5.0304976E0,1.9353703E1,5.561869E0,5.6891956E0,6.0989566E0,6.1773396E0,2.2459238E1,5.077857E1,-7.389983E-2,7.2059655E0,-8.819145E-2,-6.1169922E-2,-9.9867724E-2,-1.15584075E-1,5.5639714E-2,7.139988E-2,5.153465E-2,4.289323E-2,7.162873E-2,5.734354E-2,3.8947847E-2,2.823934E-2,4.6683382E-2,6.10536E-2,1.8000742E-2,2.8350098E-2,2.1151225E-3,1.3697143E-2,2.2505015E-2,3.473687E-2,7.0849336E-3,-4.97462E-3,2.4685154E-2,1.2744796E-2,-6.2741623E-3,-1.468651E-2,3.1103238E-3,2.4825426E-2,-2.1327553E-2,-3.133871E-2,-3.837755E-3,-1.6058763E-2,-3.360868E-2,-4.325093E-2,6.289826E-3,-2.0488957E-2,-5.8318224E-2,-4.6855073E-2,-2.464536E-2,-3.3416747E-4,-7.14798E-3,-4.4090033E-2],"split_indices":[1,1,1,1,1,1,1,1,1,4,1,1,1,1,1,1,1,4,4,1,1,4,4,4,4,4,4,4,1,0,0,0,0,0,4,1,1,1,4,4,4,0,4,1,1,1,4,1,1,1,1,4,0,0,1,0,0,0,0,0,0,0,0,0,0,0,0,0,0,0,0,0,0,0,0,0,0,0,0,0,0,0,0,0,0,0,0,0,0,0,0,0,0,0,0,0,0],"split_type":[0,0,0,0,0,0,0,0,0,0,0,0,0,0,0,0,0,0,0,0,0,0,0,0,0,0,0,0,0,0,0,0,0,0,0,0,0,0,0,0,0,0,0,0,0,0,0,0,0,0,0,0,0,0,0,0,0,0,0,0,0,0,0,0,0,0,0,0,0,0,0,0,0,0,0,0,0,0,0,0,0,0,0,0,0,0,0,0,0,0,0,0,0,0,0,0,0],"sum_hessian":[3.185E3,2.019E3,1.166E3,1.186E3,8.33E2,7.47E2,4.19E2,4.8E2,7.06E2,3.35E2,4.98E2,3.96E2,3.51E2,3.54E2,6.5E1,7.9E1,4.01E2,3.37E2,3.69E2,2.04E2,1.31E2,2.74E2,2.24E2,1.78E2,2.18E2,1.78E2,1.73E2,1.17E2,2.37E2,5.1E1,1.4E1,1.5E1,6.4E1,2.06E2,1.95E2,2E2,1.37E2,2.29E2,1.4E2,1.6E2,4.4E1,6.7E1,6.4E1,1.68E2,1.06E2,1.6E2,6.4E1,1.29E2,4.9E1,2.01E2,1.7E1,1.72E2,6E0,1.57E2,1.6E1,9E1,2.7E1,9.5E1,1.42E2,9.3E1,1.02E2,1.3E2,7E1,3.4E1,1.03E2,1.62E2,6.7E1,1.12E2,2.8E1,5.7E1,1.03E2,2E1,2.4E1,3E1,3.4E1,1.39E2,2.9E1,3.6E1,7E1,9E1,7E1,5.4E1,1E1,6.1E1,6.8E1,2.6E1,2.3E1,7.3E1,1.28E2,4E0,1.3E1,1.15E2,5.7E1,5E0,1E0,1E0,1.5E1],"tree_param":{"num_deleted":"0","num_feature":"9","num_nodes":"97","size_leaf_vector":"1"}},{"base_weights":[-4.4347993E-3,3.638319E-1,-6.0297805E-1,5.306848E-1,1.2607557E-1,-3.9266297E-1,-9.6057576E-1,6.731899E-1,4.3634647E-1,2.1662404E-1,-8.208466E-3,-2.5382474E-1,-5.484894E-1,-8.5019726E-1,-1.2503623E0,8.6062264E-1,6.2914485E-1,4.858529E-1,3.7362567E-1,2.564247E-1,1.364299E-1,6.4108424E-2,-4.7187768E-2,-1.750298E-1,-3.2374287E-1,-4.7361773E-1,-6.1638683E-1,-7.419917E-1,-9.378212E-2,-1.142741E-1,-1.6422018E-1,1.1319319E-1,7.95915E-2,6.971567E-2,5.87872E-1,4.3976644E-1,5.5044913E-1,3.2884815E-1,4.8488557E-2,2.1070525E-1,3.6171675E-1,6.444119E-2,2.1121255E-1,3.7736222E-2,2.895228E-1,-8.017021E-2,4.5643725E-2,-2.1133843E-1,-6.0188133E-2,-3.512901E-1,-1.2722042E-1,-5.085195E-1,-3.6071438E-1,-6.3557214E-1,-2.15168E-1,-7.7472456E-2,-5.0090935E-2,5.2630197E-2,6.613215E-2,4.620171E-2,3.7930872E-2,6.402425E-2,5.1351096E-2,2.5050396E-2,3.506961E-2,2.5187662E-2,1.47789335E-2,4.2256437E-2,3.0322885E-2,3.8922206E-3,1.9107874E-2,1.876743E-2,2.8740287E-2,1.4705153E-3,1.1920763E-2,8.626175E-3,3.001591E-2,-1.49366725E-2,-5.7204636E-3,2.363751E-3,1.9945418E-2,-1.5645115E-2,-2.5293872E-2,1.2282181E-3,-1.0809221E-2,-4.7144167E-2,-3.3499237E-2,-3.8118218E-3,-1.916647E-2,-4.0449973E-2,-5.245548E-2,-2.6322803E-2,-4.0542316E-2,-7.274733E-2,-6.0694862E-2,-2.304357E-2,-3.8879395E-3],"categories":[],"categories_nodes":[],"categories_segments":[],"categories_sizes":[],"default_left":[0,0,0,0,0,0,0,0,0,0,0,0,0,0,0,0,0,0,0,0,0,0,0,0,0,0,0,0,0,0,0,0,0,0,0,0,0,0,0,0,0,0,0,0,0,0,0,0,0,0,0,0,0,0,0,0,0,0,0,0,0,0,0,0,0,0,0,0,0,0,0,0,0,0,0,0,0,0,0,0,0,0,0,0,0,0,0,0,0,0,0,0,0,0,0,0,0],"id":20,"left_children":[1,3,5,7,9,11,13,15,17,19,21,23,25,27,29,31,33,35,37,39,41,43,45,47,49,51,53,55,-1,-1,-1,-1,-1,-1,57,59,61,63,-1,65,67,69,71,73,75,77,79,81,83,85,87,89,91,93,95,-1,-1,-1,-1,-1,-1,-1,-1,-1,-1,-1,-1,-1,-1,-1,-1,-1,-1,-1,-1,-1,-1,-1,-1,-1,-1,-1,-1,-1,-1,-1,-1,-1,-1,-1,-1,-1,-1,-1,-1,-1,-1],"loss_changes":[7.042522E2,7.840106E1,9.115112E1,1.532782E1,9.935856E0,1.6476189E1,1.33307495E1,3.264328E0,1.9982452E0,1.5226059E0,9.332496E-1,2.1910858E0,1.5432587E0,2.423523E0,3.268158E0,5.9132385E-1,6.48407E-1,9.159851E-1,1.4048767E0,1.4882984E0,8.6928415E-1,6.786566E-1,6.6194814E-1,7.9621077E-1,1.1192455E0,5.101013E-1,1.2949753E0,8.11409E-1,0E0,0E0,0E0,0E0,0E0,0E0,7.4181366E-1,1.3684845E-1,1.952858E-1,3.0069542E-1,0E0,5.559616E-1,2.1707535E-1,2.6725402E-1,8.953285E-2,1.9526626E-1,5.1140785E-5,2.4412835E-1,1.8821819E-1,2.960763E-1,1.6796553E-1,2.1021271E-1,1.5347362E-1,7.991791E-3,8.9413166E-2,2.407074E-2,1.7955989E-2,0E0,0E0,0E0,0E0,0E0,0E0,0E0,0E0,0E0,0E0,0E0,0E0,0E0,0E0,0E0,0E0,0E0,0E0,0E0,0E0,0E0,0E0,0E0,0E0,0E0,0E0,0E0,0E0,0E0,0E0,0E0,0E0,0E0,0E0,0E0,0E0,0E0,0E0,0E0,0E0,0E0,0E0],"parents":[2147483647,0,0,1,1,2,2,3,3,4,4,5,5,6,6,7,7,8,8,9,9,10,10,11,11,12,12,13,13,14,14,15,15,16,16,17,17,18,18,19,19,20,20,21,21,22,22,23,23,24,24,25,25,26,26,27,27,34,34,35,35,36,36,37,37,39,39,40,40,41,41,42,42,43,43,44,44,45,45,46,46,47,47,48,48,49,49,50,50,51,51,52,52,53,53,54,54],"right_children":[2,4,6,8,10,12,14,16,18,20,22,24,26,28,30,32,34,36,38,40,42,44,46,48,50,52,54,56,-1,-1,-1,-1,-1,-1,58,60,62,64,-1,66,68,70,72,74,76,78,80,82,84,86,88,90,92,94,96,-1,-1,-1,-1,-1,-1,-1,-1,-1,-1,-1,-1,-1,-1,-1,-1,-1,-1,-1,-1,-1,-1,-1,-1,-1,-1,-1,-1,-1,-1,-1,-1,-1,-1,-1,-1,-1,-1,-1,-1,-1,-1],"split_conditions":[5.241613E0,3.4899755E0,7.5851607E0,2.6344988E0,4.391974E0,6.4563656E0,8.9460535E0,1.9038947E0,3.1181793E0,4.022692E0,4.6742487E0,5.7953343E0,7.0277686E0,8.101676E0,9.857277E0,1.5027345E0,2.262892E0,9.829434E0,1.1568517E1,1.3081929E1,1.384831E1,1.671029E1,1.671029E1,1.9077173E1,2.1657984E1,2.2459238E1,2.687058E1,2.7079435E1,-9.378212E-2,-1.142741E-1,-1.6422018E-1,1.1319319E-1,7.95915E-2,6.971567E-2,8.324048E0,2.948026E0,2.8826184E0,9.779719E0,4.8488557E-2,3.7204885E0,3.8074234E0,1.1599703E0,1.57652645E1,1.3232116E0,5.4516495E1,1.4389545E1,1.9353703E1,5.4507546E0,5.561869E0,1.7172207E1,6.1519423E0,-2.2002335E0,6.6977673E0,2.1395512E1,2.8435362E1,-7.7472456E-2,-5.0090935E-2,5.2630197E-2,6.613215E-2,4.620171E-2,3.7930872E-2,6.402425E-2,5.1351096E-2,2.5050396E-2,3.506961E-2,2.5187662E-2,1.47789335E-2,4.2256437E-2,3.0322885E-2,3.8922206E-3,1.9107874E-2,1.876743E-2,2.8740287E-2,1.4705153E-3,1.1920763E-2,8.626175E-3,3.001591E-2,-1.49366725E-2,-5.7204636E-3,2.363751E-3,1.9945418E-2,-1.5645115E-2,-2.5293872E-2,1.2282181E-3,-1.0809221E-2,-4.7144167E-2,-3.3499237E-2,-3.8118218E-3,-1.916647E-2,-4.0449973E-2,-5.245548E-2,-2.6322803E-2,-4.0542316E-2,-7.274733E-2,-6.0694862E-2,-2.304357E-2,-3.8879395E-3],"split_indices":[1,1,1,1,1,1,1,1,1,1,1,1,1,1,1,1,1,4,4,4,4,4,4,4,4,4,4,4,0,0,0,0,0,0,4,1,1,4,0,1,1,5,4,5,3,4,4,1,1,4,1,5,1,4,4,0,0,0,0,0,0,0,0,0,0,0,0,0,0,0,0,0,0,0,0,0,0,0,0,0,0,0,0,0,0,0,0,0,0,0,0,0,0,0,0,0,0],"split_type":[0,0,0,0,0,0,0,0,0,0,0,0,0,0,0,0,0,0,0,0,0,0,0,0,0,0,0,0,0,0,0,0,0,0,0,0,0,0,0,0,0,0,0,0,0,0,0,0,0,0,0,0,0,0,0,0,0,0,0,0,0,0,0,0,0,0,0,0,0,0,0,0,0,0,0,0,0,0,0,0,0,0,0,0,0,0,0,0,0,0,0,0,0,0,0,0,0],"sum_hessian":[3.193E3,1.977E3,1.216E3,1.161E3,8.16E2,7.67E2,4.49E2,4.6E2,7.01E2,4.87E2,3.29E2,4.07E2,3.6E2,3.28E2,1.21E2,8.4E1,3.76E2,3.88E2,3.13E2,3.24E2,1.63E2,1.15E2,2.14E2,1.93E2,2.14E2,1.75E2,1.85E2,1.51E2,1.77E2,9.8E1,2.3E1,1.3E1,7.1E1,1.36E2,2.4E2,2.31E2,1.57E2,2.26E2,8.7E1,2.28E2,9.6E1,8.4E1,7.9E1,1.04E2,1.1E1,1.58E2,5.6E1,1.46E2,4.7E1,1.87E2,2.7E1,1.31E2,4.4E1,1.76E2,9E0,1.31E2,2E1,1.35E2,1.05E2,1.64E2,6.7E1,4.1E1,1.16E2,5.2E1,1.74E2,1.36E2,9.2E1,4.4E1,5.2E1,7.1E1,1.3E1,6.3E1,1.6E1,8.2E1,2.2E1,1E0,1E1,3.8E1,1.2E2,5E1,6E0,6.5E1,8.1E1,1.9E1,2.8E1,1.9E1,1.68E2,1.2E1,1.5E1,2.1E1,1.1E2,1.6E1,2.8E1,3.6E1,1.4E2,8E0,1E0],"tree_param":{"num_deleted":"0","num_feature":"9","num_nodes":"97","size_leaf_vector":"1"}},{"base_weights":[-9.239528E-3,3.037367E-1,-5.530345E-1,4.4855833E-1,1.0484535E-1,-3.7806424E-1,-8.017331E-1,5.988654E-1,3.8789833E-1,1.9427958E-1,-2.3983961E-2,-3.277969E-1,-6.2916917E-1,-7.691541E-1,-1.3186427E0,9.444951E-2,5.819256E-1,4.4539705E-1,3.3601367E-1,4.217864E-2,2.1959068E-1,6.6471417E-3,-1.9965157E-1,-5.5194396E-1,-2.4681585E-1,-5.3886527E-1,-7.5365365E-2,-1.0009863E0,-7.0811063E-1,-1.9032612E-1,-1.166263E-1,6.166804E-1,4.9776152E-1,3.4946033E-1,4.60632E-1,3.4920934E-1,1.9811453E-1,7.2805114E-2,-2.1576215E-2,2.370079E-1,-1.2793018E-2,-1.1960494E-1,6.245745E-2,-1.5781285E-1,-3.0194145E-1,-7.96541E-2,-4.9469543E-1,-1.9738443E-1,-3.5881156E-1,-4.0519044E-1,-6.0115427E-2,-8.941201E-2,-1.12931944E-1,-6.117032E-1,-9.291826E-2,4.05164E-2,6.378157E-2,5.077053E-2,2.945426E-2,3.786252E-2,2.492385E-2,4.9249925E-2,3.983825E-2,3.6878984E-2,2.3768302E-2,2.6800636E-2,1.0308156E-2,-1.3139038E-2,1.0735161E-2,3.0393342E-2,1.8794596E-2,4.530589E-3,-6.330423E-3,-2.2727026E-2,-5.5533326E-3,1.322678E-2,-1.4260407E-3,-1.0556504E-2,-2.8121045E-2,-3.266239E-2,-1.025645E-2,-4.455862E-2,-6.130295E-2,-2.9187722E-2,-1.2116662E-2,-2.0852773E-2,-4.088204E-2,-1.4740499E-2,-4.2119768E-2,-7.6320074E-2,-5.5694383E-2],"categories":[],"categories_nodes":[],"categories_segments":[],"categories_sizes":[],"default_left":[0,0,0,0,0,0,0,0,0,0,0,0,0,0,0,0,0,0,0,0,0,0,0,0,0,0,0,0,0,0,0,0,0,0,0,0,0,0,0,0,0,0,0,0,0,0,0,0,0,0,0,0,0,0,0,0,0,0,0,0,0,0,0,0,0,0,0,0,0,0,0,0,0,0,0,0,0,0,0,0,0,0,0,0,0,0,0,0,0,0,0],"id":21,"left_children":[1,3,5,7,9,11,13,15,17,19,21,23,25,27,29,-1,31,33,35,37,39,41,43,45,47,49,-1,51,53,-1,-1,55,57,59,61,63,65,67,-1,69,71,73,75,77,79,-1,81,83,85,87,-1,-1,-1,89,-1,-1,-1,-1,-1,-1,-1,-1,-1,-1,-1,-1,-1,-1,-1,-1,-1,-1,-1,-1,-1,-1,-1,-1,-1,-1,-1,-1,-1,-1,-1,-1,-1,-1,-1,-1,-1],"loss_changes":[5.413877E2,5.8107773E1,5.026117E1,1.0417084E1,9.82119E0,8.427467E0,7.0522766E0,1.4059067E0,2.3414001E0,1.9272099E0,1.8846397E0,1.0246521E1,8.6416626E-1,5.701996E0,1.8556976E-1,0E0,6.3199615E-1,4.1342926E-1,7.3692703E-1,5.923953E-1,1.7474937E0,2.1142743E0,1.748929E-1,1.7203789E0,2.2654133E0,3.3094597E-1,0E0,2.5198364E-1,7.146927E0,0E0,0E0,7.384949E-1,5.051422E-2,7.5163364E-2,4.7032928E-1,7.923889E-1,2.4469674E-1,4.796846E-1,0E0,1.2595596E0,9.384208E-2,6.2202144E-1,1.1158719E0,2.21757E-1,3.5395503E-2,0E0,4.532547E-1,2.0892334E0,8.767357E-1,4.10738E-2,0E0,0E0,0E0,1.6903992E0,0E0,0E0,0E0,0E0,0E0,0E0,0E0,0E0,0E0,0E0,0E0,0E0,0E0,0E0,0E0,0E0,0E0,0E0,0E0,0E0,0E0,0E0,0E0,0E0,0E0,0E0,0E0,0E0,0E0,0E0,0E0,0E0,0E0,0E0,0E0,0E0,0E0],"parents":[2147483647,0,0,1,1,2,2,3,3,4,4,5,5,6,6,7,7,8,8,9,9,10,10,11,11,12,12,13,13,14,14,16,16,17,17,18,18,19,19,20,20,21,21,22,22,23,23,24,24,25,25,27,27,28,28,31,31,32,32,33,33,34,34,35,35,36,36,37,37,39,39,40,40,41,41,42,42,43,43,44,44,46,46,47,47,48,48,49,49,53,53],"right_children":[2,4,6,8,10,12,14,16,18,20,22,24,26,28,30,-1,32,34,36,38,40,42,44,46,48,50,-1,52,54,-1,-1,56,58,60,62,64,66,68,-1,70,72,74,76,78,80,-1,82,84,86,88,-1,-1,-1,90,-1,-1,-1,-1,-1,-1,-1,-1,-1,-1,-1,-1,-1,-1,-1,-1,-1,-1,-1,